2266 100
uchuku -0.660845 -0.127799 0.276246 0.273473 0.123625 -0.397111 -0.634851 0.028051 0.209329 -0.507255 -0.491616 -0.189130 0.150727 -0.085318 -0.119400 -0.073374 -0.084091 0.245736 -0.323789 -0.416634 -0.230521 -0.150137 0.327309 0.512674 -0.366152 -0.521832 0.042806 -0.733635 -0.010900 -0.113236 -0.049170 -0.497455 0.083480 -0.361094 0.041541 0.259272 -0.130396 0.729808 -0.346485 0.660567 0.500401 0.132061 0.004736 0.168162 -0.094414 -0.520079 0.258697 -0.281552 -0.088108 0.222019 0.015723 0.395350 0.717782 0.193270 -0.238029 -0.029809 -0.189196 -0.129415 -0.461134 -0.315418 0.400857 -0.102467 -0.223621 0.540246 -0.014745 0.255771 -0.056880 0.073041 0.503792 -0.224398 -0.707717 0.477899 -0.119612 -0.166871 0.255988 -0.417317 -0.231343 -0.034122 0.408960 -0.230470 -0.002402 -0.029821 0.019524 0.544813 0.320433 0.234743 -0.159797 0.178176 -0.161730 0.485673 0.381297 -0.029510 0.001120 -0.015288 0.086357 -0.306734 -0.417436 -0.489317 0.359298 0.247426
uchungechunge 0.003103 0.117247 -0.188870 0.371355 -0.164296 -0.077193 -0.413588 0.243646 0.053073 -1.055010 0.210258 -0.477586 0.253804 -0.772653 0.120309 0.092459 -0.368143 0.414179 -0.829632 -0.644082 0.365113 -0.251745 -0.084951 0.054575 0.014803 -0.104769 -0.080252 -0.687133 -0.071241 -0.363268 0.018339 0.346763 -0.001094 0.153862 -0.086829 0.219900 -0.004690 0.958187 -0.577845 -0.294156 0.298450 1.056533 -0.334838 0.058871 0.055930 -0.924984 0.762567 -0.530124 -0.049806 0.358766 -0.948919 0.220559 0.473844 0.459477 -0.365321 -0.047209 -0.260066 -0.387957 -0.114870 -0.053929 0.048123 0.974852 -0.533136 -0.000358 0.329579 0.697997 -0.110023 0.684149 0.081355 0.378513 -0.286706 0.072006 0.276580 0.055937 -0.378889 0.370627 0.002986 0.177258 -0.333984 -0.026927 0.558998 -0.707758 -0.019085 0.331649 0.347375 -0.330908 -0.181555 0.212123 -0.580864 0.763951 0.141998 -0.366058 0.477985 0.309990 0.021429 -0.167594 -0.113836 -0.003932 0.817556 -0.114703
ucwaningo -0.385828 -0.019165 0.734872 0.417092 0.127453 -0.259132 -0.384133 0.417941 -0.150898 -0.549662 -0.001443 -0.453268 -0.290510 -0.092930 0.151998 0.227707 0.230880 -0.148024 -0.247747 -0.629830 0.714562 -0.412853 -0.343545 -0.196854 0.410094 -0.510920 0.179612 -0.226283 0.205910 -0.487365 0.412116 -0.148376 0.256670 -0.058967 0.164038 0.303083 -0.752267 0.641245 -0.734283 0.107704 0.568079 0.219747 -0.300473 0.425908 0.111391 -1.451877 0.488053 -0.171272 -0.667665 0.556561 -0.477485 -0.739810 0.697345 -0.610070 -0.581221 -0.557089 -0.168206 -0.698784 -0.276236 -0.236246 0.202828 0.174544 -0.245045 0.218952 0.212351 -0.002581 -0.338202 -0.037692 0.648411 -0.435052 -1.207951 0.579038 0.087516 0.752145 -0.017326 0.064485 0.415469 0.509851 -0.075933 -0.597807 0.158354 -0.262700 -0.070883 0.619541 0.854859 -0.577914 0.386713 0.034420 0.484166 0.493725 -0.328504 -0.026622 -0.369287 -0.546243 0.002320 0.252260 -0.643833 0.096220 0.146938 0.413541
udede -0.741452 0.280088 -0.696968 -0.049435 0.386289 -0.308814 -0.282701 0.169786 0.250938 -0.145918 0.104279 0.225354 0.172263 0.501076 -0.431553 0.313100 -0.018792 -0.280833 -0.013538 0.252257 0.279623 0.763484 0.725688 -0.217691 -0.676701 -0.009096 0.178960 -0.272311 0.088876 0.096348 0.187568 -0.949379 -0.130797 0.094170 0.174936 0.142526 -0.442308 0.597340 -0.624354 0.309492 0.413593 -0.116154 -0.219994 -0.083602 -0.461884 0.000586 0.248457 -0.341500 -0.199979 -0.322562 -0.447552 -0.336810 0.507664 0.358599 -0.119084 -0.057137 -0.112686 -0.433108 -0.276079 0.294991 0.182901 0.273474 -0.280672 0.649466 0.303884 0.505128 0.088420 -0.020909 0.031782 -0.493476 -0.272091 0.346485 0.347550 -0.219223 0.611713 -0.687279 -0.002289 -0.209595 -0.002236 -0.344879 -0.658461 -0.106693 0.463993 0.621442 0.430534 -0.058714 -0.368111 0.058468 -0.149063 0.443254 0.600512 0.089275 0.532767 0.312047 -0.280726 -0.578726 0.023250 -0.221585 0.296337 -0.296436
udlame -0.201466 -0.605422 -0.005029 0.212784 0.005879 -0.025274 -1.127908 0.241119 -0.349085 -0.648568 -0.333271 0.043464 -0.015723 -0.041208 0.183426 -0.060913 -0.027759 -0.080497 0.354032 -0.158528 -0.083566 -0.015434 0.839859 0.209029 -0.651797 -0.412917 0.241913 -0.663471 -0.019627 -0.424443 0.605145 -0.832790 -0.003979 0.145886 0.380491 0.147763 -0.247201 0.854085 -0.793877 0.372664 0.921117 0.221289 -0.630389 0.410367 0.032761 -0.556566 0.692633 0.476900 -0.040173 -0.153001 -0.612631 -0.154540 0.412015 0.227448 -0.628948 -0.777498 -0.588191 -0.379741 -0.519930 0.679599 -0.065575 0.514995 -0.554367 0.185684 0.283852 0.619583 -0.338462 0.348614 0.461251 -0.357188 -0.506682 0.049369 0.164617 -0.305230 0.676746 -0.617761 -0.615585 0.411026 0.146589 -0.348636 0.136143 -0.357824 0.433163 -0.012742 0.990702 0.303485 -0.014361 0.112050 0.203755 0.818172 -0.541654 0.471636 -0.326912 0.167266 -0.569657 -0.012601 -0.248297 -0.591826 0.211665 0.273310
udumo -0.139136 -0.415489 -0.120465 0.102308 -0.165819 0.135868 -0.539342 0.616055 0.007900 -0.724768 -0.106093 -0.157740 -0.186273 -0.366185 0.098163 -0.433893 0.438437 -0.738984 -0.410119 -0.265385 0.051401 0.404626 0.160267 -0.430551 -0.402042 -0.304711 0.076276 -0.207555 0.457460 0.000703 0.397721 0.063024 -0.257134 0.454330 0.019034 0.377760 -0.395114 0.813484 0.399087 0.255111 -0.070658 0.241732 -0.372084 -0.136538 -0.486913 -0.136998 0.016714 -0.713335 0.107627 0.527674 -0.300972 -0.365384 0.890046 0.308495 -0.016994 0.029909 -0.658457 -0.642042 -0.110750 -0.595693 0.202075 -0.166808 -0.758375 -0.014205 -0.326078 0.810710 -0.145622 0.734105 -0.612585 0.260022 -0.495637 0.346559 0.587413 -0.186283 0.177999 0.205714 0.276162 -0.110899 0.472925 -0.731921 0.979131 0.022289 0.227318 0.968341 0.100107 -0.270658 -0.190110 0.097005 -0.707597 0.657581 0.406993 0.220805 0.483805 0.713606 -0.253620 -0.546654 0.063983 -0.565721 0.571975 -1.036133
ufuba 0.110793 -0.102112 0.137172 0.048378 0.416213 -0.451207 -0.566953 0.533216 0.022044 0.016968 -0.299626 -0.283976 0.347419 0.470434 0.112658 0.523078 0.015083 0.264931 -0.101478 -0.025765 0.249801 0.181196 0.882057 -0.180585 -0.114518 -0.358563 0.448154 -0.077582 0.485323 -0.007361 0.830461 -0.403914 0.008243 0.280037 0.181266 0.163597 -0.227955 0.357482 -0.480309 0.344508 0.177533 -0.446812 -0.271451 -0.054153 -0.512068 -0.588906 -0.304067 -0.501739 0.253769 0.353430 -0.670423 -0.217859 0.279678 -0.079132 0.586249 -0.368388 0.418894 -0.404314 -0.438642 -0.479534 -0.282646 -0.183634 0.004982 0.117201 0.154487 0.368115 0.027777 0.035749 0.002032 0.113094 -0.144666 0.007392 -0.381343 -0.059546 0.159662 -0.297510 0.367166 0.050662 0.520426 -0.370250 -0.228292 -0.159222 0.351837 0.899768 0.573052 -0.121032 -0.456078 -0.147150 -0.182178 0.362799 0.289869 0.243120 -0.073316 -0.177680 -0.215987 -0.623582 -0.778039 0.027065 0.239715 0.342563
uhlaza -0.205178 0.075286 0.094654 0.318849 0.064333 -0.760564 0.358374 0.720450 0.257325 0.107970 0.677077 0.302543 0.142695 0.168057 0.197649 0.908680 0.083865 0.694224 -0.129670 -0.081857 0.058089 -0.103440 0.662902 0.459984 -0.703012 0.475387 0.158727 -0.496800 0.936474 0.148492 0.234555 -0.384288 0.645792 0.308737 0.205079 -0.227035 -0.075803 0.440197 -0.453173 0.371114 0.071041 -0.515714 -0.018354 -0.412455 -0.813892 -0.367606 -0.323862 -0.475045 0.367277 0.154058 -0.798376 -0.133224 0.170465 0.398074 0.549587 -0.087698 -0.410429 -0.126310 0.153984 -0.434435 0.057731 -0.010010 0.148529 -0.171038 -0.049228 0.691697 -0.105211 0.192068 0.030341 0.134292 -0.751757 -0.454332 -0.813021 -0.143394 0.080643 0.018739 0.127890 -0.186154 0.355253 -0.091348 -0.477338 0.164597 0.442897 1.255663 0.411887 0.379515 -0.294919 0.109034 -0.038097 0.395749 0.338199 -0.026072 0.351414 0.020839 -0.240680 -0.230501 0.244011 -0.603125 0.857456 -0.234963
uhlevane -0.154989 -0.172748 -0.158739 0.061653 0.273358 -0.293646 -0.179657 0.536922 0.131749 -0.204333 0.011708 -0.064181 0.187617 0.087942 0.449319 0.270301 -0.230311 0.004844 -0.124430 -0.379151 -0.008560 0.339432 0.552257 0.207117 -0.516249 -0.149427 0.187200 -0.363854 0.441093 -0.460495 0.134253 -0.091195 0.016248 -0.027075 0.235404 0.063153 -0.137855 0.559628 -0.255866 -0.023248 0.037774 0.066186 -0.379070 -0.114107 -0.074225 -0.006503 0.007728 -0.595598 0.106248 -0.149180 -0.426331 -0.212412 0.195246 -0.179287 -0.175386 -0.030782 -0.281936 -0.323492 -0.002752 -0.246279 0.309966 -0.188782 -0.232543 0.437865 0.118130 0.470388 -0.074502 0.022328 -0.395265 -0.187261 -0.292706 0.265202 -0.102270 -0.191757 0.115762 -0.165246 0.038015 0.109637 0.000859 -0.304618 0.222294 -0.136242 0.006976 0.682234 0.337685 0.108764 -0.151236 -0.011976 0.223903 0.494907 0.054466 0.030974 0.193567 -0.166002 -0.162794 -0.288957 -0.269026 -0.372045 0.151167 -0.130721
ukhula -0.095943 -0.198551 0.436243 0.148010 0.009313 -0.605676 -0.418647 0.659786 -0.363770 -1.208902 0.426036 -0.185019 -0.160985 -0.213874 0.400545 0.018184 0.025273 0.457630 -0.397712 -0.429355 0.363095 -0.388321 0.674264 -0.240172 -0.583676 -0.392138 1.321300 0.004667 0.742443 -0.054026 0.182493 -0.386555 0.369347 -0.023143 -0.060499 -0.088311 -0.284343 0.611772 -0.746127 0.946710 -0.441810 -0.462691 -0.113960 0.356746 -0.447682 -1.237021 -0.454366 -0.773644 0.303967 0.302362 -0.640208 -0.081727 0.811007 -0.215852 0.930633 -0.234373 0.025951 -0.385343 0.182065 -0.088928 -0.677789 0.530210 -0.108919 -0.011005 0.150548 0.386778 0.624119 0.350772 -0.664485 0.478790 -1.026252 -0.431554 -0.512031 0.295178 0.410194 0.090751 -0.468563 -0.265195 0.394894 -0.459088 -0.171728 0.115191 0.575071 1.294311 0.704194 -0.171721 -0.280457 0.260692 -0.062421 0.562165 -0.099191 0.464272 0.027773 0.379725 0.402297 -0.329585 -0.485339 -0.378463 0.448595 0.419288
ulwazi -0.318039 -0.187428 0.237441 0.038298 -0.068586 -0.502437 -0.368102 -0.240121 -0.580568 -0.501081 -0.054864 -0.867597 -0.237289 0.022386 -0.024965 -0.128063 0.307269 -0.059303 0.055928 -1.207694 -0.091955 -0.367706 0.235473 0.266323 0.166424 -0.151697 -0.001386 -0.511572 -0.085744 -0.789596 0.097072 0.299878 0.349909 0.611886 -0.182796 0.472226 -0.443240 0.715137 -0.519397 0.287116 0.323272 0.625537 -0.519647 0.220455 -0.265907 -1.213662 0.254173 -0.607643 0.179229 0.407767 0.129386 -0.363627 0.453216 -0.375538 -0.275383 -0.347338 -0.337744 -0.826426 -0.440236 -0.180081 0.194733 -0.225895 -0.294541 0.231672 0.482289 0.117450 -0.116310 0.047824 -0.049974 -0.172304 -0.628911 0.387371 -0.021935 0.520860 0.396049 0.547946 0.037476 0.305941 0.007187 0.070265 0.442201 0.171322 -0.354783 0.532961 0.814757 -0.326169 0.044621 -0.092722 0.419852 0.651120 0.165183 -0.533567 0.636510 0.069223 0.014150 -0.125560 -0.170274 -0.456625 0.035338 0.207641
uquqaba 0.145088 0.122658 -0.049763 0.133592 -0.050406 -0.332067 0.360253 0.440548 -0.186342 -0.284518 0.050969 -0.597725 0.359673 0.071339 0.095266 -0.154854 -0.127153 -0.116807 -0.285934 -0.534295 0.272010 -0.099050 0.943540 -0.037325 -0.621264 -0.114393 0.303085 0.017854 -0.005353 -0.047067 0.174900 -0.550857 -0.252646 0.392545 0.300570 -0.035222 -0.291679 0.209376 -0.293284 0.286404 0.595178 -0.011417 -0.694542 -0.036747 0.081028 -0.418728 0.114192 -0.450951 -0.014072 -0.183622 -0.333060 0.337953 0.602167 0.089848 -0.296324 0.101469 -0.357031 -0.189667 -0.468416 -0.199837 0.025900 -0.191078 -0.503913 0.065842 0.006039 0.344397 -0.062554 0.525646 -0.188447 -0.431451 -0.583418 -0.034740 0.161523 -0.567623 0.472997 -0.552090 -0.170777 0.157196 0.040614 -0.018968 -0.023563 -0.377526 0.138475 0.692616 0.526471 -0.098053 -0.064882 -0.312809 0.131075 0.560545 -0.233065 0.394913 -0.250441 -0.357821 -0.029634 -0.422044 0.167607 -0.209530 0.593063 -0.195613
ushintsho 0.296285 0.380944 -0.164763 0.095982 -0.212620 -0.256850 0.163104 0.504879 -0.154246 -0.775015 0.508161 -0.106592 -0.281384 0.114350 0.037039 -0.468732 0.041523 -0.379028 -0.866443 -0.372635 0.361769 -0.049710 0.322271 -0.005227 -0.049930 -0.060816 0.578921 -0.223630 0.099839 -0.095075 0.417213 -0.676184 0.118829 0.111848 0.285530 -0.075576 -0.395135 0.271949 -0.322747 0.648790 0.469111 0.862286 -0.502020 0.090876 0.166813 -1.039367 0.266483 -0.068319 -0.150171 0.299210 -0.199026 -0.189463 0.192825 0.034527 -0.181172 -0.092833 -0.051333 -0.490918 -0.228955 0.086256 0.435548 0.345099 -0.423294 -0.235010 0.247347 0.683372 -0.101451 0.113487 -0.331471 -0.209868 -0.470185 0.226128 0.327790 -0.168786 0.858472 0.084309 -0.060719 0.191170 -0.192894 -0.824567 0.394202 -0.103760 -0.093969 0.685340 0.792260 -0.249347 -0.016152 0.247730 0.589788 0.347575 0.009445 0.033428 0.181834 -0.070697 0.261850 -0.257929 -0.695454 -0.253944 0.299516 -0.108771
uthando 0.188446 -0.496179 -0.101043 -0.036098 -0.173219 -0.497037 -0.581769 0.933203 0.102027 -0.290439 -0.440183 -0.492960 -0.021156 0.173757 0.279363 -0.295522 0.365013 -0.534539 -0.234324 -0.481456 0.837380 -0.102375 0.391446 0.325815 -0.398842 -0.178833 0.311758 -0.644741 0.460604 -0.102119 0.399279 -0.244503 0.084120 0.237938 -0.084649 0.686497 -0.225545 0.604115 0.006663 0.045822 -0.161327 0.739472 -0.732369 0.204368 -0.648619 -0.537865 0.204945 -0.591148 0.485622 0.636753 -0.373485 -0.224416 0.476140 0.265986 0.069279 0.075022 -0.121273 -0.505899 -0.309043 -0.662662 0.045078 -0.272916 -0.694191 0.262546 -0.242833 0.094849 -0.375179 0.796153 -0.298025 -0.082916 -0.858463 0.212231 0.070614 -0.024717 0.089021 0.070532 -0.309706 0.795943 -0.188405 -0.374173 0.894631 0.067896 0.104321 0.737989 0.579536 -0.339355 -0.215702 0.299103 0.139183 0.815607 -0.275292 -0.103382 -0.087748 -0.122662 -0.240258 -0.691749 -0.314104 -0.067794 -0.304391 -0.133676
uxolo -0.084280 -0.916710 -0.117413 -0.455587 -0.061964 -0.252209 -0.988613 0.350179 0.226060 -0.570712 0.005017 -0.446298 0.288389 0.528434 -0.317293 -0.057360 0.459562 -0.554297 -0.255847 -0.283421 -0.718637 0.267848 0.054400 0.381552 -0.522768 -0.373572 0.124073 -0.631646 0.101860 -0.208029 0.056613 -0.315793 -0.265819 0.311396 0.091208 -0.059434 -0.230076 0.539169 -0.100342 0.239661 -0.263357 0.484959 -0.452374 0.179538 0.243076 -0.250004 -0.244011 -0.172252 0.019920 0.078157 -0.564637 -0.499510 0.585924 0.190867 -0.447726 -0.540657 0.053596 -0.521501 -0.970789 -0.131802 0.159047 -0.139753 -0.936951 0.356060 -0.251204 0.081183 0.198940 0.042327 -0.325151 -0.562704 0.056754 0.273323 0.249716 -0.273310 0.478481 -0.418500 -0.233971 0.018662 0.367239 -0.176379 0.408010 0.124093 -0.133830 0.404406 0.344743 -0.125699 0.180335 0.515721 0.071906 0.618998 0.183494 0.162754 -0.592475 0.281680 0.077724 -0.235320 -0.463616 -0.722186 -0.003530 -0.092163
uzalo 0.358405 0.187303 -0.126855 0.260959 0.080504 -0.379274 -0.742916 0.645494 -0.387786 -0.217578 -0.201705 -0.196482 0.378880 -0.018188 0.206636 -0.273105 -0.067540 -0.066258 -0.884752 -0.611714 0.205378 0.456686 0.493338 0.062491 -0.849302 -0.278831 0.089389 -0.565382 0.308313 -0.202054 0.140929 0.402441 -0.236623 -0.152403 -0.339843 0.566379 0.027679 0.654901 0.128950 0.016131 0.479760 0.533913 -0.771287 0.007564 -0.448993 -0.883705 0.100426 -0.650806 0.567361 0.388488 -0.725763 -0.135045 0.300777 0.573749 0.468316 0.079154 -0.514653 -0.328064 -0.175567 -0.109090 0.155536 0.449042 0.175087 0.146305 -0.238163 0.606229 -0.650060 0.375603 -0.243613 0.697414 -0.549750 0.131225 -0.463777 -0.221621 -0.230405 0.233056 0.287526 0.058828 0.785152 -0.363137 0.755876 -0.149016 0.546054 0.883460 0.405448 -0.706623 -0.634718 0.144304 -0.318527 0.464562 0.023488 0.006783 0.353027 0.255204 -0.168820 -0.496975 0.013885 0.099153 0.309373 -0.154105
uzwelo -0.406442 -0.801384 0.393438 -0.080422 0.075143 0.156094 -0.286563 -0.233935 -0.185209 -0.210239 -0.545766 -0.192787 -0.045021 0.317009 -0.022395 0.147429 0.107727 -0.058319 -0.343094 -0.627510 0.189614 0.062295 0.024880 0.267837 -0.337870 -0.268755 0.333080 -0.375586 -0.168788 -0.243815 0.750534 -0.252131 -0.369220 -0.291262 -0.427193 0.654074 -0.049533 0.262142 0.000397 0.633138 0.399723 0.340083 -0.482028 0.327432 -0.221682 -0.711022 -0.129582 -0.459815 0.397586 -0.004358 -0.275353 0.329661 0.655204 0.469090 -0.241937 -0.357131 0.311995 -0.721148 -0.561721 -0.407144 0.533650 -0.269667 -0.375225 0.979461 0.506213 0.028104 0.376888 0.179669 -0.253764 -0.041047 -0.689859 0.402144 -0.320693 -0.355983 0.659793 -0.106030 0.020683 -0.656710 -0.042080 0.134949 -0.046014 -0.230575 -0.083673 0.613170 0.878494 -0.183923 -0.217974 -0.176289 -0.006526 0.049394 0.147559 0.370779 -0.275691 -0.396449 0.348077 -0.212746 -0.498885 -0.549989 0.263953 0.109450
uboya -0.150245 -0.059032 0.208171 0.181465 -0.278287 -0.944036 0.220073 1.023965 0.058195 -0.153618 0.512178 0.017027 0.748907 0.380750 -0.171290 0.221885 0.325311 0.340967 -0.529160 -0.290093 0.447417 -0.103990 0.558016 -0.039322 -0.420061 0.077340 0.405747 -0.159060 0.458032 0.221173 0.061428 0.350544 0.552363 0.212051 0.422723 -0.058770 0.643762 0.710022 -0.438040 0.226683 0.377662 -0.739931 0.030515 0.293790 -0.643968 -0.247590 0.099907 -0.284121 0.489903 0.063478 -0.604017 -0.023856 0.093199 0.091059 0.460837 -1.098598 0.028860 -0.396968 0.325326 -0.431776 -0.485211 0.065390 0.144539 0.431515 -0.298021 0.284685 0.376618 -0.251605 -0.089518 -0.015309 -0.508701 -0.418789 -0.434658 0.122054 -0.050124 -0.080729 0.153125 -0.098875 0.257522 0.289383 0.222058 0.598930 0.705336 1.087061 0.202201 -0.091644 -0.291724 -0.421351 -0.535942 0.542728 0.268774 -0.073205 0.288875 -0.055377 -0.087023 -0.106457 -0.022941 -0.454906 0.578151 -0.114224
ububanzi 0.570489 0.133639 -0.095893 0.548704 -0.598758 -0.570807 -0.089491 0.374373 -0.119467 -0.421767 0.513977 -0.103052 0.604272 -0.116983 -0.053190 0.240184 -0.097302 0.633156 -0.685364 -0.281695 0.138625 -0.869342 0.830331 0.163303 -0.203333 0.350759 0.372750 -0.067735 0.245330 0.155952 -0.084467 -0.107608 0.623958 0.330497 0.584433 -0.252652 -0.002068 0.386069 -0.529847 0.031106 0.259226 0.055549 -0.181497 0.242045 0.299311 -0.766314 -0.097861 0.399473 0.352391 0.148507 -0.427621 -0.255451 -0.349300 -0.232029 0.334467 -0.556902 0.369469 -0.107775 -0.390822 0.223415 -0.385592 0.257328 -0.545171 0.071947 -0.342602 0.053486 0.356962 -0.160367 0.447333 0.512573 -1.268443 -0.289346 -0.121997 -0.312246 0.152993 -0.292584 -0.254774 -0.119194 0.209789 0.210277 0.011023 0.216181 0.202306 0.719167 0.180349 -0.082729 -0.404355 -0.054022 0.053664 0.695274 -0.140792 0.080322 -0.110521 -0.308541 0.691929 0.256688 0.386431 -0.491883 1.355587 -0.239320
ububende 0.402199 -0.348131 -0.218980 0.498320 -0.223350 -0.359445 -0.283444 0.311408 0.330882 0.079509 -0.256361 -0.308927 0.801357 0.530739 -0.112851 -0.019029 0.221561 -0.361720 0.025180 -0.277710 0.433712 -0.004601 0.530563 0.167749 -0.465902 -0.142049 0.059244 -0.400477 0.477743 0.249142 0.298925 -0.426409 -0.047718 0.177341 0.258828 -0.090356 0.146109 0.733789 -0.200316 0.242858 0.317280 -0.112165 -0.570115 -0.115016 -0.221796 -0.319453 -0.119928 0.135467 0.537365 -0.194531 -0.384593 -0.259283 -0.108342 0.016419 0.347276 -0.281047 -0.225421 -0.230515 0.096550 -0.338727 -0.140812 -0.247134 -0.486403 0.400934 -0.238952 0.088790 0.324455 -0.322130 0.489810 0.030871 -0.550412 0.123194 -0.041185 -0.382458 0.131998 -0.676961 -0.458180 -0.182722 0.295732 0.119416 0.446513 0.022942 0.194645 0.563864 -0.023077 0.053896 -0.322192 -0.110462 0.039466 0.754650 0.032972 0.314749 0.026429 -0.139013 0.143147 -0.065188 0.180148 -0.446746 0.915481 -0.429699
ububi 0.439371 -0.651880 0.034006 0.450218 -0.489883 -0.402750 -0.467950 0.294219 0.921054 -0.467939 -0.165121 -0.450836 0.787507 0.728201 -0.460881 -0.240930 0.404071 -0.416171 -0.186920 0.287537 0.372866 -0.552923 0.472227 0.174439 -0.895204 -0.341562 0.563831 -0.546727 0.352375 0.188607 0.502505 -0.134388 0.235510 -0.009800 -0.178320 0.430669 -0.003060 0.855969 0.202394 0.710612 0.497722 -0.029114 -0.404527 0.062496 -0.106210 -0.032027 0.404726 0.123345 0.866770 -0.115046 -0.044522 -0.187625 0.296825 -0.001716 -0.096130 -0.614767 0.059808 -0.136549 0.523337 -0.313408 -0.040331 -0.261272 -0.664855 0.720867 -0.003845 0.522019 0.793946 0.100457 0.676023 -0.017652 -1.247618 -0.371171 -0.075996 -0.153662 0.411266 -0.889520 -0.959794 -0.069706 0.485965 0.312467 0.513893 0.357022 0.221063 0.816983 -0.316223 -0.407348 -0.485243 -0.037039 -0.033549 0.927351 -0.309189 0.900910 0.082028 -0.637702 0.393850 0.348749 0.164057 -0.977925 0.837825 -0.485865
ubuchopho -0.277395 -0.371060 0.420938 0.090657 -0.287152 -0.579336 -0.140210 0.575255 0.903304 -0.008900 -0.302510 -0.389478 0.524508 0.437781 0.135656 0.274369 0.517719 -0.114542 -0.010173 -0.412454 0.533230 -0.143568 0.358988 0.289201 -0.094130 -0.387106 0.060184 -0.500638 0.257395 0.458351 0.559451 0.032803 0.035766 0.154291 -0.189582 -0.280385 -0.033699 0.631127 -0.484287 0.383454 0.174048 -0.035491 -0.404115 0.392971 -0.343269 -0.066385 0.193033 0.162987 0.701311 0.144994 -0.314889 -0.447881 -0.043490 0.306242 0.405024 -0.518334 0.125087 -0.456067 0.058561 -0.133628 0.041244 -0.197684 -0.057650 0.170382 -0.125682 0.063398 0.455257 -0.200722 0.768401 -0.227634 -0.177082 -0.097490 -0.253375 0.001658 0.191443 -0.590482 -0.301652 0.599657 0.206011 0.661429 0.125066 0.328109 0.397329 0.710671 0.161738 0.093546 -0.525326 0.493965 0.336934 0.423596 0.623010 0.425853 0.353727 -0.469433 -0.138194 0.248242 -0.316260 -0.837624 0.211175 0.080546
ubuchwepheshe -0.201552 0.268959 0.048468 0.498747 -0.075178 -0.675925 -0.116960 -0.021096 0.098432 -0.685011 0.382462 -0.705600 0.598038 0.076710 0.053774 -0.075960 0.964337 0.375895 -0.447715 -0.693921 0.342979 -0.488838 -0.217153 0.312092 0.239233 -0.073172 -0.224623 -0.331519 -0.050108 -0.072649 -0.072847 0.550988 0.743649 0.024488 -0.160180 -0.227473 0.085585 1.383817 -0.380315 0.457535 0.754461 -0.088706 -0.308310 0.383595 0.110825 -0.508191 0.577041 0.166179 -0.114272 -0.106654 -0.410422 -0.239889 0.000069 -0.215473 0.213527 -0.467256 0.006747 -1.130221 -0.113773 0.052894 -0.219650 -0.036296 -0.200292 0.262702 0.385286 -0.241234 0.455022 -0.356689 0.574398 0.063730 -0.946816 0.224243 -0.146593 -0.345083 0.568118 -0.076638 0.415944 -0.150966 -0.390264 0.289520 0.434683 0.834823 0.406502 0.690343 -0.184613 -0.381802 -0.094271 0.487654 -0.189964 0.573771 0.119191 0.549805 0.258872 -0.806539 0.409632 0.496871 -0.627273 -0.441837 0.363442 0.232339
ubudlelwane 0.328512 -0.115197 0.223332 0.428948 -0.179890 -0.006240 -0.193021 0.713272 0.326400 -0.922863 0.247480 -0.685221 0.864474 0.362097 0.282844 -0.221008 0.322857 -0.414056 -0.385760 -0.940420 0.517341 0.331334 0.250964 0.356461 -0.841897 -0.809739 -0.433599 -0.410385 0.444697 -0.537647 0.018753 0.152732 -0.017465 -0.117736 -0.400217 -0.754420 0.542919 0.144048 -0.510121 -0.301843 0.033873 -0.091493 -0.759002 0.839299 0.437754 -0.395622 0.081582 0.241414 0.296973 -0.140173 -0.329907 -0.368710 -0.209012 -0.222506 -0.112026 -0.757393 -0.241120 -1.476917 -0.114788 -0.139953 -0.110566 -0.289023 -0.887706 0.684219 -0.165562 -0.582053 0.199743 0.112093 -0.011027 -0.065851 -0.920837 -0.007669 -0.006574 -0.527253 0.449980 0.409283 -0.180194 0.059266 -0.053691 0.498087 0.207256 0.117508 -0.250486 0.490433 0.032462 0.131783 -0.063810 0.039698 0.037105 0.970796 -0.135732 0.577607 -0.154904 -0.109620 0.439121 0.294855 0.275091 -0.412179 0.449824 -0.021612
ubudlelwano 0.217996 -0.048302 0.089843 0.131374 0.131931 0.005729 -0.176438 0.813543 0.598223 -0.639215 0.222322 -0.479258 0.895926 0.364957 0.006875 -0.203654 0.661044 -0.592928 -0.574313 -0.608280 0.378976 0.283991 -0.029076 0.374930 -0.854746 -0.944802 -0.372127 -0.359967 0.535290 -0.157698 0.210882 0.088303 0.142104 -0.075980 0.001486 -0.761101 0.471136 0.106447 -0.724203 -0.239910 0.040686 0.040755 -0.532102 0.662069 0.403483 -0.134540 0.161247 0.236564 0.114247 -0.039533 -0.268426 -0.124843 0.166267 -0.311581 -0.128667 -0.480137 -0.026292 -1.379338 0.029120 -0.190164 -0.158995 -0.087496 -0.919096 0.608437 -0.446543 -0.538057 0.120232 0.299484 0.096728 0.048772 -0.876148 0.055226 0.069508 -0.572987 0.259856 0.077818 -0.072124 -0.211536 -0.089810 0.254750 0.436386 0.157741 -0.149113 0.442596 0.108415 -0.013276 -0.090988 0.152163 -0.245223 1.012188 -0.523474 0.533154 0.339848 -0.343590 0.402753 0.269814 0.085897 -0.293419 0.592781 -0.061997
ubudoda -0.581298 -0.242428 0.186052 0.533069 -0.200134 -0.469091 -0.380181 0.190475 0.403274 -0.262966 -0.226391 -0.329392 0.638145 0.101420 -0.210278 -0.054681 0.211873 -0.123331 -0.145514 -0.619753 0.727842 0.130402 0.469875 0.227356 -0.552320 -0.501523 0.178446 -0.467028 0.407959 0.132867 -0.142328 -0.207499 0.368592 -0.130500 -0.136621 -0.311993 0.322761 0.746035 -0.431135 0.320736 0.183254 -0.118161 -0.190638 0.258551 -0.116458 0.006732 0.456569 0.442703 0.359852 0.165830 -0.062001 0.017017 -0.308679 -0.199629 0.218502 -0.223722 0.118949 -0.609663 -0.218806 0.021427 -0.177508 -0.021390 -0.546189 0.544621 0.056167 -0.036141 0.124228 0.130725 0.921816 -0.023294 -0.867131 0.189735 -0.216951 0.007042 0.249422 -0.462841 -0.047430 0.388820 0.234035 0.286483 0.296401 0.492514 0.467274 0.322319 0.270144 -0.508380 -0.267281 0.174016 -0.126731 0.404463 0.033569 0.441866 0.014290 -0.223148 -0.213959 0.145589 0.154376 -0.115530 0.443588 0.244633
ubuhlanga 0.093935 -0.634952 0.158628 0.196966 -0.494517 0.092251 -0.123067 0.488651 0.180657 -0.614570 -0.147066 -0.606605 0.508280 0.538866 -0.003752 -0.209341 -0.084163 0.199266 -0.393154 -0.708171 0.142898 -0.372942 0.326971 0.524369 -0.905349 -0.507351 -0.167977 -0.574024 0.490872 -0.185001 0.256685 -0.384935 0.670306 0.360833 0.066967 -0.576446 -0.047923 0.677369 -0.125196 0.378835 0.357506 -0.315876 -1.087477 0.482134 0.328304 -0.735318 -0.013810 0.437776 0.020122 -0.053954 -0.058283 -0.074174 0.224251 -0.045094 -0.300274 -0.695034 -0.320836 -0.866189 -0.452304 -0.276119 -0.114575 -0.261615 -0.298071 0.567942 -0.276194 -0.019090 0.208073 0.318341 0.565562 0.150543 -1.082354 -0.285566 -0.267619 -0.757849 0.127492 -0.269764 -0.112219 -0.112635 -0.295152 0.311786 0.601217 -0.153463 -0.402214 0.662774 0.434505 0.441887 0.195532 -0.075526 -0.033106 0.613168 0.042971 0.724188 -0.369495 -0.254004 -0.186370 -0.084902 0.026381 -0.756051 0.253382 -0.190689
ubuhlobo 0.479250 -0.114792 0.178922 0.732715 -0.660210 -0.228781 -0.063120 0.241830 0.268517 -0.462696 0.016759 -0.653194 0.610400 0.720300 0.188565 -0.145175 0.438380 -0.478095 -0.470689 -0.674859 0.448893 -0.390688 0.531824 0.052192 -1.114974 -0.368031 -0.471911 -0.774306 0.457922 -0.263203 -0.109812 -0.206523 0.596696 0.560771 -0.080621 -0.730584 0.100977 0.413847 0.214446 0.153844 0.550060 -0.239336 -0.428888 0.497900 0.040209 -0.451678 0.408001 0.398646 0.438918 -0.037467 -0.148363 -0.175699 -0.306226 -0.138579 -0.003170 -0.348758 0.156921 -0.809041 -0.027640 -0.241927 -0.326481 -0.264131 -0.348119 0.470424 -0.231855 0.052249 0.179205 0.471408 0.708463 -0.413831 -1.416708 0.015314 -0.082545 -0.598650 0.300010 -0.041790 -0.380246 -0.087920 -0.110269 0.509567 0.813395 0.534168 -0.160896 0.514456 0.260536 0.182419 0.251279 -0.097883 0.002343 0.820673 0.062187 0.201734 0.426037 -0.189570 0.232516 0.383707 0.203023 -0.276768 0.582439 -0.111215
ubukhulu 0.141689 0.049090 0.094854 0.288413 -0.635834 -0.431876 0.194921 0.429735 0.112623 -0.606703 0.298750 -0.226326 0.556157 -0.015316 -0.084499 -0.206067 0.327841 0.243729 -0.637985 -0.332812 0.390704 -0.597933 0.640668 0.078023 -0.516458 0.317361 0.213712 -0.042170 0.521859 0.301221 -0.083533 -0.352030 0.499865 0.322937 0.087944 -0.047227 0.176589 0.404789 -0.149923 0.360494 0.531392 -0.060361 0.080449 0.320172 0.264581 -0.688034 -0.238544 0.090774 0.187297 -0.071604 -0.212069 -0.134345 0.006516 -0.093091 0.154762 -0.302597 0.134098 -0.736636 0.286742 -0.150990 -0.497288 0.131798 -0.376117 0.163325 -0.597372 -0.250277 0.770223 -0.103919 0.402706 -0.356079 -1.202492 -0.367948 0.158584 -0.695004 0.451472 -0.457145 0.008597 0.090480 0.234707 0.237052 0.372969 -0.037771 0.329971 0.457213 0.160732 -0.280076 -0.366942 -0.134263 -0.002727 0.278780 -0.139888 0.419039 0.133357 -0.229026 0.615392 0.568309 -0.080877 -0.408182 0.916263 -0.211522
ubulawu 0.024350 -0.262569 0.297087 0.260881 -0.019005 -0.435576 -0.974264 0.491438 -0.089107 -0.602087 -0.002886 0.309570 0.162910 0.451113 0.092075 0.539319 0.449917 -0.098806 0.516546 -0.028110 0.791699 -0.043729 0.817651 0.100296 -0.896439 -0.346543 0.186845 -0.446000 0.245080 -0.129807 0.082117 -1.052953 -0.155187 -0.142073 -0.200793 -0.323480 0.142159 0.662251 -0.415595 0.433285 0.672170 -0.154836 0.115433 0.061097 -0.267797 0.138620 0.270921 -0.073059 0.655015 -0.184299 -0.791572 -0.197634 0.378727 0.162936 0.403404 -0.402297 -0.365248 -0.001440 -0.223502 0.211938 0.091205 -0.103221 -0.147486 0.122102 0.021378 0.095053 0.446211 0.155715 0.893369 -0.672135 -0.910297 0.076859 -0.097565 -0.187882 0.400640 -0.575360 -0.129065 -0.003865 0.557725 0.371284 -0.063847 0.033493 0.482470 0.639709 0.381607 -0.201578 0.046912 0.002899 0.158179 0.690293 -0.408060 0.477264 0.289930 -0.255782 -0.012864 0.253364 0.245824 -0.452952 0.173823 0.169806
ubulima -0.507361 -0.216274 0.148142 0.316096 -0.098677 -0.623814 0.024940 0.494379 -0.176567 -0.830326 0.006936 0.138558 0.050909 0.019132 0.202685 0.254594 0.403201 0.043092 0.016369 -0.625450 0.430391 -0.442234 0.232927 0.085193 -0.531245 -0.608719 0.749752 -0.332370 0.630009 -0.045243 -0.191903 0.150808 0.702109 -0.067658 -0.077209 0.141316 -0.128119 0.686387 -0.210672 0.528892 0.264891 -0.457712 -0.153866 -0.052502 -0.377098 -1.049661 0.014884 -0.338370 0.386654 0.037369 -0.135604 0.419734 0.652191 -0.647144 -0.142949 -0.538390 -0.317509 -0.533006 0.202285 -0.117796 -0.628896 -0.435392 -0.033830 -0.010400 -0.536101 0.084731 0.343448 0.186430 0.303294 0.009850 -0.942130 -0.379916 -0.004919 -0.106786 0.216809 -0.493266 -0.060126 -0.031823 0.132534 0.603272 0.480734 0.164711 0.551029 1.218266 0.029840 -0.264688 0.141818 -0.106822 -0.120199 0.427051 -0.272730 0.534856 0.302895 0.032565 0.216867 0.475005 0.107017 -0.977923 0.323656 0.051521
ubumnandi 0.288731 -0.290178 -0.250324 0.356624 -0.450648 -0.716981 -0.348818 0.793121 0.354703 -0.514659 -0.272866 -0.285645 0.863822 0.071515 0.150168 0.268988 0.147103 -0.260316 -0.644594 -0.209499 0.733135 -0.338874 0.624758 0.338079 -0.630178 -0.062481 0.065805 -0.456226 0.666811 0.130633 0.496115 0.178370 -0.269488 0.318513 0.149876 0.075087 -0.173740 0.724514 -0.009139 0.002580 0.148746 0.103547 -0.766947 -0.050410 -0.338826 -0.537106 0.250897 0.153010 0.144622 0.564953 -0.775137 0.110358 0.120140 -0.013444 -0.134680 -0.186052 0.066667 -0.461705 0.243060 0.389282 0.080295 -0.432537 0.076423 0.386035 -0.222582 0.647563 -0.015435 0.309599 0.383863 -0.036350 -0.374698 0.004469 -0.252900 -0.234710 0.150034 0.089195 -0.087573 0.114289 -0.125845 0.387466 1.092373 -0.191717 0.325130 0.410960 -0.072530 0.108027 -0.637069 -0.033200 -0.349274 0.429038 -0.407295 0.275964 0.390036 0.143213 0.235405 -0.254435 -0.230033 -0.670971 0.000931 -0.129414
ubumnini 0.322522 -0.283916 0.259501 0.108391 -0.747342 -0.875169 -0.211116 0.063685 -0.319488 -0.565714 0.338190 -0.297479 0.335352 0.568012 -0.204599 -0.125732 0.792724 -0.284665 -0.124379 -0.320563 0.394122 -0.460663 0.617481 0.203836 -0.578223 -0.082082 0.399143 -0.434870 0.088237 -0.088966 -0.128224 0.060862 0.218658 -0.179370 -0.029907 0.297377 0.161646 0.920934 -0.318435 0.408738 0.138248 -0.144215 -0.663976 0.065870 -0.245562 -0.221033 -0.520782 -0.482524 0.572629 0.440193 -0.154487 -0.175732 -0.028260 -0.082659 -0.192730 -0.786384 0.033084 -0.452621 0.461045 0.338451 0.061241 -0.759932 -0.378091 0.116601 -0.153209 0.325975 0.724316 -0.056715 -0.016549 -0.131543 -0.585617 0.082416 0.073934 -0.471894 0.359630 -0.327088 -0.440220 -0.332821 0.340338 0.462629 0.665144 0.412039 0.167599 0.589831 -0.170627 -0.255033 -0.195291 -0.009588 0.570422 0.692578 0.024954 -0.047478 -0.113474 -0.454630 0.248080 0.277184 -0.014134 -0.564291 0.541344 -0.046565
ubumnyama 0.255818 -0.599128 -0.005801 0.148447 -0.562512 -0.454594 -0.332485 0.553218 0.848033 -0.019593 -0.161013 -0.472797 0.414580 0.269728 -0.070183 0.008192 0.214178 0.339832 -0.038238 0.057824 0.528737 -0.667520 0.663079 0.243890 -0.919129 0.143072 0.338970 -0.821948 0.441507 0.241273 0.353512 -0.175441 0.212876 0.458311 0.227339 0.231381 0.102472 0.813464 -0.001597 0.565198 0.290049 -0.198661 -0.671845 0.170634 -0.213389 -0.190650 0.046156 0.140758 0.652158 0.557050 -0.562772 -0.545857 0.221056 0.097532 -0.089974 -0.461779 -0.126198 -0.267948 -0.008276 0.252863 -0.164169 -0.144684 -0.289576 0.377930 -0.220094 0.653364 0.259797 -0.081435 0.224087 -0.348115 -0.344559 -0.149304 0.029238 -0.561959 0.310132 -0.326995 -0.365085 -0.088491 0.175719 0.304811 0.499421 -0.170031 0.390928 0.699855 -0.007612 0.050168 -0.369966 0.036929 0.165250 0.624053 -0.273350 0.265465 -0.293798 -0.432452 0.252630 -0.323754 0.062194 -0.706914 0.583607 -0.054700
ubungani -0.138444 -0.201595 -0.091188 0.366655 0.179594 -0.447755 0.353909 0.490891 0.539659 -0.639779 -0.163396 -0.237648 0.830595 0.515769 -0.138331 -0.051341 0.089265 -0.447286 -0.394161 -0.760554 0.345992 -0.037068 0.408135 0.261423 -0.627530 -0.579474 0.617458 -0.726506 0.432617 -0.139436 -0.349072 0.240553 0.146006 -0.108635 0.213223 -0.249860 0.278870 0.531749 -0.415171 0.241433 0.143062 0.460241 -0.840744 0.127809 0.067755 -0.271484 0.168119 -0.122965 0.220711 -0.051918 -0.322750 -0.077304 0.216690 -0.158561 0.325424 -0.237640 -0.085570 -0.585055 0.426954 0.054323 0.030842 0.123129 -0.562669 0.678255 -0.032756 0.380755 0.209607 0.321397 0.402940 0.173260 -0.597848 0.084668 -0.086228 -0.298579 0.403801 0.197984 -0.092182 0.103870 0.090444 0.502707 0.434270 0.084847 -0.031756 0.573380 0.209525 -0.355079 0.008998 -0.150021 -0.147762 0.461648 -0.153781 0.284464 0.444584 -0.231268 0.563122 0.005227 -0.242255 -0.519400 0.243255 -0.482561
ubungozi 0.242043 -0.240720 0.391775 0.247937 -0.059353 -0.428154 -0.063136 -0.139253 -0.020133 -0.839077 0.198241 0.007015 0.754172 0.842067 -0.262562 -0.293803 0.315707 0.071981 0.176827 -0.116921 0.291345 -0.355756 0.923032 -0.215896 -0.247375 -0.005913 0.588247 -0.348623 0.215998 -0.070447 0.538251 -0.266075 0.255062 -0.084628 0.097103 -0.099491 -0.073614 1.038060 -0.878455 0.406550 0.350339 -0.116675 -0.689649 0.372587 0.273536 -0.540184 0.445789 0.043211 0.001824 -0.523780 -0.562050 0.086612 0.261166 -0.199760 0.449349 -0.662458 0.117770 -0.612554 0.483765 -0.200634 -0.028228 -0.027363 -0.212790 0.204271 0.688437 0.107382 0.683837 -0.012833 0.967926 -0.140102 -0.791061 -0.034324 -0.131792 0.103448 0.527606 -0.109220 -0.076299 -0.071708 0.431094 0.186039 -0.214161 0.242624 0.552712 0.418787 0.255408 -0.209999 -0.214647 0.283405 0.070564 0.232455 -0.275185 0.660172 0.524770 -0.697285 0.285395 0.210843 -0.697518 -0.348979 0.442560 0.127133
ubuningi 0.325423 -0.314144 -0.178160 0.393324 -0.520345 -0.387207 0.095992 0.181614 0.301413 -0.774701 0.368637 -0.703614 0.574002 0.366914 0.043121 -0.470162 0.222335 0.145246 -0.524309 -0.578143 0.397152 -0.808059 0.599454 0.064834 -0.490365 0.061809 0.148200 -0.087361 0.256594 -0.003677 0.118591 0.175547 0.371963 0.061531 -0.267301 -0.011706 -0.045242 0.597969 -0.361883 0.474211 0.338749 -0.019835 -0.797718 -0.038588 0.049164 -0.688203 0.291693 0.438473 0.306656 0.172839 -0.306987 -0.086731 0.289246 -0.377989 0.192643 -0.567681 -0.100061 -0.590625 0.407343 -0.160158 -0.344292 -0.122370 0.265694 0.441836 -0.217868 0.154925 0.678944 0.018042 0.402959 -0.090715 -0.885972 -0.117238 0.181161 -0.151762 0.384367 -0.232606 -0.174586 -0.113450 0.004813 0.173906 0.131796 0.339185 -0.166050 0.755491 0.186800 0.067496 0.229692 0.041141 0.063449 0.632434 -0.226398 0.352012 0.342290 -0.175924 0.676325 0.023157 -0.222198 -0.646766 0.759773 -0.363923
ubunjalo 0.195500 -0.318556 0.276262 0.653222 -0.351108 -0.372550 -0.117350 0.340180 0.163529 -0.673354 0.219590 -0.549896 0.470314 0.179655 0.025959 -0.308273 0.518388 -0.134293 -0.532925 -0.754192 0.262083 -0.389132 0.280387 0.189496 -0.514263 -0.101125 0.118144 -0.380072 0.306854 0.315123 0.241447 -0.166428 0.537847 0.222379 -0.341801 -0.187671 0.006900 0.327253 -0.095269 0.241178 0.255881 -0.012698 -0.552337 0.444419 0.249306 -0.126260 0.545485 0.042780 0.127125 0.038527 -0.314849 0.161018 0.258770 -0.238895 0.263595 -0.664795 0.001315 -0.562296 0.407689 -0.167171 0.214227 -0.145615 -0.297181 0.512838 -0.274850 0.023423 0.423175 0.241630 0.325333 -0.142492 -0.761537 0.009356 0.117832 -0.561441 0.556718 -0.016041 -0.104975 -0.114219 0.391097 0.458714 0.768079 0.240530 0.134720 0.533628 0.227822 0.193632 -0.190795 -0.031067 -0.022581 0.484244 0.179019 0.916910 0.245601 -0.635866 0.595420 0.240018 -0.192309 -0.411238 0.572586 -0.152073
ubunkondlo -0.328009 -0.496443 0.625386 0.558744 -0.261072 -0.517606 -0.166579 0.308673 0.257489 -0.625645 -0.391020 -0.603877 0.277596 -0.113472 0.027665 0.123887 0.190256 -0.220875 -0.162347 -1.289973 0.701504 0.399207 0.018738 0.389240 -0.281670 -0.541290 -0.420018 -0.918609 -0.036118 -0.014286 -0.294485 0.055764 0.495216 0.098312 0.204792 -0.137165 0.527468 0.295435 -0.012787 -0.024744 0.417879 0.080960 -0.354342 -0.045768 -0.147393 -0.599848 0.103130 -0.011149 0.001942 0.236892 -0.313766 0.109156 0.363394 0.123171 -0.147488 -0.422657 0.114242 -0.623970 0.110170 -0.288802 0.340753 -0.424970 0.016921 0.748797 -0.245309 0.028056 -0.262679 0.658377 0.383283 0.356773 -0.770664 0.085065 -0.648664 -0.039039 0.277953 0.052725 0.012697 -0.039102 0.191134 0.185458 0.746413 0.014534 -0.210278 0.516244 0.318395 0.180639 -0.315030 0.604541 -0.188595 0.376641 0.198118 0.404938 0.051971 0.029383 0.101382 0.455144 -0.110063 -0.443948 0.654968 -0.216367
ubuntombi -0.243656 -0.297291 0.158528 0.821929 -0.581037 -0.577148 -0.346597 0.649208 0.689156 0.026045 -0.395035 -0.517774 0.862837 0.564024 -0.232339 0.009953 0.038682 -0.250519 0.057134 -0.423744 0.694617 0.191152 0.305239 0.313917 -0.727528 -0.307847 -0.335418 -0.457838 0.481805 0.194292 -0.046092 -0.054288 0.262514 -0.001516 0.266322 -0.191355 0.192491 0.552466 -0.001178 -0.076724 0.226900 -0.396191 -0.359372 -0.224351 -0.186167 -0.540333 -0.096952 0.033534 0.525506 -0.058192 -0.837294 -0.274132 -0.222341 0.190291 -0.066576 -0.192443 -0.233443 -0.378510 0.112067 0.536446 -0.205155 -0.370857 0.014969 0.834485 -0.034246 0.281163 -0.114317 0.293412 0.637823 0.177730 -0.967168 -0.082064 -0.746703 0.068365 0.340682 -0.130139 -0.556239 0.130264 0.269892 0.552553 0.755646 0.149946 0.478044 0.700904 -0.121207 -0.062124 -0.373298 0.215840 0.405955 0.489455 -0.083164 0.379510 -0.045721 -0.157044 -0.141187 0.427932 0.152154 -0.257148 0.307722 -0.298845
ubuntu -0.254065 -0.787560 -0.005365 0.474219 -0.472725 -0.485330 -0.247599 -0.324806 0.562910 -0.576192 -0.293453 -0.140281 0.778006 0.325797 -0.215389 -0.312043 0.279585 -0.258982 -0.197768 -0.770701 0.759108 -0.041119 0.182940 0.201842 -0.705827 -0.598009 -0.374863 -0.821154 0.187847 0.343779 0.461277 -0.334403 0.424465 -0.078685 0.194892 -0.371070 0.014549 0.514268 0.072882 0.272114 0.498920 0.239902 -0.561712 0.258123 0.025697 -0.074583 0.178078 0.126211 0.256096 -0.024324 -0.128221 -0.075177 -0.477149 -0.204786 -0.119508 -0.406339 -0.072109 -0.791209 0.140799 0.247230 0.077976 -0.505566 -0.141226 0.600910 -0.527054 0.337409 0.170399 0.087742 0.446281 -0.248993 -0.732497 0.216138 -0.141157 -0.472356 0.392850 -0.394260 -0.000575 0.272180 0.173057 0.365397 1.007285 0.251573 0.089196 0.559117 0.006026 0.372296 -0.401730 0.505471 0.171277 0.488346 0.136014 0.604183 -0.050181 -0.480250 0.253655 -0.134836 0.200791 -0.534548 0.272288 -0.471500
ubunxele -0.257443 0.068382 -0.268566 0.591147 0.059063 -0.697444 0.136972 -0.091112 0.451023 0.104542 -0.023387 0.326785 0.608729 0.448959 -0.330402 0.649355 0.404830 0.699026 -0.398368 -0.852271 0.481874 0.046491 0.554381 0.004522 0.100414 -0.091704 -0.904397 -0.386411 -0.097524 -0.051666 0.217454 -0.238708 0.162263 -0.142135 0.071713 -0.238327 0.400220 0.146978 -0.011456 -0.114620 0.011542 -0.075559 -0.215531 -0.099013 -0.351863 -0.280564 0.311115 -0.198113 -0.182311 -0.112705 -1.403471 -0.013842 0.318753 -0.137230 0.102973 0.082852 0.461205 -0.448422 -0.240730 -0.171234 -0.198243 0.081543 -0.621379 0.632985 -0.089483 0.019253 0.203262 0.206175 0.293373 0.717229 -1.053284 0.361294 -0.286474 -0.348585 0.433233 -0.047690 0.054872 0.028049 0.324746 -0.100179 -0.017606 0.410547 0.433604 0.625935 0.347428 -0.105482 -0.100056 0.315931 -0.201319 0.122744 0.232981 0.408291 0.602382 -0.427431 0.151535 -0.456623 -0.215274 -0.570687 0.750537 -0.478443
ubunzima 0.306729 -0.401277 -0.153976 0.398066 0.364597 -0.203153 -0.307946 0.458252 0.100369 -0.341955 -0.153852 -0.356905 0.621313 0.236372 -0.283263 -0.431364 0.463625 0.103683 -0.145280 -0.531225 0.348481 -0.484213 0.599928 -0.064271 -0.838251 -0.350669 0.084913 -0.579172 -0.019584 0.475632 0.434441 -0.131793 0.351901 0.220613 -0.047379 0.058378 0.197986 0.209307 -0.214670 0.361803 0.303324 -0.243099 -0.779809 0.746167 0.017047 -0.650778 0.152800 -0.218785 0.203181 -0.413190 -0.321445 0.284073 0.276928 -0.391595 0.366429 -0.489656 0.027619 -0.636174 0.527717 0.174142 -0.302849 -0.088490 -0.417437 0.556774 0.156537 -0.038809 0.333945 0.166916 0.606637 0.071861 -0.439155 -0.294290 0.278786 -0.459474 0.284900 -0.121736 -0.440067 0.168203 0.257081 0.270561 0.405806 0.051977 0.357687 0.633029 0.317768 -0.557405 -0.063729 -0.128446 -0.263596 0.437710 0.057389 0.808936 0.348839 0.043272 0.461836 0.274764 -0.406219 -0.219399 0.199360 0.066413
ubusika 0.400543 -0.221225 -0.334594 0.158920 -0.312737 -0.652999 -0.332129 1.029056 0.652516 -0.591275 0.586034 -0.061124 0.578747 0.005075 0.470488 0.402553 0.022909 0.205642 -0.460169 -0.097185 0.470940 -0.606935 0.429593 0.273088 -0.782434 0.091233 0.443022 0.282224 0.745838 0.623427 0.397735 0.519991 0.241601 0.246962 0.535791 -0.109004 -0.150976 0.766206 -0.201384 0.164061 -0.084337 -0.353319 -0.340878 0.220857 -0.318366 -0.480720 -0.064179 0.053447 0.593991 0.185325 -1.026724 -0.575130 0.443452 -0.164490 0.596308 -0.168790 -0.071711 -0.073266 -0.092054 0.144088 -0.332198 -0.354234 0.025668 -0.077289 -0.284676 0.602530 0.220905 0.172691 -0.189456 -0.124648 -0.609468 0.111950 -0.671661 0.083017 0.019630 -0.354347 -0.388903 -0.339090 0.265883 0.179914 -0.081210 0.260464 0.286495 1.159373 -0.150967 0.174490 -0.096323 0.114134 -0.148656 0.738091 -0.301717 0.254458 0.020372 0.252951 0.320908 0.107293 -0.060278 -0.778634 0.295872 -0.038017
ubuthakathaka -0.021586 -0.763416 0.302386 0.114762 0.320758 0.018125 0.011980 0.253902 0.137114 -0.245156 -0.209299 -0.598025 0.461278 0.407774 -0.089771 -0.078306 0.393444 -0.047379 0.238888 -0.006097 0.304408 0.065443 0.232968 -0.249479 -1.021082 -0.209261 0.135867 -0.607050 0.150628 0.176528 0.369863 -0.540639 -0.034385 0.310421 0.392902 -0.081405 -0.196652 0.772501 -0.438942 0.450914 0.339830 0.173493 -0.407216 0.531995 -0.269015 -0.434332 -0.324322 0.357131 0.834510 0.008460 0.124942 0.004135 0.250956 0.024186 0.212831 -0.692745 -0.147363 -0.252416 -0.057964 -0.187144 0.292755 0.075420 -0.502074 0.208424 -0.210896 -0.009778 0.548671 0.252270 0.143186 0.057004 -0.544710 -0.049987 -0.013661 -0.250586 0.528931 -0.374155 -0.337974 -0.271902 -0.018436 0.052815 -0.190519 -0.124875 0.418048 0.501049 0.144627 0.124212 -0.411082 0.125992 -0.109115 0.466412 -0.120343 0.125349 -0.154768 -0.550321 0.219648 0.015225 -0.289184 -0.086984 0.183138 0.357241
ubuthaphuthaphu -0.671719 -0.363328 -0.310520 0.407052 0.442665 -0.190328 -0.265793 0.796089 0.276629 -0.250775 -0.026527 -0.237166 0.318978 0.070890 -0.376332 0.127164 0.268793 -0.202500 -0.382896 0.193949 0.597487 0.080705 0.156344 0.120925 -0.294479 0.027600 -0.143904 -0.415328 0.555352 0.507528 0.870181 -0.014547 0.307106 -0.198107 -0.055807 0.166417 0.103472 0.479190 -0.877241 0.394305 0.627363 0.044327 -0.288681 -0.066061 -0.385591 -0.410707 0.002567 -0.207390 -0.328729 0.085445 -0.700128 -0.114130 0.083022 0.605424 0.037386 -0.320595 -0.235791 -0.062122 0.035581 -0.126343 0.131051 -0.195978 0.405643 -0.063939 0.362567 1.014043 0.078036 0.023732 0.504065 0.321344 -0.243138 0.309476 0.344205 0.302511 0.111017 -0.193345 0.115261 0.168047 0.340647 -0.251485 0.297071 -0.360738 0.537614 0.534965 0.331409 -0.293206 -0.121104 -0.153958 -0.303682 0.541613 0.043044 -0.265654 0.975779 0.327644 -0.198021 -0.370637 -0.737513 -0.331257 0.387024 0.232034
ubuzwe -0.402265 -0.481278 0.244895 0.350338 -0.220944 0.139702 0.254315 0.196350 -0.131212 -1.140690 -0.160641 -0.371952 0.590591 0.527881 -0.085953 0.200014 -0.029643 0.061096 -0.361242 -0.511951 0.349043 0.261285 0.593518 0.446988 -0.282231 0.060091 0.043172 -0.846594 0.000845 -0.166563 -0.345634 -0.413069 -0.163776 0.507251 -0.063319 -0.042394 0.045578 0.073315 -0.251176 0.322966 0.672565 0.142854 -0.160477 -0.194471 0.165320 -0.158151 0.011584 0.257646 0.181308 -0.066070 -0.464285 -0.080588 0.347097 0.296360 -0.487039 -0.484055 0.088752 -0.891050 -0.356144 0.466525 0.237336 0.017327 -0.278957 0.644396 -0.218486 0.431348 0.399080 -0.026524 0.747504 -0.487484 -0.884184 -0.092602 -0.099043 -0.410033 0.477697 -0.031807 0.188330 0.356514 -0.149617 0.583028 0.557243 -0.416005 -0.119626 0.396788 0.530260 0.209056 -0.109949 -0.095488 0.177031 0.661877 0.072547 0.724611 -0.085487 -0.159022 0.108750 0.357072 -0.076964 -0.629822 0.338634 -0.371280
utshani 0.222826 0.095756 -0.050924 0.095138 -0.547440 -0.758016 0.179945 0.618955 0.311719 -0.360953 0.811221 0.171640 0.468692 0.083556 0.535819 0.444199 0.008156 0.211714 -0.482521 0.039799 0.313378 -0.361703 0.273331 -0.292901 -0.729375 0.487962 0.531246 -0.073095 0.816780 -0.132059 -0.104103 -0.004358 0.128598 0.241091 0.208556 -0.148853 0.363539 0.727761 -0.582994 0.287860 -0.013286 -0.655321 -0.507120 -0.051480 -0.618084 -0.812679 -0.154764 -0.305444 0.594548 0.599899 -0.513300 -0.585987 0.118092 -0.357700 0.031574 -0.423740 -0.273196 -0.400759 0.225862 -0.131664 -0.321508 -0.066814 0.363532 -0.046219 0.064528 0.208033 0.271285 -0.048480 0.084890 0.085003 -0.828955 -0.632190 -0.400969 0.440937 -0.062170 0.039402 -0.639535 0.109205 0.201420 0.130025 0.097410 0.166071 0.528444 1.002747 0.062198 0.087268 -0.508659 -0.051457 0.272979 0.804028 -0.199227 0.218448 -0.079544 0.244155 -0.002872 0.032159 0.081133 -1.002051 0.683966 0.056167
utshanyana 0.106470 0.163206 -0.046943 0.320718 -0.513203 -0.530662 -0.238827 0.645321 0.091669 -0.105344 0.248183 0.464748 0.345045 0.273876 0.245222 0.353530 0.133483 0.298019 -0.217823 0.075706 0.404007 0.059940 0.148997 0.177184 -0.516947 0.072610 0.138833 -0.358950 0.655306 0.022686 0.287121 -0.018986 0.079046 0.076841 0.291111 -0.022688 0.504660 0.559816 -0.216920 0.059914 -0.192783 -0.738166 -0.328198 0.136318 -0.696638 -0.521956 0.242093 -0.625916 0.496697 0.304927 -0.678509 -0.554836 0.024861 0.031281 -0.025916 -0.185569 -0.228948 -0.288975 -0.283290 0.238858 0.208219 -0.261321 0.009963 0.486014 0.267108 0.008656 -0.007497 -0.061227 0.111035 0.165223 -0.401319 -0.447899 -0.358993 0.090499 -0.165981 0.067072 -0.376531 0.197852 0.049796 -0.192408 -0.073674 0.306598 0.615121 0.657395 0.147026 -0.446995 -0.572375 -0.001117 0.321946 0.519375 0.080430 0.258719 0.299570 0.008523 0.069174 -0.243674 -0.152428 -0.802438 0.288519 0.108680
ukopha -0.241835 -0.174475 -0.010505 -0.076991 -0.471869 -0.441889 -0.655160 0.946965 0.363754 -0.496333 0.115156 0.209316 -0.397558 0.061768 0.008389 0.177532 0.551685 -0.128554 0.431879 -0.200279 0.220345 -0.332531 0.855720 0.192196 -0.197640 -0.192575 0.540888 -0.494036 0.450354 0.095166 0.374845 -0.658089 0.710329 0.255837 -0.015474 -0.212226 -0.093228 0.907851 -0.736688 0.753326 -0.099430 -0.147996 -0.108130 0.170479 -0.494496 -0.199158 -0.263948 -0.171467 0.144130 0.307584 -0.542976 -0.022296 0.348679 0.228919 0.241910 -0.617176 -0.258960 0.322403 -0.009415 0.008000 -0.262426 -0.232599 -0.035173 0.022043 0.188447 0.284948 0.263587 0.069507 -0.162112 0.095949 -0.706837 0.013733 -0.305743 0.054291 0.294186 -0.584378 -0.461792 -0.292122 0.044432 0.245785 -0.086482 0.082390 0.261972 0.486473 0.668131 -0.114134 -0.325938 0.644483 0.467110 0.439172 0.233626 0.272391 0.070589 0.034755 0.206996 -0.245024 -0.420337 -0.323400 0.146227 0.615415
ukuchithwa 0.661110 -0.169932 -0.471388 0.489982 -0.508537 0.078926 -0.422320 0.036522 -0.096258 -1.140648 0.374235 -0.684805 -0.203199 -0.115018 -0.047579 -0.377406 0.278658 0.014718 0.882795 -0.057023 0.258643 0.275648 0.322926 0.068687 -0.699333 0.373936 -0.202538 0.175700 -0.548117 -0.019710 0.105089 -0.094855 0.135800 0.203961 -0.121128 0.138508 0.091339 -0.091052 -0.474948 0.956899 0.135314 0.019053 0.023672 0.352888 0.357634 0.148325 -0.034756 0.024345 0.303161 -0.059707 0.168845 -0.233386 0.459251 0.376015 0.308078 -0.106028 -0.486914 0.047658 -0.078515 -0.115711 0.649456 0.179054 0.431459 0.025849 0.006564 0.165456 0.420948 -0.067788 0.063014 -0.174618 -0.337131 0.335949 0.593346 -0.098635 0.203032 -0.352816 0.005538 -0.667929 0.298773 0.128804 -0.293899 -0.533890 -0.003516 0.902026 0.647357 0.131565 -0.190560 0.568610 0.309282 0.547490 -0.013020 0.136365 0.577073 0.293347 -0.159905 0.152470 0.155845 -0.895596 0.625012 0.599140
ukudabuka -0.456943 -0.643316 -0.352680 0.316413 -0.033789 -0.068484 -0.860681 0.846634 0.412960 -0.615897 -0.573219 -0.450951 -0.001742 -0.244145 -0.004697 0.092325 0.538463 -0.106422 0.089719 -0.513142 -0.539217 0.010825 0.307969 0.611492 -0.845189 -0.268164 -0.027108 -0.238873 -0.193623 -0.425249 -0.222721 -0.157999 0.562833 0.351750 -0.308551 -0.295096 -0.146688 0.217466 0.035079 0.772544 0.029881 0.305920 -0.315767 0.276396 0.002968 -0.374124 -0.197958 0.184657 0.018357 0.052094 -0.448054 0.046320 0.550940 0.413949 -0.590439 -0.229364 -0.299551 0.114293 -0.424958 0.560680 0.071942 -0.071554 0.412208 0.343276 0.040456 0.427371 0.065612 0.404280 -0.127413 0.224768 -0.396307 -0.116184 0.591186 -0.229840 0.095031 -0.069584 0.115231 -0.360246 -0.013512 0.140557 0.147304 -0.207670 0.812167 0.228379 0.294983 0.060595 0.017224 0.296467 0.092227 0.161073 -0.067138 0.487299 0.360955 0.011176 0.242648 -0.404064 0.391861 -0.831743 -0.434897 0.072693
ukudla 0.019428 -0.554439 -0.502432 -0.114582 -0.563159 -0.581847 -0.567697 0.564056 0.444892 -0.312186 0.066229 -0.187284 -0.058715 0.247000 0.394720 0.422192 -0.069825 0.233800 0.449673 -0.158003 0.070769 -0.193815 -0.069372 -0.352248 -0.445334 -0.210739 -0.104266 0.537526 0.951447 -0.530410 0.184687 -0.245451 0.864458 0.512139 0.432703 0.211053 -0.086303 0.275088 -0.655514 0.201613 -0.630806 -0.446302 -0.252788 -0.067353 -0.661463 -0.060382 -0.696906 -0.056261 0.280862 0.396351 0.034023 -0.510503 0.505204 0.025734 0.053652 -0.546325 -0.600143 -0.344782 -0.589385 -0.102397 0.206635 -0.483034 1.222728 0.128594 -0.248114 -0.132282 0.200062 -0.183893 -0.277761 0.099363 -0.450441 -0.170470 0.023856 0.401846 0.117244 -0.288615 -0.432418 0.109739 0.020292 -0.156441 -0.509298 -0.327638 0.441175 0.648673 0.211308 -0.232875 -0.186561 0.409984 0.144814 0.903522 0.109091 -0.734367 0.474873 0.152006 0.547360 -0.747088 -0.361062 -1.190787 -0.119914 0.386937
ukudlala -0.554601 0.292028 -1.197092 0.465503 0.446718 -0.218452 -0.216421 0.815366 0.087888 -0.999183 -0.644286 -0.582244 0.327234 -0.255984 -0.102753 0.204216 -0.125612 0.081112 -0.068626 -0.771721 0.344412 -0.159417 -0.035125 0.040557 -0.531353 -0.596794 0.142513 -0.248910 0.556035 -0.315934 -0.030010 -0.061903 0.497973 0.185349 0.767922 0.270533 0.072616 0.439593 -0.634538 0.201357 -0.307103 -0.076532 -0.435260 -0.025717 -0.186946 -0.115920 -0.320183 -0.362193 0.061842 -0.031272 0.172279 -0.569108 0.255242 0.297920 0.074241 -0.192472 -0.822671 -0.116182 0.021619 0.798167 0.167676 -0.203695 0.610328 0.379241 0.336723 0.234623 -0.175070 0.309298 -0.063474 1.080624 -0.001762 0.064749 0.875721 -0.444826 0.222374 -0.396255 -0.350256 0.403036 0.098185 0.291384 -0.016900 -0.171187 0.291879 0.471876 0.197049 -0.313419 -0.899485 0.819354 -0.271583 0.508520 0.685778 0.017510 1.086839 0.470085 0.003543 -0.843240 -0.191199 -0.950873 -0.044146 0.032469
ukudlondlobala 0.084612 -0.543660 -0.153190 0.019530 0.166271 -0.116742 -0.813468 0.091655 0.148655 -0.965612 -0.213207 -0.477875 -0.043833 -0.077837 0.164791 -0.123452 0.265435 0.171896 -0.505262 -0.742794 0.218065 0.159133 -0.080655 0.038274 -0.853560 -0.307709 0.037964 -0.153264 0.141550 0.145227 0.264373 -0.452040 0.523850 -0.329750 0.213981 -0.341120 0.241191 0.414172 -0.643307 0.342229 0.144900 -0.042759 -0.103846 0.254283 0.085968 -0.151497 -0.437697 0.062634 -0.104938 0.068241 -0.178725 -0.149387 0.469070 0.417292 0.137748 -0.474161 -0.238114 -0.252116 -0.345221 0.564728 0.131447 0.105786 0.565670 -0.116565 -0.003748 0.023511 -0.021706 0.393958 -0.533561 0.162725 -0.844339 -0.073232 0.266047 -0.162820 0.191022 -0.240246 0.098669 -0.076060 0.196353 -0.571303 -0.135193 -0.402180 0.305555 0.277544 0.301404 -0.213309 -0.337762 0.176591 -0.288241 0.691778 0.102709 -0.072386 0.144355 0.463352 0.144245 -0.583517 -0.150109 -0.310488 0.057799 0.184009
ukudumala 0.007519 -0.844979 -0.558783 0.386709 0.014588 -0.254580 -0.729321 0.552043 0.492350 -0.641883 -0.506717 -0.084740 -0.218153 -0.387684 0.319160 0.150545 0.444110 -0.120780 -0.238023 -0.267648 0.307465 0.053735 0.373936 0.402441 -0.564386 0.060898 0.297748 -0.253851 -0.014894 0.260685 0.346361 -0.518280 0.321158 0.299793 0.141124 0.026308 -0.071362 0.825243 -0.525339 0.547704 0.192457 -0.261633 -0.179448 0.295634 -0.278502 -0.033677 -0.027632 0.103045 0.147099 0.184937 -0.447128 0.029699 0.485180 0.185332 -0.255595 0.078312 -0.325180 0.413738 -0.346038 0.338557 -0.092717 -0.056287 -0.008902 0.068681 0.059504 0.431229 0.400667 0.557998 -0.002054 0.537303 -0.273851 -0.183593 0.390492 -0.697208 0.238400 -0.140164 -0.329768 -0.274957 0.057481 0.039784 -0.149858 -0.195807 0.561105 0.593114 0.115077 -0.142497 -0.202520 0.030370 0.043117 0.291832 0.148612 0.141443 0.471019 0.215015 0.269594 -0.651047 -0.108416 -0.614439 0.123922 -0.022599
ukufa 0.394610 -1.180020 0.024521 -0.024168 -0.109142 -0.207159 -0.910846 0.801489 -0.074671 -1.041241 -0.469407 -0.664387 -0.017850 0.575044 -0.191966 -0.274350 0.314823 -0.283176 0.883081 -0.029789 0.269138 -0.195160 0.374574 -0.085846 -0.847712 -0.485351 0.390214 0.000961 -0.136246 0.010641 0.684267 -0.791379 0.435677 0.674031 -0.041205 0.007628 -0.264562 0.289836 -0.103601 0.350761 0.201113 -0.009692 -0.199229 0.409037 0.103408 0.517437 0.038291 -0.331395 0.361968 0.450367 -0.235692 -0.091066 0.297696 0.526769 -0.422656 -0.544836 -0.558156 0.684389 -0.197417 0.413095 0.516265 0.227547 0.374691 0.523615 -0.048060 0.090466 0.500701 0.224863 0.422181 0.654303 -0.297089 -0.111384 0.351906 0.191177 -0.090699 -0.568400 -0.551215 -0.339293 0.803228 0.389903 -0.224452 -0.199949 0.294964 0.378927 0.302448 -0.433831 0.256064 0.661565 0.851351 0.486369 -0.028640 -0.014231 0.555414 -0.294276 0.107875 -0.555907 0.040664 -0.733955 0.143453 0.401296
ukufika -0.176111 -0.054295 -0.821001 0.588387 0.044189 -0.573714 -0.701766 0.795962 -0.250129 -0.853343 -0.038101 -0.643614 -0.275137 -0.471812 -0.451432 -0.256674 0.224212 -0.184809 0.068093 -0.501090 0.196618 -0.484481 0.484983 0.308976 -0.543859 -0.250950 0.314624 0.589389 0.203620 0.029174 0.279832 -0.044544 0.559085 0.446449 0.552013 -0.431300 0.013808 0.485023 -0.402203 0.520394 -0.010198 0.362510 -0.057599 -0.118343 0.226967 0.108957 -0.371143 -0.258722 -0.066061 0.384486 0.015703 0.470511 0.305686 0.252142 -0.250979 -0.189853 -0.232915 0.359871 -0.183370 0.763114 -0.212570 0.260930 0.164624 0.277418 -0.121076 0.389118 -0.049219 -0.123514 -0.057097 0.823044 -0.275460 0.036547 0.409135 -0.128772 -0.103280 -0.443145 0.048341 -0.495620 -0.025767 0.487450 -0.147506 -0.303883 0.230664 0.533246 0.455262 -0.281612 0.349553 0.191703 0.624474 0.382430 0.451081 -0.178439 0.566424 0.514360 -0.043359 -0.575551 0.282727 -0.797278 -0.047783 0.255957
ukugula 0.058362 -0.720792 -0.003642 0.173701 -0.248219 -0.244635 -1.117919 1.319945 0.127351 -0.596737 -0.829837 -0.073350 -0.283725 -0.238710 -0.067206 -0.224251 0.224072 0.182122 0.668808 -0.271239 0.190418 -0.024456 0.922670 0.180611 -0.502337 -0.311841 0.151462 -0.201817 0.087712 0.025616 0.545215 -0.625539 0.119450 0.392664 0.010801 -0.046815 -0.191589 0.663738 -0.398103 0.866558 0.159982 -0.247023 -0.141013 0.321600 0.054328 -0.432251 -0.197193 -0.172246 0.275635 0.183928 -0.258923 0.072106 0.502863 0.535319 0.117633 -0.675995 -0.580189 0.674666 -0.381405 0.171075 0.343620 -0.206010 0.413147 0.431988 0.293726 0.014945 0.225409 0.015324 0.621266 0.649945 -0.417043 -0.437423 0.186335 0.079967 -0.113906 -0.557703 -0.657378 -0.321712 0.823339 0.161284 -0.450395 -0.152418 0.347978 0.383107 0.327856 -0.144693 -0.059571 0.760557 0.674575 0.305528 0.619916 0.286727 0.596394 0.005758 0.051569 -0.226093 -0.503450 -0.089334 -0.311911 1.242372
ukuhamba -0.097702 -0.248217 -1.245571 0.471644 -0.318273 -0.391120 -0.425275 0.741596 -0.071396 -0.432965 -0.473115 -0.316860 -0.170657 -0.232143 -0.717373 0.308341 -0.229266 -0.214129 0.449661 -0.314108 -0.008567 0.179580 0.794119 0.268227 -0.779148 0.031704 0.691190 -0.007279 0.143742 0.208997 0.224780 0.007976 0.489076 0.310934 0.434372 0.067416 -0.109098 0.843271 -1.242827 0.488439 -0.030784 -0.088808 -0.185052 0.199019 0.152651 0.197807 -0.509108 0.007028 0.171993 -0.070506 -0.139378 0.183042 0.088312 0.023262 -0.525656 -0.215994 -0.318860 -0.021226 -0.600067 0.633163 -0.025835 -0.206288 0.203929 -0.056002 0.299582 0.182102 0.042551 0.079561 -0.557020 0.813670 0.350223 -0.136439 0.243192 -0.489205 0.402629 -0.264859 0.492763 -0.549128 0.061829 -0.137544 -0.103637 -0.124254 -0.197519 0.766023 0.153512 -0.405067 -0.265114 0.268633 1.089034 0.123746 0.138434 -0.188486 0.588003 -0.062475 -0.151479 -0.662354 -0.067373 -1.337218 -0.342227 0.504056
ukuhlabana -0.202115 -0.122422 -0.697456 0.360169 -0.074684 -0.206806 -0.514151 0.822682 -0.032431 -0.914685 -0.512927 -0.308172 0.165353 -0.330401 0.090305 0.417049 -0.312454 -0.029730 0.058996 -0.425258 0.216787 -0.080524 -0.162464 0.027225 -0.922607 -0.221761 0.030026 -0.183542 0.467071 0.125563 0.200832 -0.410176 0.198404 0.109994 0.068311 -0.133392 0.133420 0.462036 -0.067717 -0.164071 -0.085457 -0.438118 -0.093554 0.463829 0.276866 -0.419236 -0.238043 -0.188839 -0.207198 0.401149 -0.407458 -0.415930 0.296826 0.141744 -0.264832 -0.047341 -0.574510 0.125229 -0.581303 0.272764 0.663783 -0.402624 0.354327 0.152918 -0.189769 0.216065 -0.119311 0.444076 -0.145515 1.067757 -0.219088 0.096399 0.457843 -0.365020 -0.244577 -0.272002 0.216416 0.000317 0.084902 -0.407767 0.043126 -0.351877 -0.103068 0.519054 0.214756 -0.063751 -0.306651 0.182970 -0.161030 0.792457 0.149320 -0.178716 0.783791 0.465512 -0.143005 -0.496875 0.007779 -0.863865 0.255319 -0.059477
ukuhleleka 0.283995 -0.123201 -0.567556 0.029400 -0.233138 -0.364243 -0.416254 0.326615 -0.106909 -1.266617 -0.404460 -0.624122 -0.300876 -0.379892 -0.233048 0.156288 -0.103581 0.135739 -0.074437 -0.820666 0.543023 -0.315874 0.063282 0.250133 -0.182498 -0.082491 0.190365 0.238799 -0.004089 -0.257610 0.395730 -0.190087 0.596504 0.402968 0.507236 -0.304577 -0.159864 0.524869 -0.911759 0.048037 0.056672 0.052811 -0.493261 0.349441 0.650863 -0.543641 0.067833 0.452130 -0.033682 -0.071756 0.077045 -0.273964 0.396098 -0.171319 -0.142511 -0.651614 -0.062341 -0.139643 -0.171007 0.083536 0.554411 0.192243 -0.060000 0.305372 0.287668 0.012365 0.295876 0.275516 -0.207542 0.806672 -0.444089 0.169411 0.161588 -0.512971 0.365131 -0.281953 0.108329 -0.543987 -0.190712 -0.118764 -0.035987 -0.332203 -0.274290 0.039841 0.351146 -0.061949 -0.542399 0.647656 0.317978 0.677480 -0.127252 0.122993 0.128464 -0.211256 0.395301 -0.130672 -0.548366 -0.807814 0.201398 0.221260
ukuhlelwa 0.309645 0.092865 -0.290798 0.583465 -0.409895 -0.354099 -0.441671 0.504261 -0.219961 -1.313498 -0.162589 -0.457985 0.000375 -0.343374 -0.135924 0.091710 -0.032046 0.069932 0.264349 -0.862080 0.406219 -0.197447 0.199488 0.135785 -0.206882 -0.119401 0.191794 0.037236 -0.330722 -0.283961 -0.023188 -0.029018 0.529748 0.277325 0.049329 -0.342060 -0.130372 0.481135 -0.880769 -0.143710 0.133034 0.134534 -0.444289 -0.051370 0.916834 -0.394298 0.294058 0.273221 -0.166762 -0.074296 0.009600 -0.351686 0.590121 0.027527 -0.079669 -0.196272 -0.564977 -0.220987 -0.335913 0.042826 0.515861 0.018720 0.131676 0.402126 0.194262 -0.227924 0.447281 0.313905 -0.110586 0.713223 -0.560464 0.474375 0.329649 -0.651482 0.524188 -0.012847 0.062921 -0.483365 0.292594 -0.322782 -0.087805 -0.515184 -0.343051 0.221242 0.342799 0.109554 -0.241892 0.561594 0.377706 0.909554 -0.200841 -0.209145 0.050480 0.218203 0.194539 -0.108787 -0.336247 -0.718964 0.411977 0.600641
ukuhlolwa 0.404508 0.101045 0.429365 0.301518 -0.651635 -0.410376 -0.532424 0.332950 -0.028178 -0.725481 -0.224778 -0.633784 -0.086464 -0.212948 -0.115334 0.054796 -0.174947 0.265299 0.695307 -0.511518 0.695543 -0.402043 0.267416 0.258739 0.338993 -0.064254 -0.207859 -0.057935 -0.167362 -0.223925 -0.066717 -0.356501 0.312786 0.584790 0.194120 -0.214042 -0.366062 0.357167 -1.213217 0.106792 0.235059 -0.092060 -0.143131 0.068631 0.283617 -0.424222 0.059065 0.290928 0.264601 0.110885 0.052322 -0.103818 0.446926 -0.052476 -0.164154 -0.242374 -0.439577 0.104928 -0.467311 0.002568 0.693530 -0.110378 0.547260 0.413659 0.317835 -0.312715 0.207037 -0.334018 0.536769 0.720513 -1.026623 0.515900 0.036416 0.527627 0.738611 -0.356834 0.365260 -0.099323 0.104280 -0.060259 -0.660014 -0.064803 -0.405909 -0.089806 0.738879 -0.616959 -0.055848 0.609497 0.632409 0.997815 -0.021387 -0.253844 0.455819 -0.475723 0.382452 -0.165050 -0.247795 -0.474531 0.118918 0.870226
ukuhlulwa 0.143285 -0.429521 -0.428213 0.377437 0.317202 -0.037400 -0.590608 0.625053 0.424120 -1.196082 -0.458186 -0.356630 0.399354 -0.329110 -0.453969 0.022112 -0.071152 0.000559 0.279705 0.212383 0.541962 0.048059 -0.072022 -0.120742 -1.065535 -0.169686 0.153293 -0.183229 0.100697 0.012388 0.538238 -0.594155 0.190365 0.217038 0.367614 0.162250 -0.141117 0.216762 -0.540580 0.232095 0.176106 -0.333048 -0.337571 0.353670 0.416259 -0.005544 0.124387 0.106501 0.219461 -0.212691 0.131675 -0.433977 0.519997 0.333170 0.142339 -0.373748 -0.872418 0.227729 -0.316521 1.002164 0.606446 0.257825 0.415614 0.416572 0.427662 0.268188 0.182284 -0.010932 0.243472 0.771542 -0.221174 0.228001 0.748542 -0.663628 0.068674 -0.713707 -0.328184 0.113900 0.292219 -0.226732 -0.623539 -0.719255 -0.111510 0.638201 0.427018 -0.509497 -0.542816 0.412387 -0.197993 0.851714 0.428101 -0.152179 0.804596 0.674597 0.146517 -0.597679 0.113911 -0.563418 0.259686 0.182128
ukuhlupheka 0.281401 -0.922441 -0.392566 0.322725 -0.109563 0.033856 -0.827677 0.623028 0.548105 -0.877293 -0.646662 -0.520372 -0.111755 -0.090517 0.109937 -0.393415 0.226632 -0.311680 0.547477 -0.078111 0.099998 -0.111404 0.278851 -0.102270 -0.517601 -0.315321 0.663387 -0.016500 -0.034772 -0.086845 0.350431 -0.283112 0.049208 0.426042 -0.042352 0.218107 -0.380115 0.285173 -0.052057 0.662911 -0.309055 0.225675 -0.283593 0.213103 -0.060128 -0.111493 -0.396911 -0.225724 0.599643 0.507284 0.066992 -0.335052 0.680462 0.067338 -0.260416 -0.309489 -0.594846 0.023796 0.015307 0.117362 0.308692 -0.142577 0.249965 0.622628 -0.176937 0.159743 0.253499 0.398391 0.034187 -0.002496 -0.220007 -0.322305 0.419263 -0.100926 0.501372 -0.681690 -0.569498 -0.027032 0.394768 0.276025 -0.038488 -0.633643 0.313065 0.749698 0.162334 -0.029960 -0.414331 0.463716 -0.008769 0.744907 0.063562 0.143723 -0.114502 -0.228057 0.391385 -0.646863 0.066837 -0.673924 0.108515 0.142117
ukuhoxa -0.201392 0.028472 -0.884743 0.546903 -0.002711 -0.122852 -0.335918 0.298058 -0.068104 -1.062172 -0.517012 -0.508891 -0.059531 -0.221223 -0.200395 0.021016 -0.066343 -0.533645 0.093567 -0.479354 -0.084519 0.343295 0.171006 0.203784 -0.861876 -0.008866 -0.312385 -0.258867 -0.253299 0.101413 -0.035019 -0.361078 0.174069 0.051067 0.195131 -0.273973 0.285349 0.389784 -0.700699 0.723613 -0.206030 -0.022986 -0.200637 -0.016028 0.408055 -0.101319 -0.235890 -0.136732 0.037873 0.140863 -0.095312 -0.141344 0.479595 0.295073 -0.150842 0.160801 -0.383163 -0.001035 -0.201033 0.466902 0.449970 -0.068422 0.276847 0.657590 0.322767 0.284465 0.043693 0.414953 0.009392 0.296009 -0.117704 0.233873 0.649584 -0.650244 0.230216 -0.494231 -0.009475 -0.326306 0.062093 -0.093613 -0.282103 -0.130298 -0.443314 0.235632 0.343677 -0.426339 -0.022402 0.561106 0.181324 0.870725 0.760157 -0.094815 0.843942 0.356409 0.115688 -0.494706 -0.191547 -0.853461 -0.116139 0.661947
ukujabula 0.145970 -0.629324 -1.319390 0.256082 -0.084489 -0.376618 -0.915997 0.613653 0.243142 -0.341066 -0.811633 -0.550247 0.183824 -0.400834 -0.452223 0.280252 0.217743 -0.393324 -0.028818 -0.220635 0.164479 -0.282930 -0.048616 0.540189 -0.724659 -0.039208 0.219439 -0.604470 0.174013 0.003399 0.326395 0.017144 0.482329 0.210025 0.029793 -0.139553 0.072420 0.181317 -0.205264 0.410379 -0.331059 -0.082260 -0.230833 -0.421368 -0.297508 -0.155830 -0.242151 -0.413457 0.357020 0.540045 -0.352349 0.400676 0.318888 0.262919 -0.354250 -0.090328 -0.012352 0.034673 -0.042671 0.193538 0.312048 -0.303357 0.107561 0.417898 0.112695 0.187367 0.247542 0.287269 -0.036185 0.428260 -0.176814 0.166531 0.128461 -0.468226 -0.044997 -0.219442 -0.127611 -0.166682 0.090627 0.479433 0.117785 -0.354689 0.284684 0.503035 -0.042993 -0.272670 -0.339774 0.705040 0.073114 0.293700 0.182853 0.226492 0.507087 0.060116 0.829031 -0.757177 0.117625 -0.602569 -0.018293 -0.290174
ukukhathala -0.054130 -0.417334 -0.488613 -0.062243 0.218552 -0.297030 -0.456693 0.748099 0.279649 -0.550646 -0.724337 -0.098408 -0.271638 -0.125976 -0.319525 0.173409 0.240280 -0.081923 0.488545 -0.202646 0.472714 -0.107846 0.349020 0.237954 -0.393002 0.041491 0.529279 -0.209736 -0.016283 0.124976 0.295564 -0.522937 0.213967 -0.009532 0.134747 0.064547 0.022788 0.546468 -0.668185 0.628090 -0.039777 -0.133791 -0.433617 0.426872 0.242578 -0.193876 -0.516013 -0.029867 0.312883 0.208910 0.151763 0.028575 0.554391 0.195920 0.569062 -0.154392 -0.214751 0.000662 -0.251133 0.277770 0.112374 0.095611 0.264015 0.167257 0.186045 0.237442 0.585468 0.550839 0.233080 0.326884 -0.162920 0.150081 0.524256 -0.353751 0.520530 -0.257403 -0.032340 -0.385590 0.020395 0.196373 -0.099383 -0.097336 0.212159 0.464567 0.344172 -0.110094 -0.498012 0.341336 -0.088478 0.446948 0.252169 0.077992 0.519094 -0.299104 0.391399 -0.673647 -0.389082 -0.735525 0.000621 0.260112
ukukhononda -0.292367 -0.220208 -0.770694 0.348144 -0.143588 -0.333274 -0.611527 0.422804 0.180553 -0.440877 -0.421062 -0.257449 -0.165544 -0.061176 -0.055361 -0.175391 0.766813 -0.346326 0.343839 -0.569240 0.324375 -0.360684 0.163307 0.392861 -0.814115 0.010685 -0.042997 -0.368083 -0.176926 -0.081176 0.130338 -0.313751 0.263413 0.091287 -0.249981 -0.041833 0.035777 0.408015 -0.501033 0.487512 0.168849 -0.237279 -0.224591 0.062409 0.283050 -0.287237 -0.229853 -0.107890 0.178287 0.057982 0.297017 0.400744 0.486610 0.255366 -0.268583 0.015593 -0.616554 -0.027828 -0.058793 0.191505 0.071948 -0.170329 0.057738 0.511903 -0.069781 0.097747 0.273199 0.231341 0.193358 0.394575 -0.305407 -0.089384 0.480874 -0.320772 0.532656 -0.313467 -0.152154 -0.352290 0.032809 0.065966 -0.085004 -0.186839 0.059758 0.221698 0.537647 -0.046685 -0.060272 0.315669 0.311715 0.781025 0.241654 0.043271 0.666624 0.090368 0.128730 -0.324967 -0.087209 -0.781659 0.491759 0.031719
ukukhubazeka 0.134505 -0.491129 -0.255745 0.238266 -0.583451 -0.116115 -0.877941 0.624898 -0.573553 -0.768861 -1.204923 -0.178234 0.056773 -0.002607 0.227875 -0.040277 0.123699 0.327941 0.519236 -1.107858 0.248980 0.149560 0.831986 -0.105489 -0.033355 -0.161024 0.217641 -0.132530 -0.567504 -0.105303 0.738360 -0.736083 0.179286 0.342440 -0.091238 -0.000532 -0.042641 0.336900 -0.317619 0.965863 0.413769 0.087399 0.139977 0.533569 0.281063 -0.394789 -0.602802 0.159768 0.179535 0.511716 0.601023 0.354929 -0.223675 0.389855 0.400009 -0.967336 -0.215290 -0.126905 -0.648580 -0.176111 0.178493 -0.037136 0.287459 0.345223 -0.029700 -0.312356 -0.109767 0.330210 0.260571 0.510480 -0.581091 0.029883 0.004151 0.121365 0.225649 -0.357910 0.455312 0.136120 0.687735 0.146149 -0.013842 -0.128108 0.294041 0.220222 0.847416 -0.429945 -0.355352 0.859054 0.417281 0.309652 0.726020 -0.207793 0.227412 -0.273120 -0.129573 -0.536860 -0.242122 -0.568157 -0.073353 0.136381
ukukhula -0.118445 -0.394430 -0.495335 0.193590 -0.079786 -0.279359 -0.827508 0.711068 -0.025328 -1.263302 -0.705800 -0.905898 -0.134693 -0.046487 -0.056945 -0.180686 0.259200 -0.020173 -0.412178 -0.485670 0.185167 -0.385440 0.386068 0.120021 -0.685417 -0.140250 0.804998 0.110767 0.212842 0.158488 0.440734 -0.238844 0.825898 -0.315780 0.278668 -0.602090 -0.067930 0.918654 -0.577204 0.875094 -0.279942 -0.117744 -0.300989 0.758477 0.313833 -0.444338 -0.514278 0.264221 -0.024036 0.408832 0.207696 -0.327433 0.463367 0.194511 0.473580 -0.308289 -0.058650 -0.182607 -0.535195 0.163703 -0.335756 0.228560 0.406969 0.161418 0.023640 -0.326166 0.318067 0.135382 -0.376130 0.832375 -0.836202 -0.359012 0.160161 -0.148318 0.316712 -0.235477 -0.251955 -0.483689 0.203874 -0.451212 -0.191720 -0.179834 0.191790 0.292046 0.642810 -0.288488 -0.004009 0.718249 -0.087764 0.686053 0.259122 -0.027557 0.042432 0.282401 0.577847 -0.205611 -0.185644 -0.917341 0.194887 0.368263
ukumiswa 0.240740 -0.120393 -0.593320 0.566079 -0.209830 -0.065094 -0.615360 0.572400 -0.708005 -1.132437 0.015081 -0.116383 -0.792897 -0.123922 -0.501612 -0.082381 0.276373 -0.111860 0.375824 -0.518663 0.032888 -0.034915 0.415356 0.233341 -0.566523 0.038156 -0.017129 0.104425 -0.607584 -0.168199 0.446384 -0.142063 0.205506 -0.145954 -0.310476 -0.179633 0.323727 0.482216 -1.202756 0.520039 0.322893 0.099017 -0.329415 0.100240 0.813460 -0.130917 0.015921 -0.138389 0.310083 -0.143820 -0.071771 -0.297666 0.414981 1.034720 -0.147346 0.262950 -0.512459 0.122334 -0.389423 0.500854 0.573919 0.130148 0.062200 0.407564 0.559957 0.093995 0.410733 0.161910 -0.538547 0.551052 -0.305432 0.325932 0.476944 -0.502180 0.163953 -0.396191 -0.189008 -0.988581 0.187290 -0.143377 -0.254904 -0.452686 -0.537768 0.241594 0.628931 -0.021728 -0.143385 0.686920 0.333330 1.021662 0.084567 0.169185 0.856431 0.517203 -0.299874 -0.335342 -0.075851 -0.869765 0.738415 0.796007
ukungcola 0.082443 -0.906407 -0.129940 0.169199 -0.367468 -0.316071 -0.721111 0.472007 -0.201294 -0.526583 0.474850 0.009392 -0.241254 0.266538 -0.172341 0.259610 0.497277 0.020694 0.885922 0.152416 -0.153036 -0.171230 0.235779 0.118401 -0.958759 0.473750 -0.044237 0.280297 -0.067104 -0.450726 0.368321 -0.001692 0.540649 0.338667 0.388375 -0.009716 -0.851348 0.523107 -0.587872 0.680627 -0.435542 -0.008160 0.400352 0.327332 0.313721 -0.091358 -0.217143 0.177118 -0.150088 0.599976 -0.022465 -0.484307 0.398288 0.191557 0.012434 -0.536837 -0.736065 0.064435 -0.272344 -0.291920 0.874013 0.139330 0.348508 0.281402 0.284497 -0.124265 0.982257 0.239600 -0.303132 0.162293 -0.083196 -0.557779 0.434877 0.040882 0.358912 -0.224127 -0.142702 -0.515202 0.443895 0.055012 -0.027256 -0.330383 0.520490 1.134038 0.231557 0.338801 -0.667923 0.579787 0.576409 0.587311 -0.544230 -0.146805 0.309109 0.009757 -0.404014 -0.244107 -0.161738 -0.978522 0.732285 0.455610
ukungena -0.700427 0.084149 -1.124626 -0.078254 -0.005908 -0.671982 -0.611353 0.712195 -0.578941 -0.367526 -0.098688 -0.649293 -0.020921 -0.443290 -0.500967 -0.323803 0.002804 -0.198349 -0.057465 -0.644210 0.447732 -0.319053 0.466372 0.039339 -1.012075 -0.079468 0.051770 0.632996 -0.168446 -0.272947 0.337940 -0.316923 0.533851 -0.122191 0.286559 -0.458641 -0.191098 0.825238 -0.448279 0.634958 -0.125497 0.334514 0.265574 0.646556 0.000862 -0.190696 -0.208546 -0.085821 -0.096989 0.351869 0.283164 0.267479 0.277465 0.369416 -0.155574 -0.334330 -0.654778 0.225689 0.140880 0.250476 0.124160 -0.177231 0.071691 -0.070636 0.009761 0.296878 0.336247 0.616760 -0.761082 0.814194 -0.029214 -0.065489 0.681337 -0.175860 0.058875 -0.050540 -0.209203 -0.458476 0.317889 -0.034991 -0.076215 -0.079042 0.203840 0.384318 0.516031 -0.195687 0.230833 0.643837 0.524692 0.806756 0.269538 -0.582719 0.994562 0.186831 -0.313735 -0.827558 0.184501 -0.873529 0.461293 0.419222
ukuphathwa -0.261036 -0.058723 -0.025803 0.274704 -0.140513 -0.073612 -0.511409 0.107149 -0.614449 -1.206924 -0.162373 -0.158870 -0.427182 0.086957 0.119168 -0.007317 -0.100727 0.088390 0.606263 -0.577408 0.304016 0.048837 -0.026361 -0.032821 -0.259317 -0.008643 0.311939 0.170912 -0.327502 -0.324532 0.067482 -0.278647 0.476035 0.199649 -0.119717 -0.212711 -0.140070 0.318857 -0.995438 0.499096 0.057948 -0.394281 -0.012172 0.311170 0.694620 -0.418692 0.204549 -0.231290 0.022584 -0.180214 0.230190 -0.379783 0.546588 0.339722 0.261221 -0.379812 -0.554368 -0.586520 -0.321715 0.109586 0.403773 -0.221575 0.262653 0.460009 0.082060 -0.401266 1.097124 0.456334 -0.232796 0.249255 -0.615798 0.155429 0.557180 -0.454484 0.444424 -0.249949 0.307393 -0.285289 0.159674 -0.406559 -0.310713 -0.466291 -0.068870 0.270795 0.628476 0.318640 0.064961 0.956897 0.281469 0.876701 -0.132880 0.267391 0.544547 0.050280 0.302254 -0.658586 -0.164072 -1.015339 0.371545 0.651150
ukuphazamiseka 0.147570 -0.529572 -0.762020 0.286136 -0.328701 -0.172314 -0.928525 0.546693 0.021816 -0.733079 -0.288703 -0.175834 -0.154634 0.046090 -0.667525 0.503493 0.079628 -0.092029 0.283142 -0.584007 0.707475 -0.075019 0.665961 0.316896 -0.082674 0.243918 0.263584 0.189373 -0.395340 -0.078259 0.707849 -0.558368 0.642519 -0.225426 0.256104 -0.294458 -0.201554 0.110258 -0.860572 0.604032 -0.075644 0.201747 -0.437759 0.336055 0.374397 -0.162368 0.107598 0.293864 0.109882 0.077421 -0.183887 0.033597 0.244912 0.462133 -0.126896 -0.622262 -0.314257 0.447331 -0.339666 0.191034 0.553179 0.277469 0.099116 -0.004734 0.465239 -0.260301 0.231519 0.139473 0.309710 0.231526 0.035141 0.255769 0.274032 -0.406628 0.284935 -0.110000 -0.073112 -0.353198 -0.143180 -0.006629 -0.637341 -0.516216 0.453704 -0.076524 0.397542 -0.505413 -0.302825 0.992008 0.434725 0.661783 -0.059249 0.180364 0.556547 0.115683 -0.040640 -0.070007 -0.077992 -0.765325 -0.054574 0.431199
ukuphela 0.096200 -0.465025 -0.802662 0.381153 -0.432116 -0.038386 -0.909064 0.972597 0.065987 -1.168502 -0.033716 -0.524941 -0.189256 -0.043863 -0.221816 -0.304420 -0.061071 -0.187869 0.522809 -0.052252 0.801282 -0.390982 0.355794 0.332913 -0.622036 0.157431 0.327527 0.148273 0.038518 0.026977 0.357640 -0.291630 0.553140 0.383775 0.291985 0.123177 0.138698 0.225664 -0.426787 0.435935 0.031046 0.119169 0.020671 0.246880 0.261411 0.342128 0.062014 -0.083010 0.381626 0.387897 0.343262 -0.142531 0.306139 0.354209 0.066375 -0.410869 -0.266045 0.242966 -0.379004 0.606247 0.085599 -0.125037 0.278945 0.220469 0.103997 0.162031 0.331307 0.271206 0.157261 0.590252 -0.373605 0.254755 0.487700 -0.142903 0.293994 -0.285264 -0.300057 -0.623200 0.207190 -0.251460 -0.357573 -0.446662 -0.165768 0.275548 0.529377 -0.224379 0.123079 0.526148 0.279055 0.974441 0.156235 -0.238311 0.561178 0.366260 0.351681 -0.430270 0.092120 -0.584735 0.088181 0.299846
ukuphepha -0.079191 -0.750311 -0.997387 0.482051 -0.200243 -0.052291 -0.710939 0.375780 -0.328744 -1.069885 -0.191453 -0.016557 0.363654 0.862699 -0.289175 0.109159 0.120611 -0.131953 0.568781 -0.234729 -0.030843 -0.327629 0.631346 0.547464 -0.067927 0.386649 0.093127 0.202726 -0.184667 -0.522936 0.717289 -0.054893 0.628989 0.185155 0.556982 -0.694430 -0.310071 0.585213 -1.173389 0.747208 0.222546 0.512579 0.129885 0.144491 0.324206 0.032137 0.276092 0.536004 0.049271 -0.456823 -0.312329 -0.199994 0.349825 0.054464 -0.459040 -0.630274 0.008601 -0.121532 -0.399465 0.062263 0.336278 -0.455902 0.126759 0.512093 0.333711 0.122664 0.502407 -0.107669 0.109689 0.378936 -0.264917 0.465052 0.583782 -0.132421 0.456111 -0.037106 0.572137 -0.678496 -0.007052 0.137057 -0.223077 0.183034 0.170168 0.335543 0.538694 -0.216167 0.068059 0.396467 1.014058 0.661986 -0.070007 0.014442 0.727559 -0.196749 0.367809 -0.348316 -0.568399 -1.001538 -0.412766 0.009758
ukuphikisana 0.134598 -0.381682 -0.013848 0.076062 -0.422597 0.207467 -0.297181 0.581739 0.315012 -0.587291 -0.245141 -0.482593 -0.212107 0.311513 0.279416 -0.263278 0.365774 -0.503387 0.352113 -0.375792 0.095903 0.049618 0.097732 0.216046 -0.907821 -0.210004 -0.299840 -0.709337 0.049200 -0.115132 0.079578 -0.512187 0.440863 0.532187 -0.013648 -0.113187 0.230422 0.113524 -0.673852 0.794191 0.210374 -0.159263 -0.182162 0.371090 0.419401 -0.328256 -0.302393 0.043242 0.031873 -0.198937 0.139623 0.034612 0.470249 0.311789 -0.945858 -0.570872 -0.300067 -0.148353 -0.530256 0.146212 0.752699 -0.542636 -0.661279 0.656217 -0.387425 0.084642 0.368175 0.710204 -0.007369 -0.173584 -0.106217 -0.417178 0.571858 -0.851114 0.288493 -0.288037 -0.262517 -0.640308 -0.073713 0.014879 -0.317684 -0.217749 -0.867005 0.191376 0.395388 -0.116891 0.089867 -0.101077 0.601411 0.626934 -0.128871 0.174533 0.557709 0.187116 -0.228810 0.270403 0.042901 -0.815886 0.388414 0.381677
ukuphoxeka -0.289900 -0.417109 -0.768394 0.307940 0.294748 0.033474 -0.616073 0.481963 0.531434 -0.845472 -0.690121 -0.446391 0.000277 0.042299 -0.374802 0.110540 0.412020 -0.347912 0.205566 -0.409427 0.255719 0.043415 0.331530 0.236895 -0.653348 0.063215 0.048103 -0.149137 0.115471 0.110824 0.456288 -0.722199 0.288543 -0.069954 0.705568 -0.278095 -0.183451 -0.182937 -0.811635 0.670873 -0.195158 -0.027207 -0.356577 0.221452 0.058546 -0.318921 0.064857 -0.215879 -0.096198 0.228121 -0.041257 0.066475 0.460692 0.323061 0.054336 -0.192393 -0.304523 0.090118 -0.162070 0.462282 0.335720 0.327004 0.266997 0.598836 0.127417 0.393682 0.160274 0.167576 0.192744 0.276252 -0.095320 -0.001991 0.602823 -0.488723 0.142728 -0.230232 -0.301161 -0.183963 0.006920 -0.154554 -0.563142 -0.555758 0.266651 0.315752 0.377965 -0.428341 -0.141610 0.204194 0.204121 0.428353 0.202660 0.068801 0.589065 0.056542 0.002932 -0.483780 -0.179124 -0.674789 0.124885 0.399178
ukuqala -0.192055 0.031653 -1.214627 0.158636 0.080877 -0.510574 -0.558495 0.896863 -0.216412 -1.191716 -0.391597 -0.648936 -0.178498 -0.427545 -0.435817 0.101153 -0.037011 0.128629 0.313870 -0.836452 0.598972 -0.459507 0.384563 0.402590 -0.519970 -0.205570 0.650851 0.108833 0.046194 -0.355692 0.056314 0.049687 1.148678 -0.159354 0.170241 -0.368023 -0.138884 0.565128 -0.497880 0.136051 -0.155545 -0.124471 -0.438155 0.058910 0.247301 -0.233074 -0.389051 -0.267486 0.151567 0.180805 0.138388 -0.178554 0.576596 -0.119963 0.211023 0.213999 -0.533901 0.179403 -0.330868 0.516010 -0.047298 -0.047713 0.241135 0.075144 -0.138362 0.270768 0.026650 0.348303 -0.195789 0.686457 -0.552239 0.220238 0.276414 -0.407701 0.171791 -0.703287 -0.064443 -0.161490 0.164569 -0.375237 -0.287538 -0.473124 -0.238924 0.323943 0.136691 -0.509971 0.264271 0.734119 -0.027732 0.935810 0.107595 -0.177304 0.383727 0.260253 0.403478 -0.096932 -0.295299 -0.291414 0.281812 0.035866
ukuqhuma -0.055502 -0.162593 -0.695849 0.207272 -0.174601 -0.785159 -0.816160 0.718118 0.016840 -0.413737 -0.129540 0.319863 -0.638360 -0.328719 -0.043780 0.042244 0.657776 -0.009148 0.278720 -0.177423 0.433088 -0.428767 0.843155 0.493318 -0.684066 0.084641 0.278129 0.216995 -0.039460 -0.348910 0.423704 -0.319090 0.769311 0.068764 0.257826 -0.285401 0.078319 0.893444 -0.842759 0.614223 0.168076 -0.479932 -0.021916 -0.029877 -0.001677 -0.148870 -0.187637 0.219602 0.201214 0.481441 -0.499861 -0.062693 -0.111687 -0.066076 -0.170343 -0.378337 -0.265858 0.252694 -0.178476 0.875864 0.138545 -0.213271 0.223898 0.027266 0.233550 0.155374 0.373539 0.296365 -0.110429 0.878128 -0.031211 -0.052347 0.414657 -0.220806 0.506656 -0.497130 -0.133285 -0.321537 0.378828 0.301427 -0.302765 0.244838 0.166930 0.691848 0.111700 -0.075900 -0.213884 0.395564 0.566299 0.525404 -0.230872 -0.092987 0.594776 0.418820 -0.497625 -0.192097 0.242182 -1.008986 0.404455 0.810854
ukusetshenziswa -0.414082 -0.197282 0.101345 0.483343 -0.213091 -0.528042 -0.558795 0.184544 -0.411951 -1.434688 0.251267 -0.469616 -0.419923 -0.315885 -0.012420 -0.035820 0.154179 0.427555 0.441117 -0.304619 0.492602 -0.375807 0.209202 0.050224 -0.154731 0.162850 -0.082443 0.135361 -0.485587 -0.491701 0.262509 -0.036854 0.575727 0.165320 0.110953 0.052389 -0.128643 0.491259 -0.747696 0.467583 0.385582 0.058124 -0.075501 -0.158206 0.747482 -0.289732 0.063616 0.367428 0.256402 0.141381 0.063616 -0.489565 0.342071 0.329108 0.198598 -0.805919 -0.206379 -0.633506 -0.398107 0.287809 0.248777 -0.222424 0.164128 0.108140 0.261387 0.296398 0.387802 -0.226946 -0.256635 0.076447 -0.577388 0.028477 0.154125 -0.101351 0.503284 -0.193716 0.141408 -0.263897 -0.090036 -0.167362 -0.303846 0.028525 -0.167009 0.393314 0.633098 0.467000 -0.187756 0.679205 0.076324 0.616418 -0.399129 -0.002702 0.073563 0.098761 -0.241914 -0.146556 0.165755 -0.978466 0.564917 0.641466
ukushayisana -0.323569 -0.154577 -0.445246 0.298890 -0.338202 0.160035 -0.864469 0.414895 -0.006088 -0.456343 -0.667788 -0.056929 -0.174394 0.095737 0.271601 0.192805 0.213590 -0.322291 0.520194 -0.343579 0.341814 -0.242190 0.518901 0.250597 -0.392335 0.102099 0.291710 -0.128609 0.179181 -0.472741 0.337996 -0.855838 0.858026 0.066841 -0.027596 -0.214965 -0.060289 0.700375 -1.148975 0.083933 0.691017 -0.189002 -0.315422 0.722039 0.218438 -0.013063 -0.107737 0.453704 -0.104238 -0.270985 -0.379532 0.018395 -0.193277 0.295273 -0.501264 -0.243141 -0.587145 -0.039809 -0.643751 0.430475 0.172961 -0.460540 -0.364935 0.324806 0.522957 -0.145122 0.411785 0.209226 0.291172 0.375429 -0.583388 -0.264383 0.366873 -0.865613 0.158715 -0.177931 0.064794 -0.341706 -0.229219 0.114961 -0.570684 -0.266620 -0.148073 0.478759 0.276838 -0.146151 -0.308097 0.003646 0.790232 0.529735 -0.117184 -0.216272 0.518593 -0.020290 -0.134268 0.107218 0.248750 -0.999230 0.320763 0.206799
ukushisa -0.101883 -0.388547 -0.597982 -0.031449 -0.361648 -0.837248 -0.456888 0.414350 0.227964 -0.532174 0.087856 -0.233596 -0.411150 -0.162235 0.074744 0.278375 0.223348 0.443052 0.107971 -0.493815 0.344724 -0.485489 0.543042 0.337487 -0.853889 0.322039 0.343818 0.020778 0.145333 -0.291258 0.310429 -0.313815 0.666099 -0.009117 0.460893 -0.231765 -0.513559 0.875860 -0.551128 0.616491 -0.370245 -0.598125 -0.095319 0.097749 -0.137837 -0.152516 0.144716 0.317684 0.288756 0.724333 -0.489268 -0.571303 0.033270 0.365151 0.182583 -0.235507 0.262276 0.373632 -0.687177 0.316772 0.149748 -0.079251 0.608697 -0.276474 0.385082 0.323383 0.773221 -0.062924 -0.145838 0.316912 -0.431503 -0.317630 0.202598 0.272223 0.018591 -0.583113 -0.289707 -0.648783 0.277090 -0.202305 -0.624617 -0.162973 0.542824 0.707848 0.132273 0.277237 -0.835819 0.377705 -0.010365 0.484623 -0.118888 0.204366 0.232341 0.132492 0.148596 -0.299597 -0.204582 -1.278153 0.545543 0.442235
ukuthengwa 0.215735 -0.141595 -0.502781 0.011448 -0.187098 -0.173731 -0.313478 0.049343 0.195043 -1.096308 0.187809 -0.151450 -0.048327 -0.062677 0.022759 -0.133786 0.350318 0.047934 0.390318 -0.188636 0.265015 -0.086689 -0.211520 0.141032 -0.621164 0.467736 0.178667 0.726933 -0.154440 -0.128215 0.585289 0.006944 0.708794 -0.070073 0.114213 0.182948 0.322298 0.355129 -1.002131 0.442396 0.793436 -0.039797 -0.093938 -0.291152 0.185507 0.148401 -0.547444 -0.122189 -0.462255 0.438645 -0.006774 -0.475264 0.344279 0.192226 -0.140487 -0.319760 -0.662340 -0.535977 -0.480229 0.203014 -0.083291 -0.288406 0.708939 -0.676961 -0.174014 0.211663 0.324781 0.039380 -0.204346 0.146353 -0.871132 0.190612 0.386371 -0.017740 0.165822 -0.676956 0.403166 -0.184340 0.315447 -0.368802 -0.219198 0.201136 -0.067760 0.540950 0.462440 -0.449616 -0.293990 0.154598 -0.110967 1.245942 -0.269911 -0.524257 0.961025 0.429488 0.408241 -0.095947 -0.289893 -1.121262 0.257772 0.507060
ukuthola -0.104983 -0.205501 -0.629044 -0.159526 0.291468 -0.397504 -0.477938 0.206522 -0.403785 -0.769320 -0.220609 -0.655239 -0.249386 -0.177174 -0.407679 -0.118039 0.384884 0.050626 0.340020 -0.819904 0.245669 -0.226006 -0.286181 0.140420 -0.281429 -0.242674 -0.221000 0.335580 -0.042452 -0.682370 -0.387765 -0.045693 0.895576 0.027247 -0.145039 0.058232 -0.463551 0.799132 -0.752783 0.496792 0.164994 -0.032828 -0.458576 0.282888 -0.292695 -0.437731 -0.450233 -0.608785 0.279940 0.075483 0.214961 -0.062621 0.265300 -0.187317 0.081561 0.153058 -0.286408 -0.160405 -0.594958 0.242615 -0.118904 -0.056572 0.175385 -0.261008 -0.175978 0.045071 0.054011 -0.068349 0.323695 0.199092 -0.445268 0.011831 0.500893 0.005511 0.262110 -0.254081 -0.062730 0.147653 0.169749 0.455121 -0.601271 -0.224823 0.045524 0.714966 0.541012 -0.745689 0.272728 -0.051144 0.164736 0.430559 0.597746 -0.623317 0.671541 0.359111 0.226078 -0.263697 -0.251915 -0.323582 -0.165248 0.021713
ukuvikela -0.328115 -0.916176 -0.499989 -0.182765 0.191892 -0.177349 -0.580293 -0.023269 -0.569982 -0.956310 0.250898 -0.190044 0.094703 0.524499 -0.744672 0.445154 -0.135105 0.482059 0.942842 -0.619257 0.040240 -0.467903 -0.164038 -0.376983 -0.508560 -0.146642 -0.230269 0.421228 0.127740 -0.602788 0.570122 -0.557254 0.540586 -0.302988 0.437005 -0.212364 -0.384227 0.717698 -0.858466 0.480074 0.133969 -0.368551 -0.194793 0.304924 -0.347909 0.282550 -0.123680 0.111988 0.458864 0.000968 0.090831 -0.220432 0.500655 0.072779 0.049331 -0.408691 -0.240940 0.053266 -0.662122 -0.004063 0.061414 -0.291629 0.076655 0.348111 0.155351 0.352068 0.518816 0.324383 0.236062 -0.100820 -0.445269 0.140551 0.711029 -0.108169 -0.041654 -0.370203 0.197185 0.035827 -0.033121 0.135942 -0.610080 0.236398 -0.086512 0.406798 0.714831 0.169289 0.072832 0.547898 0.384923 0.966582 0.423039 -0.100559 0.503155 0.347809 0.143227 -0.677217 0.047327 -0.215690 -0.155293 0.068304
ukuvumelana 0.435006 -0.142603 -0.222588 0.115251 -0.134074 0.238302 -0.093076 0.470073 -0.083230 -1.000795 -0.180814 -0.360928 0.215168 0.138482 0.166845 0.281600 0.190593 -0.094383 -0.137266 -0.539984 0.180139 0.014987 -0.063632 0.089470 -0.695288 -0.046154 -0.132156 -0.120608 -0.136996 -0.224342 0.099164 -0.559064 0.544186 0.310106 0.220765 0.036011 0.216213 0.177433 -0.586851 0.109915 -0.269307 -0.057243 -0.319669 0.414803 0.366804 -0.550124 -0.465700 -0.094781 0.169242 0.031430 0.091743 0.076147 0.391996 -0.380970 -0.365020 -0.663249 0.326863 -0.430031 -0.486811 0.077031 0.542359 -0.564761 -0.347032 0.395307 -0.101021 -0.007941 0.414240 0.522997 -0.119140 0.033104 -0.286287 0.037664 0.487554 -0.554331 0.422550 -0.208631 -0.263587 -0.611227 -0.281922 0.044268 -0.481387 -0.048808 -0.599359 -0.003425 0.405943 -0.022186 0.071376 -0.084785 0.528044 0.766623 0.305394 -0.174037 0.222877 0.104922 0.088558 0.091227 -0.083267 -0.763733 0.418396 0.329587
ukuvuthwa 0.241617 -0.194401 -0.378079 0.333968 -0.472176 -0.576175 -0.330530 0.444864 0.327637 -0.743946 -0.067964 -0.219679 -0.042527 -0.235532 0.048275 0.512050 0.045761 0.186754 0.066069 -0.341917 0.348541 -0.098956 0.189440 -0.152919 -0.500898 0.224718 0.661562 0.268853 0.116863 0.218949 0.159533 -0.286025 0.578893 0.385848 0.007192 -0.271296 0.218712 0.575915 -0.876353 0.286240 -0.137887 -0.248316 -0.434963 0.405147 0.275979 -0.145770 0.060355 0.216827 0.274053 0.736634 -0.044281 -0.284351 0.330825 0.160466 0.866158 -0.550568 0.006342 0.087877 -0.468722 0.523564 0.151403 0.202882 0.249456 0.099366 0.222976 -0.049249 0.318002 -0.006444 0.105683 0.919545 -0.857344 0.111773 0.235834 -0.275840 0.153195 -0.448125 -0.367671 -0.098455 0.173599 0.038100 -0.528220 -0.221587 0.324892 0.029674 0.451048 0.107816 -0.309794 0.469424 -0.012630 0.419162 0.383104 -0.241891 0.224729 0.189023 0.229090 -0.369755 0.227832 -0.599326 0.549937 0.252310
ukuwina -0.077965 -0.387802 -1.198979 0.206363 0.428127 -0.224195 -0.523075 0.628536 0.221275 -1.237374 -0.520142 -0.553600 0.426981 -0.098732 -0.883934 0.348763 -0.015910 -0.179568 0.102675 -0.211862 0.222319 -0.289307 -0.660570 -0.150704 -0.780569 -0.332760 -0.153563 -0.333459 0.314121 0.277194 0.409767 0.051123 0.920753 -0.148192 0.578138 0.421769 -0.160733 0.706490 -0.264795 0.129467 0.132431 0.110863 -0.162042 0.437038 -0.121278 0.156591 -0.215786 -0.486975 -0.137743 0.270811 0.291605 -0.565946 0.372410 0.319955 0.103597 -0.360043 -0.621194 -0.138547 -0.262909 1.251043 0.394019 0.055860 0.695336 0.566896 0.114992 0.736979 -0.242700 0.366505 -0.143403 1.399089 -0.687005 -0.084021 0.853030 -0.651967 0.073373 -0.733567 -0.192268 0.313750 0.084338 -0.220802 -0.346534 -0.240311 -0.077234 0.913875 0.186242 -1.175566 -0.116233 0.591878 -0.378965 0.452873 0.673000 -0.745044 1.093983 0.782869 0.126292 -0.610280 -0.055569 -0.391474 0.304885 -0.001517
ukuxabana 0.099728 -0.333836 -0.382771 0.351923 -0.342659 -0.416848 -0.943531 1.238367 0.480901 -0.322278 -0.679486 -0.186447 -0.001535 -0.142435 0.232494 -0.253804 0.155174 -0.475161 0.322095 -0.032394 0.012294 -0.072717 0.675999 0.359572 -1.097959 -0.277142 0.237394 -0.439696 0.272119 0.039870 0.163886 -0.532755 0.160327 0.257553 -0.160806 -0.373662 0.197252 0.460438 -0.384085 0.689322 0.105289 -0.750889 -0.376164 0.567916 0.353657 -0.425248 -0.373193 0.076951 0.597750 0.291231 -0.006390 0.123830 0.271927 0.308101 -0.400867 -0.385842 -0.461204 0.076317 -0.677411 0.153740 0.490453 -0.251430 -0.589476 0.295279 -0.114172 -0.404521 -0.102363 0.493129 0.084144 0.485969 -0.154302 -0.678700 -0.016521 -0.583072 0.249572 -0.332633 -0.323020 -0.657890 0.236536 0.417890 0.016198 0.023279 0.201254 0.552447 -0.017489 -0.371187 -0.302596 0.131844 0.546046 0.484346 -0.038482 0.321748 0.464134 0.470202 -0.189472 -0.207260 0.288116 -0.909262 0.049349 0.600903
ukuxhaswa 0.277250 0.016100 -0.685716 0.491624 -0.238130 0.124626 -0.710306 -0.047306 -0.308681 -1.028153 -0.252609 -0.531625 -0.061761 -0.292429 0.230022 -0.201597 0.644626 -0.356676 0.035957 -0.830983 -0.128337 0.372265 -0.047392 -0.147462 -0.359540 0.041113 -0.185342 0.179670 -0.830783 -0.234603 0.006142 0.245119 0.479007 -0.176254 -0.168948 -0.200367 0.180134 0.337776 -0.619573 0.334231 -0.024921 -0.208201 0.050482 0.297635 0.218877 -0.285749 -0.014400 -0.089606 -0.215967 0.209672 0.731110 -0.290613 0.522287 0.030631 -0.135581 -0.607358 -0.423878 -0.712215 -0.912929 0.054965 0.046916 0.069631 0.314105 0.053978 -0.591078 -0.347388 0.316213 0.264273 0.113123 0.295648 -0.616160 0.267929 0.552490 -0.282756 0.453546 -0.883967 0.143058 -0.401370 0.073745 -0.260819 -0.363064 -0.031184 -0.085722 0.551725 0.719712 -0.212970 0.058471 0.368079 0.534672 0.419510 0.551816 -0.586861 0.097461 0.624911 -0.033636 -0.283286 -0.436332 -0.828611 0.203677 1.150938
ukuxhumana -0.062946 0.107694 -0.280753 -0.068556 -0.209141 -0.126762 -0.475379 0.558343 0.091643 -0.719895 -0.566700 -0.645554 0.057620 -0.413402 0.134727 0.046354 0.449640 -0.453521 -0.503107 -0.890748 -0.294091 0.148563 0.251309 0.726361 0.032837 -0.373762 -0.702026 -0.110092 -0.133089 -0.353602 -0.084795 0.053394 0.495720 0.073217 0.098253 -0.244147 -0.271316 0.541544 -0.898890 0.370554 -0.211220 0.101639 -0.188372 0.396434 0.189781 -0.605719 -0.074676 0.405596 0.160272 0.226857 0.089418 0.300105 0.200101 -0.129312 -0.685621 -0.550803 0.035453 -0.939786 -0.712969 0.248365 0.361055 -0.593865 -0.734772 0.461305 -0.149652 -0.336520 0.257611 0.169506 -0.159112 0.252362 -0.187337 -0.162594 0.508623 -0.627377 0.461360 0.194953 0.667118 -0.346536 -0.342779 0.335730 -0.089903 0.132971 -0.309335 0.425960 0.208815 -0.285057 -0.153181 0.206409 0.336585 0.401389 0.335223 -0.140112 0.428832 0.564519 0.259967 -0.055466 -0.437943 -1.317510 0.107207 0.290007
ukuzwana -0.319302 -0.253907 -0.794367 0.091911 0.103784 -0.007301 -0.385094 0.792856 0.189969 -0.754742 -0.609907 -0.697061 0.137237 -0.114387 0.144152 -0.159180 -0.061978 -0.243202 -0.398115 -0.631130 -0.205395 -0.287356 0.222495 0.544857 -0.617209 -0.234294 0.222470 -0.174038 0.081078 -0.012011 0.479242 -0.490329 0.796742 0.032293 0.408711 -0.083690 -0.028023 0.539216 -0.634773 0.389117 -0.291877 0.009572 -0.359120 0.473736 -0.093842 -0.428923 -0.245665 0.280378 0.273663 0.195724 0.149416 0.270224 0.106091 0.008789 -0.437837 -0.247378 -0.351862 -0.371608 -0.825248 0.193560 0.029331 -0.231706 -0.787010 0.351234 -0.036715 -0.045104 0.273805 0.445020 -0.016125 0.576982 -0.671368 -0.410147 0.219729 -0.555833 0.373714 -0.107928 0.216938 -0.349442 -0.123422 0.438179 0.207131 0.233992 -0.285517 0.420585 0.412762 -0.096969 0.161382 0.249342 0.296400 0.407124 0.141160 0.003944 0.234154 0.413068 0.095622 -0.360228 -0.100720 -0.740366 0.010826 -0.019153
ukwamukelwa 0.252744 -0.466900 -0.216367 0.463056 -0.346462 -0.098658 -0.335685 0.511173 -0.006648 -1.228164 -0.015033 -0.232917 0.102599 0.104225 0.246775 0.009992 0.049912 -0.103825 0.201998 -0.992386 0.147599 0.336334 0.074117 -0.057093 -0.183148 -0.275862 -0.029284 0.054235 -0.526967 -0.236254 0.462400 -0.093961 0.050318 0.407414 0.010215 -0.163964 -0.003076 0.062252 -0.162316 0.122018 0.339638 0.306985 -0.078867 -0.005434 0.025725 -0.414422 -0.042209 -0.125188 0.118972 0.349563 0.026964 0.005411 0.361655 0.565190 -0.233462 -0.253451 -0.232460 -0.265440 -0.281072 0.239471 0.236642 -0.139430 0.654092 0.367308 0.099234 0.285910 0.235868 0.390480 -0.097589 -0.052141 -0.582937 0.789307 0.522613 -0.073362 0.531190 -0.340611 -0.081436 -0.328613 -0.129130 -0.067325 -0.397264 -0.380613 -0.187222 -0.259330 0.548253 0.147502 0.311234 0.546497 0.654372 0.398539 0.198222 -0.256602 0.495101 0.036229 0.441305 -0.199068 0.117186 -0.166035 0.265869 0.355927
ukwehlukana -0.002610 -0.518563 -0.137928 0.172960 -0.402091 0.268391 -0.553748 0.882427 0.233568 -0.921804 -0.142427 -0.266972 -0.194794 0.002040 -0.012420 -0.108960 -0.080664 -0.134336 -0.194242 -0.506392 0.163662 0.067712 -0.082050 0.176007 -0.733553 -0.076955 0.013894 0.120588 -0.253132 -0.104258 0.115251 -0.491484 0.526242 0.612526 0.139626 -0.081856 0.167909 0.385114 -0.462439 -0.045375 0.080734 -0.028628 -0.469376 0.734598 0.045718 -0.455963 -0.175999 0.178112 0.198848 0.149431 0.063812 0.169226 0.398117 0.536608 -0.646516 -0.674116 -0.552085 -0.375192 -0.663588 0.426506 0.150916 0.005603 -0.122309 0.461329 0.046528 0.064628 0.290119 0.804431 -0.015591 0.459958 -0.594172 -0.292570 0.103578 -0.715784 0.063709 0.179435 -0.178788 -0.189037 -0.167703 0.204425 0.138707 -0.435048 -0.375373 0.015377 0.724911 0.057505 0.206644 0.019313 0.345488 0.479257 -0.169830 0.097357 0.129897 0.123664 0.037912 -0.077113 0.418961 -0.776328 0.528264 0.108622
ukwehlulwa 0.061819 -0.710074 -0.182035 0.330646 0.129673 0.134644 -0.605404 0.464966 0.330771 -1.082319 -0.457258 -0.347684 -0.023261 0.098722 -0.510433 -0.070550 -0.033114 0.084714 0.097470 -0.070765 0.345930 -0.107180 -0.207870 -0.188323 -1.011871 0.022281 0.060912 -0.054455 -0.342022 0.050670 0.600933 -0.686261 0.528454 0.538209 0.042483 0.160877 0.010128 0.157969 -0.430750 0.393888 0.314324 -0.360589 -0.394832 0.299979 0.027951 0.020996 0.007837 -0.022023 0.284376 -0.143243 0.167638 -0.200852 0.583603 0.615371 0.040556 -0.725814 -0.365496 0.284143 -0.531039 0.866760 0.279945 0.234044 0.225312 0.320387 0.677916 0.343676 0.233179 0.206499 0.060798 0.575887 -0.662553 0.176611 0.659503 -0.552063 0.042780 -0.479630 -0.272230 0.273469 0.120423 -0.223031 -0.238456 -0.481876 0.000145 0.214036 0.485854 -0.324857 -0.223110 0.286929 -0.252521 0.740978 0.333784 -0.037970 0.554249 0.390143 0.185046 -0.473510 0.184222 -0.411879 0.417496 0.277193
ukwenziwa 0.209254 -0.036522 0.290944 0.531396 -0.447187 -0.324232 -0.343005 0.149582 -0.339202 -1.015610 -0.235462 -0.257301 0.207951 0.019780 0.019277 0.114609 -0.245995 -0.057276 0.335238 -0.194782 0.471107 -0.284250 -0.127883 0.181331 -0.232474 0.038887 0.329835 0.111839 -0.606731 -0.428171 -0.042374 -0.291706 0.377157 0.360008 0.059378 -0.264941 -0.073495 0.312426 -0.915530 0.164159 0.471718 0.037538 -0.432684 -0.289836 0.358938 -0.657933 -0.113747 0.038763 -0.207325 0.419765 0.567937 -0.215412 0.578838 0.218479 -0.003249 -0.281443 -0.536173 -0.303462 -0.364664 0.102991 0.426433 -0.279010 0.483030 0.262839 0.332476 0.206701 0.414382 -0.102798 -0.114640 0.506431 -1.001839 0.493873 0.217244 -0.401089 0.228164 -0.405220 0.318162 -0.256513 0.173240 -0.355607 -0.262873 -0.531682 -0.214712 0.303672 0.416541 0.210027 -0.270213 0.726501 0.737034 0.627451 -0.214938 -0.103300 0.062440 0.134339 0.356825 -0.067926 -0.260618 -0.736937 0.448921 1.043396
ukwethulwa 0.281608 -0.299147 -0.308384 0.374758 -0.453330 -0.263457 -0.618472 -0.092983 -0.323453 -0.988073 -0.469449 -0.353084 -0.233803 -0.388390 0.134798 0.065782 0.126774 0.234482 0.228422 -0.677081 0.118127 -0.013283 -0.025143 0.448337 0.140898 0.085325 0.330473 0.035949 -0.299792 -0.415144 0.095939 -0.044314 0.631041 0.462640 0.002636 -0.626630 0.549009 0.276740 -0.783112 0.228087 0.848112 0.291377 -0.278122 0.348567 0.477132 -0.486948 0.200589 0.059509 -0.320516 0.008029 -0.010434 -0.007857 0.611796 0.455102 -0.262544 0.055823 -0.606479 0.004494 -0.627667 0.178629 0.459360 0.020498 0.280661 0.041261 0.474109 0.640310 0.228807 0.564125 -0.114757 0.682868 -1.072195 0.570374 0.378220 -0.422988 0.504356 -0.114402 -0.082815 -0.524899 0.157066 -0.325171 0.156879 -0.521468 -0.190404 0.119738 0.308352 0.411179 -0.321799 0.238670 0.058957 0.804749 0.259057 -0.074721 0.255969 -0.035173 0.264492 0.159118 -0.385742 -0.403947 0.312412 0.403358
ophethe 0.274453 0.334320 -0.139983 0.313373 -0.075526 -0.309295 0.092220 0.405033 -0.539717 -0.523776 0.363400 -0.029379 0.332520 0.241899 -0.110957 0.382086 0.064063 0.710846 -0.295108 -0.451811 0.041902 -0.157928 0.030620 -0.222501 -0.264565 0.055722 -0.821112 -0.305803 -0.013678 -0.753913 -0.502663 -0.814750 0.310481 -0.148371 -0.339701 -0.277996 -0.048588 0.252271 -0.246601 -0.281181 0.423351 -0.123344 0.349194 0.132757 -0.103195 -0.320086 -0.008401 -1.189670 -0.247158 -0.701708 -0.255342 0.022098 0.140350 -0.164792 0.093983 0.035660 -0.189701 0.523539 -0.346959 0.063796 0.029960 -0.740736 0.116465 0.865121 0.056469 -0.213651 0.757766 0.691642 -0.268055 -0.290318 -0.625771 0.942072 0.162131 -0.722386 0.314031 -0.213208 0.210965 -0.324480 0.479555 -0.698361 -0.097982 0.296672 0.122616 0.576032 0.551093 -0.118308 -0.542516 0.098596 0.309887 0.524033 0.506336 -0.206289 0.646938 -0.042969 -0.053014 -0.279049 0.173850 -0.596569 0.419291 -0.043576
osolwa -0.159100 0.016937 0.811173 0.785278 0.164907 -0.673022 -1.135790 0.169101 -0.209288 0.225460 -0.202266 0.422594 0.330942 0.494472 0.281050 0.277142 0.505815 -0.362792 0.518747 -0.526371 0.442817 0.705830 0.497897 -0.375350 -0.914798 -0.355632 -0.389969 -0.379171 0.258976 -0.646171 -0.157109 -0.408371 -0.404523 -0.179597 -0.783854 -0.604369 0.094873 0.811629 -0.872205 0.409829 0.859142 -0.336554 -0.153478 -0.334432 -0.307315 -0.284374 0.381458 -0.148288 -0.037925 -0.156314 -0.930027 0.212088 0.194399 -0.093276 -0.260487 0.062390 -0.536339 -0.140396 -0.954983 0.163511 0.534868 -0.010611 -0.455896 0.582510 0.241864 -0.043891 0.255485 0.019785 0.743450 -0.549450 -1.196988 0.496939 -0.544777 0.209121 0.311787 -0.159138 -0.259009 0.280426 0.256592 0.150858 0.050275 -0.016851 0.789134 0.951020 0.164804 -0.261783 -0.146862 -0.034287 -0.221793 0.477867 0.246956 -0.293617 0.513620 -0.096387 -1.024913 -0.146470 0.503421 -0.120586 0.281045 0.087297
owakwakhe 0.223399 -0.470154 0.282791 0.608458 -0.029588 -0.522570 -0.582812 0.764593 -0.058504 0.229826 -0.051185 0.365740 0.491988 0.413617 0.261719 0.098775 0.162080 -0.054230 0.291623 -0.250663 -0.052872 0.585173 0.798009 0.321414 -0.826105 -0.402838 -0.211250 -0.706036 -0.202698 -0.428786 -0.288210 -0.029633 0.226314 -0.067345 -0.456123 -0.178775 0.162197 0.379546 0.148250 -0.200924 0.201559 -0.237409 0.140954 -0.315304 -0.213053 -0.107727 -0.241273 -0.778357 0.141141 0.128486 -0.336466 -0.252266 0.055389 0.284019 -0.255046 -0.341765 -0.923776 -0.220201 -0.195822 0.115066 -0.068625 -0.231063 -0.363356 0.415417 -0.342721 0.444444 0.165686 0.355329 -0.385999 0.171430 -0.517441 0.582176 -0.437571 -0.490145 0.518147 -0.268741 0.219285 -0.230986 0.412422 -0.153520 0.546375 -0.303929 0.277610 0.949875 0.150508 -0.157177 0.144945 0.094842 0.553240 -0.051823 0.474085 -0.126499 -0.348731 0.415986 0.229925 -0.143450 0.159147 -0.319442 0.319184 0.073173
