2504 100
afrika -0.000260 -0.210856 0.330276 0.105570 -0.141452 1.036536 0.019163 0.612694 0.457782 -0.219367 -0.531252 0.512242 0.288995 -0.105495 0.259324 0.142730 -0.312805 0.219149 0.314627 -0.383538 -0.088718 0.440026 0.926777 0.183282 0.198548 -0.094215 0.761316 -0.289530 -0.041880 0.340565 -0.334172 -0.071440 0.164078 -0.078713 -0.334640 0.027003 -0.024721 -0.135273 0.473932 0.465237 0.103090 -0.102501 0.346253 -0.229099 0.262365 0.304868 0.187112 -0.242323 -0.411584 0.346426 0.053602 -0.306729 -0.262110 -0.077136 -0.264344 -0.056494 0.318910 -0.388592 -0.074353 -0.173812 0.167687 0.201905 0.461085 -0.151706 0.019614 0.465648 0.117348 0.617873 -0.165321 0.487038 0.041406 -0.031245 -0.128720 -0.334716 -0.393163 0.520249 -0.030572 0.331674 0.240380 0.045353 0.244469 0.286165 0.317882 0.121317 -0.369337 0.046180 0.447119 0.373345 0.316017 0.436935 -0.295004 0.100197 0.685636 -0.161913 0.508900 0.231111 0.105650 -0.210428 0.058019 0.232753
afrika-borwa 0.080054 0.181259 0.470233 0.557911 0.457427 0.874034 -0.109674 0.283869 0.610861 -0.044943 0.269307 0.308837 -0.084480 -0.301363 0.063755 0.475549 -0.399269 0.428910 0.191094 -0.275404 0.176378 0.307520 0.556114 -0.095183 -0.036816 -0.405279 0.051914 -0.589149 0.020470 0.546254 -0.295240 -0.236250 0.125740 0.125055 -0.054071 0.197536 0.097234 -0.351011 0.340853 -0.007560 -0.150323 -0.776479 0.261806 -0.160317 0.680473 0.308509 0.389146 0.065148 -0.202808 0.684716 0.367998 -0.266852 0.256027 0.107444 -0.372744 -0.425403 0.092385 -0.358699 -0.316276 -0.064042 -0.070893 0.809664 0.366093 -0.111177 -0.012976 0.792787 0.151170 0.831472 -0.350274 0.761646 0.004563 0.444585 0.375608 -0.658353 0.170627 0.150452 -0.132375 0.073825 0.570549 -0.073496 0.046661 0.556553 0.741160 -0.166389 -0.192220 -0.424081 0.186136 0.502662 0.661295 0.241414 -0.170792 -0.005295 1.070489 0.040512 0.950384 -0.037102 0.146873 -0.300851 -0.139155 -0.381411
agostose 0.127164 -0.030272 0.282315 -0.318885 -0.224814 -0.059668 0.173699 -0.496550 0.441794 -0.492646 -0.604789 0.274178 -0.126269 -0.193004 -0.083405 -0.046031 -0.522432 -0.080668 -0.227493 -0.727682 0.187554 0.395663 0.633440 0.117677 0.366486 0.169239 0.013547 -0.033738 -0.394431 0.620940 -0.265367 -0.270487 -0.154716 -0.297968 -0.283251 0.537150 -0.185596 -0.085593 0.179394 0.441550 -0.158155 0.104426 0.064086 -0.064578 0.063429 0.370388 0.200543 -0.134465 -0.091983 -0.041879 0.024681 -0.308234 0.067011 -0.014873 0.220601 -0.158327 -0.228913 0.159174 0.083903 0.106328 -0.415442 -0.021542 -0.250662 -0.101854 -0.409987 0.317816 0.299946 0.622374 0.171452 0.833285 0.208304 0.318213 -0.293080 -0.199912 -0.144198 0.393716 -0.126712 -0.152484 -0.382101 -0.652046 -0.184819 -0.085053 0.729683 0.017609 -0.830399 -0.099162 -0.251581 0.010254 0.168033 -0.278761 -0.192950 -0.246789 -0.046948 0.477779 0.027081 -0.192117 -0.394198 -0.152774 -0.509411 0.347362
aids 0.322574 -0.201131 -0.498636 0.172295 0.047685 1.282123 -0.429471 0.064874 0.729308 0.059049 -0.863389 0.141476 0.991581 0.175402 0.000915 -0.376657 -0.499540 -0.262128 0.587161 0.356135 0.514234 -0.139236 0.112767 -0.582490 0.057000 0.632389 0.175309 0.703268 0.844740 0.293800 -0.514619 -0.476447 0.501806 0.152031 0.012317 0.142839 0.038457 -0.149613 0.275062 0.017165 -0.938651 0.213907 -0.089039 -0.008674 -0.000150 -0.346565 0.403234 -0.521878 0.069522 -0.436326 0.442241 0.233811 0.207386 -0.165639 -0.373620 -0.288071 -0.376415 0.047292 0.045107 0.159441 0.980831 -0.182197 -0.576726 -0.252832 0.376219 0.161944 -0.258350 -0.274860 -0.000632 0.449550 0.230686 -0.049627 -0.025736 0.430089 -0.336948 0.536626 0.125257 0.354975 0.583237 -0.271759 -0.305672 0.261416 0.452961 1.376868 -0.732013 0.255554 -0.407343 0.670140 -0.400848 -0.066009 0.042713 0.914548 -0.965247 0.951490 0.478061 0.044183 -0.048609 -0.065304 0.441207 -0.042426
aphili 0.233188 0.082342 0.007209 0.191424 0.009932 0.762882 0.229963 0.460953 0.356604 0.180212 -0.512256 0.189031 -0.525157 -0.274915 0.066159 0.140435 -0.073079 -0.269967 -0.522935 -0.540309 0.533953 0.805269 0.486775 -0.098652 -0.057827 0.074581 -0.312474 0.201028 -0.036331 -0.354160 -0.468099 -0.197270 -0.009050 -0.390061 -0.290647 -0.523453 0.032477 0.240253 0.481681 0.425280 0.773993 0.149198 0.086335 0.081051 -0.364610 0.317900 0.439343 0.035556 0.003409 -0.150982 -0.452314 -0.180913 -0.242856 0.006757 -0.303367 -0.184348 -0.679289 0.019739 0.189349 0.068059 0.190181 0.280887 -0.303717 0.510082 -0.378974 -0.255803 -0.143140 0.027429 -0.443094 0.307125 -0.076502 0.028418 0.255384 -0.180853 -0.471914 0.489923 0.075409 0.069183 0.297823 -0.462467 -0.457928 0.252729 0.725155 0.082080 0.077621 0.100052 0.569024 0.446096 -0.241821 0.299899 -0.247853 0.098332 0.013544 0.133136 -0.050438 0.071939 -0.306247 -0.127346 0.316763 -0.241624
apola -0.268215 -0.352041 -0.000074 -0.004160 -0.296470 -0.194609 -0.327686 -0.173523 -0.327756 -0.216830 -0.207397 0.246993 -0.232425 -0.164065 0.076040 -0.318814 -0.293567 -0.042351 -0.076016 -0.038612 -0.026155 0.516832 0.016152 0.047721 0.337189 0.276323 0.565803 -0.325490 0.418220 0.407133 -0.181264 -0.435855 0.222412 -0.137646 0.158028 0.004791 -0.190578 0.220808 0.324236 0.381350 -0.034818 0.537507 0.180702 0.201838 -0.257910 0.918858 0.396546 0.198983 -0.581749 0.558819 -0.424092 0.471330 0.002920 0.403552 -0.153177 -0.330898 -0.389393 -0.024709 0.456198 -0.250613 -0.260486 -0.257231 0.051217 0.434982 0.146544 -0.240042 0.248691 0.561977 -0.267513 0.704671 0.119537 -0.436991 0.610033 0.041034 0.075064 0.637555 0.445287 0.477403 0.402441 -0.459629 0.388909 -0.181816 0.539084 0.014154 -0.214013 0.295322 -0.224918 0.469019 -0.115702 -0.202807 -0.206816 -0.068393 0.023076 0.420062 -0.218332 -0.551801 -0.119463 0.003185 0.214705 0.210731
aprele 0.382072 -0.090110 0.204632 0.403806 0.430082 0.328230 0.142640 -0.643800 0.264685 -0.345772 -0.226303 0.233900 0.281261 -0.074301 -0.070858 0.290999 -0.807421 -0.087033 0.051164 -1.124965 0.248879 0.540174 0.656673 0.420387 0.451578 0.209965 0.424278 -0.282878 -0.286473 0.123034 -0.418402 -0.290878 0.343228 -0.464008 -0.097617 0.498019 0.155882 0.608547 0.045109 0.861390 0.372790 0.069136 0.216045 0.292067 -0.148832 0.367554 -0.099064 -0.342965 0.019224 -0.022142 0.096833 0.170551 -0.342385 -0.025443 -0.043828 -0.097398 -0.282579 -0.842329 0.494023 0.344259 -0.094240 -0.166251 -0.320374 -0.126290 -0.594547 0.155855 0.198736 0.393199 0.019891 0.997507 0.246394 0.270255 0.306443 -0.355993 -0.107300 0.271175 0.171993 -0.047030 0.505808 -0.465970 -0.021319 -0.058763 0.335147 0.164094 -0.877582 -0.225614 -0.034332 0.463118 0.455721 0.257384 -0.794957 -0.070293 -0.502707 0.366384 0.171316 -0.378090 -0.019090 -0.057643 0.254878 -0.038615
aterese -0.008219 -0.105981 -0.503362 0.092808 -0.241037 0.487592 0.033990 0.635922 0.458095 -0.135562 -0.874960 0.336223 -1.159598 -0.420426 0.362745 0.412066 -0.540878 -0.317707 -0.113307 -0.673657 0.402229 0.391356 0.867397 -0.258672 1.049539 0.368716 0.651436 0.026243 0.132424 -0.096068 -0.472875 -0.009258 -0.778945 -0.516476 0.408639 0.686827 -0.955839 0.642138 0.126671 -0.265265 0.400214 0.764186 -0.061963 -0.141477 0.184633 0.210726 0.234918 0.112751 -0.019827 -0.068714 -0.603279 -0.687069 0.347882 0.131550 0.151887 -0.052716 0.321130 0.489177 -0.173823 0.359007 0.709020 -0.094018 -0.475162 0.485317 -0.243623 0.114408 -0.566896 0.097528 -0.555082 0.397098 0.450264 0.919420 -0.372745 0.356637 -0.121483 0.238705 0.428322 -0.248816 0.012957 -0.882181 -0.759851 -0.023273 0.332807 -0.027800 -0.098582 -0.255641 -0.016356 0.006763 -0.417398 0.744703 -0.525757 0.221485 0.237502 -0.590956 -0.295211 -0.854643 -0.261688 -0.407428 -0.386929 -0.671782
baabi -0.359058 0.002200 0.463724 0.166390 0.230654 0.923088 -0.590704 0.471875 0.498655 0.264875 -0.910036 -0.105029 -0.679239 0.032728 0.348745 -0.014522 -0.224633 -0.527493 -0.494110 -0.289480 0.306483 0.347114 0.011222 -0.649036 0.031924 -0.163441 0.236495 0.523579 0.209694 0.162043 -0.653390 -0.127202 -0.783987 0.411176 0.014083 0.627310 -0.140216 0.401133 -0.109962 -0.325887 0.053968 -0.327973 -0.383555 -0.296862 0.055821 -0.458347 -0.049305 0.447163 0.001982 0.454040 -0.281668 0.152366 -0.211306 -0.063311 -0.991079 -0.489556 0.052752 -0.236124 0.339787 0.136552 0.423925 -0.112685 0.088560 0.173508 -0.041119 0.021199 0.504216 0.231311 -0.424717 0.055642 0.466349 -1.088056 0.106667 0.296400 -0.431174 -0.148941 -0.217351 -0.023682 -0.007851 0.310028 -0.594270 0.858509 0.415225 0.302182 -0.486241 -0.448124 0.402322 0.177841 -0.328842 -0.086892 0.533236 -0.287316 -0.067318 0.359837 0.420212 0.303561 -0.579359 0.576227 0.047120 -0.212025
baagi -0.652137 -0.198693 0.597196 0.046981 0.284146 1.086084 -0.371895 0.657181 0.606758 -0.113451 -0.698572 0.105881 0.365948 -0.332437 0.158060 -0.170216 -0.291756 -0.133049 0.226411 -0.354879 -0.417317 0.221208 0.071206 -0.584576 -0.143514 -0.565969 0.676134 -0.097383 -0.080077 0.173284 -0.617271 -0.036553 -0.109183 0.131849 0.304595 -0.146749 0.093213 -0.150716 -0.007347 0.146949 -0.212290 0.080481 -0.173306 -0.318736 0.821429 0.068311 -0.471716 0.283806 -0.224375 0.221037 -0.203178 -0.898809 -0.181744 0.290370 -1.123575 -1.151904 0.289813 -0.766346 0.034200 -0.436681 0.199620 -0.079802 0.071574 -0.408946 0.384725 0.879271 0.109687 0.286871 -0.433750 0.447898 0.686199 -0.183978 0.133798 -0.162450 -0.266633 0.098664 -0.075750 -0.489917 0.283025 -0.427872 -0.728018 0.331073 0.347632 0.687331 -0.125440 -0.393521 -0.269746 0.426832 0.802134 0.208035 -0.129630 -0.504356 0.226461 0.788050 0.372673 0.365771 -0.141830 0.343466 -0.733184 0.091709
baagisani -0.254002 -0.137716 0.430687 0.025988 0.101906 1.122776 -0.539253 0.652414 0.104394 0.123214 -0.440314 -0.211112 -0.505613 0.020810 0.297155 0.238070 -0.327785 -0.295468 0.361119 0.076583 -0.430047 0.252073 -0.124677 -0.833652 -0.138518 -0.550809 0.301983 -0.040413 0.135488 0.093687 -0.281596 -0.246377 -0.118051 0.313793 -0.053897 0.110498 0.225379 -0.235530 -0.543105 -0.452934 0.051839 0.201314 -0.005751 -0.164064 0.622770 0.101524 -0.185760 0.030070 -0.526972 0.256090 -0.121237 -0.253799 -0.137243 -0.407467 -0.989121 -0.548398 0.295638 -0.384486 0.202282 -0.138767 0.014396 -0.213340 -0.253074 -0.064535 0.004168 0.348758 -0.076172 0.139564 -0.302380 0.218515 0.204906 -0.043769 -0.020558 0.096582 -0.071493 0.122256 0.215692 -0.274563 -0.042630 -0.150973 -0.591173 0.091203 0.169926 0.385391 -0.315325 -0.194615 -0.204677 0.102268 0.680598 0.233526 0.134801 -0.049438 -0.095217 -0.041582 0.159175 -0.135325 -0.197434 0.735758 -0.541029 0.295092
baahlodi 0.117572 -0.000020 0.742934 -0.277162 0.210262 0.645102 0.220461 -0.139077 0.115930 0.423856 -0.794412 0.069813 -0.716418 0.126180 0.035867 -0.667752 -0.055365 -0.385091 -0.467331 -0.318007 -0.285174 0.587449 -0.058006 -0.161257 -0.152343 -0.383935 -0.485154 0.586182 -0.224398 -0.105733 -0.901832 0.361332 -0.315824 0.227216 -0.044706 0.124370 -0.464161 -0.003076 -0.484901 0.175727 0.701340 -0.160317 -0.429355 -0.322810 0.679503 0.260592 -0.438172 -0.504221 -0.720946 0.158603 0.247701 0.155017 0.183655 0.251963 -0.552052 -0.619867 -0.139212 -0.096538 -0.078908 0.030703 0.174100 -0.051853 0.281843 -0.080052 -0.871086 -0.040680 0.724066 0.787399 -0.800166 0.714028 0.020575 0.160824 -0.141344 0.019328 0.343938 0.306855 0.070749 -0.178188 0.353687 -0.431882 -0.131117 0.316701 0.753742 0.274258 -0.553545 0.116157 0.125054 0.074099 0.307149 0.306445 0.202245 -0.130664 0.251622 0.634998 0.118227 -0.022919 -0.277626 0.397392 0.336619 -0.526827
baanegwa 0.248466 0.455124 -0.344774 -0.620051 0.250790 0.888540 -0.235914 -0.025389 0.223354 0.199273 -0.106687 0.138815 -0.029372 0.088604 -0.034445 -0.306393 -0.381835 0.153928 -0.022404 -0.061970 0.026032 -0.055398 0.127379 -0.818576 0.410478 -0.069292 0.513619 0.540549 0.245427 0.016696 0.085606 -0.212930 -0.320385 -0.386419 0.261924 0.411593 0.115913 0.203394 0.283284 -0.572830 -0.465571 0.509183 0.197746 0.053614 0.921641 -0.132496 0.099163 -0.052274 -0.763671 0.902306 -0.570812 0.065851 0.109248 0.416229 -0.978413 -0.946312 0.098557 -0.417026 0.116248 0.229435 -0.672888 -0.222330 -0.063121 0.037345 0.138221 0.060331 0.307729 0.206211 -0.407863 0.638836 -0.112193 0.178262 0.262739 0.493225 0.668278 0.607175 0.379549 -1.019316 0.065111 -0.702319 0.052989 0.584071 0.236008 0.363182 -0.504055 -0.029415 0.044449 0.054614 0.234004 -0.036519 -0.263948 0.079237 -0.013670 0.200175 0.125726 0.014886 -0.445677 -0.462852 -0.434343 0.117442
babadi 0.287646 0.437362 -0.487413 -0.144919 -0.132635 0.992234 0.323067 0.181028 0.460822 0.016285 -0.606488 0.879179 -0.057292 0.071126 -0.247759 -0.165127 -0.141426 0.126446 -0.068291 -0.003707 -0.253551 0.107505 -0.032605 -0.397880 0.564342 -0.233479 0.111732 0.219623 0.095821 -0.035952 -0.298798 -0.343744 -0.033461 -0.529219 0.553008 0.089603 -0.235581 0.511075 -0.273670 -0.136755 0.213588 0.364070 -0.134774 -0.250240 0.755934 -0.512101 0.460743 -0.241424 -0.630561 1.003975 -0.273855 -0.229694 -0.193270 0.186053 -0.678810 -0.105915 -0.042210 0.215997 0.098159 -0.270153 -0.192924 0.150849 0.020914 0.311507 0.588307 -0.393628 0.471138 -0.082432 -0.522327 0.861843 -0.292032 -0.281475 0.093361 0.140410 0.463168 0.722139 0.318626 -0.583216 -0.484230 -0.147331 -0.122324 0.140898 0.633017 0.611794 -0.169399 0.463277 0.135625 -0.080710 -0.142441 0.005660 0.140217 -0.642036 -0.121267 0.260332 0.360164 0.228969 -0.393649 0.057294 -0.129396 -0.373923
babogedi 0.088638 0.215185 -0.029185 0.063222 -0.096073 0.490913 0.100012 0.602499 0.479643 -0.118578 -0.906875 0.566078 -0.234218 0.282459 0.146419 -0.005098 0.013427 -0.078373 -0.139807 0.099390 0.264772 0.799251 0.189710 -0.413012 0.448884 -0.434819 0.279723 0.210637 0.195659 0.037257 -0.278907 0.181753 -0.057464 -0.357898 0.556603 0.405350 0.063704 0.315600 -0.401151 0.133992 -0.008509 0.121234 -0.530880 -0.328766 0.331252 -0.102853 0.543146 0.073695 -0.403438 0.759692 -0.115981 -0.331942 -0.250954 0.176735 -0.687419 0.159425 0.317794 0.389190 0.336632 -0.583557 -0.402203 0.138980 -0.092926 0.147428 0.380417 -0.138830 0.443903 0.123483 -0.477418 0.505416 -0.083721 -0.181027 0.008002 0.128792 0.396980 0.513953 0.512240 -0.168179 -0.182493 0.271368 -0.032247 0.026469 0.378790 -0.099198 -0.297501 0.275047 0.094796 0.362278 -0.028051 0.063645 0.143903 -0.471965 0.290067 0.205426 0.043121 -0.195447 0.017288 0.231324 -0.240262 -0.219762
babolai -0.011421 -0.168813 0.431864 -0.200685 0.003915 0.828734 -0.022611 0.210498 0.685392 0.046011 -0.982255 0.529518 -0.329165 0.140447 0.314518 -0.099613 -0.174639 -0.082799 0.051136 0.226586 0.107125 0.151985 0.265918 -0.418325 0.123131 -0.216500 0.058976 0.629157 0.323733 -0.376717 -0.447945 -0.219704 0.023654 0.517412 -0.057733 -0.472665 0.078708 -0.176668 -0.429478 0.117351 -0.027863 0.006660 -0.148289 -0.150479 0.481750 0.315093 0.305475 0.090005 -0.374175 0.077603 0.513750 -0.350243 0.135522 -0.155214 -0.624714 -0.183780 0.160159 0.198029 0.163137 -0.604901 -0.056893 0.154965 0.038038 0.075378 -0.260417 -0.339310 0.300780 0.132390 -0.798244 0.353037 0.180338 -0.351629 0.092331 0.028469 0.679101 0.316329 0.466429 -0.162319 0.529502 -0.267796 -0.171066 0.483268 0.551175 0.474124 0.023738 0.273314 -0.231801 0.294381 0.337766 0.205328 -0.045856 0.377544 -0.155000 0.165759 0.103770 -0.219710 0.065834 0.237979 0.063598 -0.169355
baboledi 0.320408 0.144383 0.251956 -0.268484 0.394492 1.081332 0.290585 0.398491 0.271005 0.130937 -0.887928 0.715979 -0.561980 0.090664 0.102339 0.397528 -0.562097 0.174152 -0.240349 -0.004408 -0.115734 0.271789 -0.181006 -0.032537 0.341709 -0.268928 0.260166 0.477275 0.106230 -0.196800 -0.232189 0.029810 -0.012857 0.079089 0.480893 0.092727 -0.449975 0.493751 -0.211709 0.099118 0.286985 -0.219486 -0.351881 -0.119962 0.363100 0.119815 0.044011 -0.385093 -0.408270 0.638983 0.045671 -0.053161 -0.013421 0.385482 -0.693756 -0.029558 0.207170 0.276786 0.018496 -0.008417 -0.357541 -0.001335 -0.049935 -0.024753 -0.546475 0.214450 0.125499 0.252069 -0.689858 0.301676 -0.155575 -0.511207 -0.218735 0.019553 0.115438 0.281027 0.187401 -0.337607 0.033254 -0.146705 -0.190304 0.250110 0.369645 0.670317 -0.288851 -0.081159 0.120933 0.222318 0.066564 0.150254 -0.082083 -0.175849 0.237717 0.723771 0.521298 0.160914 -0.059509 -0.365674 0.108117 -0.131252
babusi -0.023573 0.109775 0.298208 -0.371440 0.009898 1.088444 0.192346 0.151392 0.131587 0.191386 -0.751021 0.399830 -0.051638 -0.274208 0.000420 -0.134475 -0.529926 -0.181618 -0.129866 -0.468387 -0.170912 -0.214899 0.342929 -0.339813 0.270817 -0.238658 -0.238819 0.088537 -0.062635 -0.050990 -0.194821 -0.225396 0.009340 0.171444 0.452054 -0.167536 0.032702 -0.023889 -0.448126 0.107101 0.497490 -0.036584 -0.066316 -0.142692 0.331515 0.237661 0.105701 0.025249 0.087111 0.342237 -0.206262 -0.359939 -0.025772 -0.075798 -0.643808 -0.229326 0.027616 0.302210 0.223234 -0.029621 -0.122076 0.237530 0.065496 -0.134197 -0.386789 -0.392567 0.322199 0.110985 -0.447412 0.357502 0.082063 -0.121935 -0.004521 -0.097298 0.399018 0.309594 0.030348 -0.273549 0.423873 -0.146928 0.244892 0.459806 0.386747 0.380248 -0.169293 -0.020278 0.326245 0.271502 0.320669 0.107187 0.194472 0.070822 -0.191907 0.174585 0.363698 -0.268359 -0.321821 0.057390 -0.127617 0.195323
badiidi -0.418988 -0.147374 -0.040277 -0.173049 -0.184244 0.748772 0.136184 -0.064284 0.043859 -0.084499 -0.696748 0.492869 0.218490 -0.119103 0.454706 0.230457 -0.107612 0.008811 0.343476 0.242757 -0.171980 0.199836 0.395551 -0.098688 -0.053146 -0.274871 0.279070 0.396599 0.257563 0.152487 -0.124771 -0.568671 0.056148 -0.491592 0.232497 0.081095 -0.120718 0.520718 -0.368957 0.097670 -0.469396 -0.232161 -0.119169 -0.145231 0.511518 -0.458966 0.142473 -0.397799 -0.168269 0.305309 0.019495 -0.045100 -0.279202 0.172895 -0.735806 -0.144272 -0.178785 -0.094473 -0.191720 -0.190513 -0.374833 -0.317902 -0.264145 -0.296538 0.193225 -0.366974 0.213937 -0.296727 -0.298405 0.736603 0.124427 -0.455610 0.047237 0.531695 0.328815 0.721593 0.050951 -0.311870 0.125725 -0.039362 -0.255387 -0.083539 0.780535 0.412744 -0.118768 0.586396 -0.564882 -0.283264 0.339039 0.364873 -0.464550 -0.440800 -0.344251 0.235651 0.375620 0.113286 -0.689611 0.557553 -0.034409 -0.026199
badimo -0.465548 0.028011 0.135555 -0.352700 -0.117918 1.229236 0.000238 -0.550321 0.076504 0.265545 -0.309027 0.409109 0.344350 -0.359088 0.793494 0.096483 -0.350076 -0.051566 -0.328307 -0.478980 0.119542 0.153328 0.015491 -0.232299 0.101072 -0.054700 0.122842 0.349425 0.128738 0.176018 -0.357710 -0.455344 -0.079041 -0.545873 0.082615 0.136574 -0.098151 0.366416 -0.385544 0.136656 -0.235016 0.398228 0.650753 -0.625247 0.754505 -0.169252 -0.078293 -0.024658 0.031923 0.135590 0.015991 -0.301511 -0.446864 -0.057847 -0.248688 -0.359644 -0.489354 0.098364 0.035290 0.023705 -0.405515 -0.476006 -0.097289 0.290800 0.102088 -0.218051 0.033559 0.048773 -0.216608 0.787646 -0.323594 -0.097649 0.173037 -0.023112 0.256929 0.694432 0.194594 -0.128017 -0.151371 0.335195 -0.186080 -0.060089 0.894786 0.172125 0.182531 0.031960 -0.734898 -0.251802 0.199055 0.583827 -0.140047 -0.019053 0.018379 0.386440 0.381587 -0.507169 -0.693940 0.171938 -0.276960 0.183071
badiradibe -0.238191 0.030918 0.426186 -0.433666 -0.210488 0.699084 0.024995 -0.105270 0.699912 0.203628 -0.918501 0.392689 -0.414903 -0.149883 0.506703 -0.363367 -0.233855 0.100884 0.217218 -0.122587 -0.348511 -0.041433 -0.156673 0.077471 0.039017 -0.057874 -0.042397 0.293813 0.391971 -0.175801 -0.665229 -0.332376 -0.187008 -0.104945 0.021192 -0.064290 0.045470 0.276978 -0.259907 0.333269 -0.167126 0.300083 0.679793 -0.424144 0.664835 -0.248213 0.231204 0.181223 -0.027924 0.217495 0.158021 -0.348902 -0.027433 0.094433 -0.418426 0.051809 -0.308521 0.090397 -0.035622 0.056982 -0.229148 -0.039152 0.041116 0.136240 0.042906 -0.449627 0.223323 0.084376 -0.487822 0.274888 -0.114639 0.125533 0.254480 0.024525 0.474733 0.612131 0.016453 -0.141740 0.010428 -0.097156 -0.226491 -0.205527 0.721155 0.021675 -0.038363 -0.038602 -0.569889 0.097088 0.061513 0.348337 -0.283795 0.064600 -0.426500 0.244053 0.479800 -0.441199 -0.484743 0.465039 -0.168846 -0.147154
badiredi -0.238382 -0.002903 0.307542 0.057698 0.787800 0.809771 0.114835 0.284680 0.749218 0.488220 -1.015010 0.545474 -0.639412 -0.165488 0.690878 0.239627 -0.463305 -0.375948 -0.079728 -0.146353 0.490482 0.258319 -0.354480 -0.204662 -0.055098 -0.273088 0.245404 0.058682 0.227906 -0.267011 -0.383400 -0.162603 0.026035 -0.157464 0.187045 0.065135 -0.112961 0.359817 -0.415804 0.217367 0.166666 0.324898 -0.095606 -0.174654 0.669732 0.040735 0.002469 -0.000322 -0.026088 0.126239 0.114448 0.328679 0.105303 0.462724 -0.531633 -0.152498 -0.739821 -0.214072 -0.762146 -0.380869 0.045858 -0.362995 -0.019614 -0.566310 0.188942 0.022349 0.490255 -0.014351 -0.742095 0.696368 0.119741 -0.641503 0.045428 0.109420 0.357753 0.347824 -0.400175 -0.931181 -0.084178 0.059905 -0.653184 0.018450 0.752622 -0.028969 -0.635052 -0.353629 -0.526540 0.363349 0.042130 0.327240 -0.154151 -0.645735 -0.175470 0.435726 0.540434 0.458824 -0.304924 0.114625 0.250228 -0.102437
badiri -0.216705 0.187069 0.207431 0.343423 0.193647 0.364436 -0.187002 0.525265 0.427162 0.144897 -0.827839 0.564298 -0.075759 0.273575 0.033301 0.118397 -0.281558 -0.009593 0.108853 -0.608729 0.169875 0.034085 -0.315118 -0.399325 0.341727 -0.426759 0.236629 0.063046 0.645253 -0.203780 -0.272861 -0.702177 -0.069775 -0.135920 -0.039566 -0.071400 -0.323605 0.453272 -0.042081 -0.053078 -0.100281 0.138110 0.146970 -0.628003 0.326230 -0.355091 -0.219107 0.244197 0.007604 0.683785 -0.033405 0.059484 -0.347416 0.169609 -0.669316 -0.302775 -0.314197 0.060879 -0.263379 0.149190 -0.043370 0.056081 -0.075759 -0.143812 0.186636 0.224437 0.333823 0.056393 -0.615880 0.643037 0.105277 -0.512742 0.377999 0.141919 0.570892 0.168186 -0.296750 -0.660503 0.313208 0.049128 -0.683147 0.304470 0.590421 0.203366 -0.628201 -0.086487 -0.290727 -0.083822 -0.550284 0.076136 0.172694 -0.483176 -0.135771 0.173865 0.530179 0.210941 -0.430629 0.035702 -0.129005 -0.186214
badirisi -0.436296 -0.158054 0.541233 0.450294 0.404767 0.621029 -0.229425 0.568661 0.446357 0.451274 -0.837839 0.456632 -0.256351 0.142291 0.286064 0.270611 -0.279091 -0.070461 0.104193 -0.660782 0.046312 -0.066277 -0.122778 -0.482578 0.416822 -0.633786 0.438114 -0.014846 0.662131 -0.208946 -0.430973 -0.335892 -0.356953 0.112791 -0.001902 -0.041186 -0.394720 0.717259 -0.151881 0.061094 -0.041234 0.183716 0.020356 0.002538 0.289775 -0.177510 0.154938 -0.056178 -0.110676 0.411321 -0.149298 0.279234 -0.445071 0.208464 -0.932104 -0.209307 -0.344810 0.246872 0.151039 -0.100103 0.406752 0.364340 0.005665 -0.140282 -0.049265 0.297765 0.138347 -0.020375 -0.458898 0.847849 0.181132 -0.241374 -0.160938 -0.294583 0.116744 0.038167 -0.312701 -0.625463 -0.121394 -0.187955 -0.725197 0.352237 0.382196 0.117906 -0.231274 -0.373628 -0.006413 -0.017546 -0.424023 0.077328 0.445423 -0.740396 0.162868 0.132504 0.521394 0.357142 -0.211649 -0.462314 -0.005866 -0.061633
badisi -0.388825 -0.263277 0.122148 -0.815267 -0.320526 0.551419 -0.258764 -0.243558 0.169956 0.412378 -0.761082 1.261524 -0.569609 0.043475 0.162385 -0.105575 0.381516 0.322355 -0.538682 -0.091838 0.150357 0.247419 0.748233 -0.171819 0.789338 -0.101518 0.442288 -0.020469 0.114873 0.416722 -0.960596 -0.963329 -0.056720 -0.784717 0.626931 -0.581261 -0.575647 0.585109 -0.545122 1.174387 0.018469 0.246776 0.459440 -0.159693 1.026714 -0.454760 0.114035 -0.010490 -0.518222 0.561784 -0.077849 -0.201224 -0.182909 -0.313978 -0.664824 0.544530 -0.159618 0.249310 -0.487840 -0.377361 0.332633 0.410232 0.807369 0.772917 -0.229948 -0.422099 0.331793 0.390566 -0.725497 0.600367 0.089941 -0.214918 0.326234 0.347392 0.559507 0.940276 0.264743 -0.363170 -0.192424 -0.780966 -0.017274 -0.535894 0.956480 0.050270 -0.144798 0.151000 -0.298111 -0.351802 -0.456079 0.729783 0.180269 -0.682031 -0.323163 0.122863 0.137926 0.007599 -0.494307 0.281466 -0.263190 -0.387742
baditi -0.166794 0.176465 0.391332 -0.323797 -0.306278 0.664991 0.265550 0.076887 0.440407 0.055535 -0.549888 0.542455 -0.230650 -0.157292 0.257383 -0.251084 -0.256920 0.011560 0.099258 -0.136006 -0.069036 0.486623 0.168824 -0.299328 0.560672 -0.057920 -0.219272 0.554221 0.031092 0.078543 -0.698809 -0.422182 -0.173478 -0.357987 -0.006854 -0.381041 -0.198777 0.367660 -0.076505 0.282905 -0.191382 0.545723 -0.029220 -0.490502 0.633462 -0.467405 -0.134267 -0.196635 0.016945 0.157931 -0.049650 -0.275516 -0.065501 0.062456 -0.457363 -0.406152 -0.182568 0.054151 -0.237802 0.235860 0.060911 0.023474 0.029444 0.217712 0.061142 -0.468648 0.251412 0.451785 -0.454547 0.417448 -0.151259 -0.347297 0.400854 -0.185834 0.441860 0.454173 0.025861 -0.477582 -0.048835 0.019809 -0.782756 -0.210658 0.985369 -0.011908 -0.123232 -0.041384 -0.161791 -0.482430 -0.347633 0.586062 -0.019498 -0.412602 0.156095 0.190151 0.376560 -0.075634 -0.864080 0.354462 -0.364679 -0.419315
badudi -0.308323 0.192741 0.157649 -0.177738 -0.361791 1.133209 -0.063011 0.436116 0.829365 -0.224938 -0.926435 0.197051 0.127451 -0.065669 0.697928 0.181340 -0.444588 0.231298 0.604930 -0.141744 -0.249928 0.053803 0.567768 -0.479270 -0.119578 -0.540786 0.362115 0.171710 -0.213192 0.049059 -0.395007 -0.008429 0.046940 0.004501 0.020580 0.371972 -0.156797 0.112080 0.139079 0.260747 0.073226 -0.208822 -0.350039 -0.624071 0.431389 0.013150 -0.312686 -0.212490 -0.034932 0.389439 -0.261160 -1.026760 -0.790231 0.078761 -1.006856 -0.535320 0.066705 0.218364 0.493142 -0.531445 0.005493 0.322014 0.545357 0.137624 -0.429162 -0.143027 -0.161795 0.082049 -0.190117 0.487677 -0.240471 -0.531123 -0.322866 -0.041080 0.106878 0.503310 -0.160979 0.313655 -0.283601 -0.046781 -0.637464 0.179070 0.299666 0.458333 -0.304204 -0.203091 -0.224370 -0.263533 0.186634 0.390789 0.207123 -0.352673 -0.104720 0.243703 0.446105 0.726956 -0.308577 0.270459 -0.237194 0.017235
badumedi -0.125047 0.307955 0.171605 -0.806259 0.353180 1.523762 -0.153573 -0.113900 0.432856 0.083381 -0.260229 0.253263 -0.337405 -0.209249 0.264112 0.043655 -0.436521 0.443993 0.148364 -0.119871 -0.193765 0.279655 0.064601 -0.566473 0.150088 0.023323 0.092185 0.398633 0.309730 0.223733 -0.441388 -0.074810 -0.311078 -0.554136 -0.025398 0.289700 0.264716 -0.042754 -0.388557 0.346718 -0.116313 0.124063 0.280001 -0.494341 0.619409 -0.189576 -0.093489 -0.061846 -0.051430 0.643755 -0.211517 -0.397041 -0.308703 0.139122 -0.328399 0.001527 -0.064068 -0.104435 -0.194882 0.205317 -0.175294 -0.286077 -0.293419 0.159266 -0.328745 -0.205340 -0.093973 0.174224 -0.469816 -0.086919 -0.062997 0.151280 0.102173 0.210173 0.457573 0.436347 0.238863 -0.014261 -0.320665 -0.130890 -0.099256 0.142175 0.818291 0.204856 -0.132592 -0.091212 -0.059210 0.213006 -0.031702 0.155998 0.115825 0.459126 -0.005057 0.569452 0.759379 0.231709 -0.684944 0.453134 -0.984938 0.084489
baemedi 0.282122 0.112835 0.234815 -0.223723 0.181363 1.085221 -0.108193 0.227849 0.379112 0.499737 -0.686244 0.287267 -0.990817 0.152819 0.335291 0.227788 -0.488091 -0.136108 0.174461 -0.328799 -0.398051 0.415523 0.089395 -0.102098 0.415395 -0.375013 -0.139349 0.141948 -0.470311 -0.072120 -0.306711 0.301838 -0.291503 0.123266 0.115927 0.010722 -0.310744 0.052024 -0.097007 -0.085391 0.325629 0.279436 -0.026189 -0.399369 0.530677 0.654924 0.127517 -0.219896 -0.500778 0.489753 0.399928 -0.473710 -0.155604 0.836529 -0.555508 -0.092395 -0.114296 -0.287731 -0.153484 0.085236 0.347082 -0.184133 0.022686 0.529512 -0.699594 0.101457 0.682469 0.112361 -0.315589 0.174924 0.441453 -0.128630 -0.413852 0.228246 -0.225752 0.065574 0.303355 -0.105179 -0.080552 0.011888 -0.443609 -0.126743 1.132030 0.375891 -0.687334 -0.183387 -0.031182 0.375020 -0.012725 -0.208996 0.122582 -0.201633 -0.139714 0.200589 0.530930 0.436288 -0.315204 -0.094652 -0.221352 -0.080374
baeng 0.216963 0.241856 0.366764 -0.260810 -0.449916 0.923590 -0.454795 0.560620 0.364425 -0.181674 -1.210277 0.138129 -0.820232 -0.224692 0.372649 0.327371 -0.519322 0.186213 0.270804 -0.140744 -0.199042 0.633011 0.428493 -0.482459 0.378801 -0.589752 0.628882 -0.247742 -0.065051 -0.135539 -0.569675 0.470487 -0.236397 -0.528648 -0.008501 -0.467077 -0.108536 -0.226967 -0.035958 -0.308336 0.091858 -0.499922 -0.421704 -0.627928 0.197544 0.011409 0.712695 0.124508 -0.748547 0.514415 -0.161924 -0.342973 -0.873545 -0.068177 -0.521441 0.027335 -0.074759 0.527934 0.131752 0.013108 -0.012293 0.078861 -0.062628 0.626727 0.062231 0.254728 0.559692 0.441685 -0.309646 0.265913 0.347572 -0.112651 0.330976 -0.216466 0.137491 0.468212 0.109717 -0.219231 -0.539495 0.668229 -0.635249 -0.237941 0.522897 -0.023979 0.035071 0.017912 -0.294398 0.120723 -0.111416 -0.138106 -0.163165 -0.156580 0.160331 -0.040440 -0.063418 -0.456416 -0.443072 0.363345 -0.435310 -0.302444
baetapele 0.020970 0.529082 0.269439 -0.167704 0.380966 1.301196 -0.009001 0.174575 0.636320 0.186792 -1.036511 -0.139738 -0.020276 -0.741135 0.190251 -0.192416 -0.579268 0.186261 -0.142089 -0.477631 -0.153746 0.420030 -0.026207 0.142846 0.058792 -0.615082 -0.246518 0.335534 -0.143713 -0.204090 0.010041 -0.002930 -0.169546 -0.579071 0.001642 0.160538 0.186437 -0.291676 0.127218 -0.047762 0.324003 -0.034605 -0.093383 -0.082437 0.512906 0.368850 0.044285 -0.331054 0.018903 0.343731 0.398925 -0.009828 0.186401 0.567518 -0.288721 0.127810 -0.017035 -0.093738 0.264609 0.260246 -0.007101 -0.074043 0.402191 -0.228909 -0.226947 0.003980 0.310150 0.171464 -0.487094 0.545749 0.442727 -0.215213 0.095955 0.266227 0.211049 -0.140519 0.360042 0.015280 0.116169 0.309824 0.181623 -0.087759 0.556503 0.846247 -0.866239 -0.311115 -0.157305 0.031035 -0.050970 0.053548 -0.233832 0.260286 -0.107606 0.393640 -0.192676 -0.050735 -0.887134 0.257978 -0.677644 0.277610
baeti -0.540744 0.747240 0.144901 0.272521 0.182045 0.448929 -0.479815 0.696905 0.344941 -0.172230 -1.173508 0.158859 -0.422262 0.128040 0.107082 0.034430 -0.522941 0.338284 0.375000 0.113349 0.186162 0.433781 0.410769 -0.270127 0.430709 -1.102102 0.249945 0.020511 -0.079622 0.479744 -0.222685 0.757551 -0.308485 -0.213726 0.231870 -0.378542 0.124905 -0.056003 -0.264336 -0.480892 -0.055166 0.044082 -0.326698 -0.242072 -0.019648 0.634644 0.062873 0.345835 -0.658852 0.385249 0.141241 -0.234775 -0.407783 -0.039571 -0.853677 0.136728 -0.178877 -0.291551 0.436438 -0.129190 0.141374 0.175297 0.218579 0.352448 -0.100923 -0.136536 0.243717 0.110655 0.183357 1.028378 -0.196271 0.191124 0.388443 -0.046957 -0.219451 0.258849 0.290179 0.325120 -0.674683 0.633104 -0.428652 -0.035057 0.814522 0.488540 -0.484574 0.141533 -0.109622 -0.003222 -0.082903 0.280020 0.075899 -0.152754 0.271004 0.405096 0.288695 -0.069797 -0.635977 -0.082680 -0.443341 -0.156819
bafelegtsi -0.076173 0.074083 0.181936 -0.242224 -0.087061 0.677653 0.069916 -0.160319 0.187094 -0.421531 -0.755100 0.100125 -0.087515 0.222202 0.492394 -0.073091 -0.234047 -0.141553 0.038531 -0.042543 0.155517 0.393087 0.131516 -0.354127 0.205356 -0.266388 0.171529 -0.027839 0.097755 0.311366 -0.273689 -0.125915 -0.160046 -0.006682 0.373011 0.304325 -0.063333 0.126600 -0.044587 0.026037 -0.011931 -0.124652 -0.076418 -0.580956 0.211007 0.085639 0.213875 0.031798 -0.287987 0.072336 -0.030524 0.072179 0.009550 -0.069951 -0.378743 -0.179077 -0.059278 -0.100254 0.260101 0.033484 0.076752 -0.180105 -0.115831 -0.099315 0.047040 0.153532 0.253707 0.167375 -0.328054 0.599224 0.059958 -0.097382 -0.041997 0.064125 0.019463 0.343977 0.270398 0.074015 0.170422 -0.105298 -0.362856 0.091226 0.540256 0.412597 -0.298277 -0.009978 -0.103023 0.211727 0.364160 0.199076 -0.068783 -0.154876 -0.273557 0.120635 0.254569 -0.240719 -0.184552 -0.002559 -0.099370 -0.020507
bafeti -0.067976 0.130599 0.200180 -0.097590 -0.143679 0.742221 0.019817 0.251656 0.373055 -0.012751 -0.708226 0.066314 -0.211585 0.125755 0.338725 -0.006336 -0.524327 -0.071670 -0.249299 0.382571 0.205053 0.552117 0.120427 -0.686620 0.571017 -0.565075 0.364463 0.005741 0.207821 0.635860 -0.296983 -0.105006 -0.251076 -0.293663 0.581998 0.064859 -0.111135 -0.017034 -0.101445 -0.451507 0.128367 -0.000054 -0.802059 -0.603118 0.082786 0.153435 0.017542 -0.011727 -0.293036 0.254482 0.166248 0.033415 -0.246114 -0.361718 -0.894917 0.195145 -0.216609 0.107919 0.355401 -0.167274 0.187921 0.157222 0.089407 0.138722 0.197428 0.253120 0.365232 0.182690 -0.007853 0.777960 0.093953 -0.310981 -0.000382 0.166804 -0.087838 0.301461 0.224950 0.088278 -0.196259 0.346267 -0.484197 0.297125 1.134658 0.608444 -0.651677 0.318705 -0.263156 0.466936 -0.048078 0.351964 0.426155 -0.373880 0.057331 0.272230 0.519469 -0.137677 -0.608357 0.048971 -0.296785 -0.110364
bafsa -0.059613 0.099633 0.193009 -0.339445 0.147950 0.764859 0.034578 -0.473231 0.502612 0.052663 -0.773150 -0.130761 -0.014000 0.590311 -0.034562 -0.344752 -0.518337 0.054141 -0.226851 0.167410 0.176820 0.303810 0.247968 -0.159565 0.349514 -0.469036 0.253316 -0.082305 0.506876 0.466494 -0.318845 -0.540675 -0.209864 -0.113528 -0.292016 0.272383 0.157186 -0.389797 -0.014338 -0.155815 -0.287800 -0.701035 -0.790156 -0.561958 0.259954 -0.268831 0.584762 0.136158 -0.576098 -0.019054 -0.021414 -0.064549 -0.087435 -0.328716 -0.628399 0.025467 -0.079006 -0.116350 0.433165 0.046840 -0.261711 -0.234188 -0.040295 -0.079894 0.302673 0.587017 0.380489 -0.167823 0.061400 0.709986 0.232651 -0.491959 -0.347058 -0.119627 0.106960 0.120856 0.282533 -0.453445 0.330338 -0.251038 -0.311639 0.097209 0.723454 0.507160 -0.530658 0.411398 -0.183027 0.449474 0.030740 0.026547 0.491402 -0.026894 -0.422076 0.205601 0.154873 -0.030035 -0.387985 0.533940 0.266433 -0.223615
bagale -0.325446 0.270522 0.522907 -0.380288 -0.455478 1.472751 -0.174285 0.076971 0.646100 -0.450533 -0.806121 0.774747 0.406226 0.383291 0.397519 -0.218488 -0.389267 0.061209 0.257829 -0.116886 -0.143692 0.046257 0.179896 -0.053756 0.397109 -0.015448 0.170264 0.388989 0.129850 -0.057043 -0.271398 -0.217896 -0.229182 -0.233102 0.092445 0.064173 0.028703 -0.284602 -0.139509 0.690624 0.200057 -0.281471 0.150723 -0.681846 0.577456 0.242972 0.097169 -0.064138 -0.267801 0.462068 0.068864 0.086205 -0.190657 0.052340 -0.753014 -0.279235 -0.130167 0.310626 0.066725 0.274595 -0.570333 -0.524594 -0.096024 0.015871 0.006492 -0.026143 0.408810 0.241868 0.310784 0.219904 0.241702 -0.367061 0.152266 -0.121616 0.356304 -0.065436 0.731564 -0.056510 -0.212892 -0.196345 -0.136973 -0.217418 0.281982 0.498064 -0.121788 -0.194022 -0.118152 0.474699 0.143540 0.323688 -0.326099 0.078089 -0.309834 0.515587 0.392607 0.024229 -0.477613 0.357660 -0.198888 -0.119815
bagolo -0.172686 -0.208288 0.053411 -0.104379 -0.076904 0.907031 -0.102403 -0.028089 -0.127341 0.046053 -1.102431 0.958278 0.011772 -0.204254 0.841171 -0.013540 -0.260912 -0.085806 -0.080227 -0.168132 -0.121710 0.619881 -0.151906 -0.457588 0.425134 -0.142392 0.305351 0.012158 -0.029499 0.459276 -0.617272 -0.477500 -0.156335 -0.061480 0.293897 0.034775 -0.276277 -0.053727 -0.133241 -0.081975 -0.214717 -0.148582 -0.390059 -0.797152 0.007025 -0.106522 0.415507 -0.236180 -0.132863 0.310270 0.215347 0.004521 0.223786 0.346711 -0.408367 -0.151311 -0.116927 -0.407265 -0.035586 0.119463 -0.434839 -0.354536 -0.012193 0.056519 -0.042261 -0.003205 0.427253 -0.237361 -0.043908 0.656417 0.631669 -0.853890 0.364480 -0.394801 0.417425 0.037048 0.004535 -0.055757 0.039191 -0.008247 -0.224836 0.420765 0.345674 0.776929 -0.392143 -0.027859 -0.376725 0.565237 0.218935 -0.243688 -0.082849 -0.099054 -0.087284 0.534095 0.268834 -0.451876 -0.358779 0.364728 -0.362477 -0.253884
bagologolo -0.264614 -0.176746 0.117611 -0.283558 -0.083777 0.784764 -0.016819 0.189841 -0.163277 -0.070212 -0.863164 0.672449 -0.000014 -0.109736 0.211367 0.054369 -0.199638 0.026183 -0.121009 -0.207457 -0.272245 0.407960 -0.051357 -0.460727 0.386638 -0.087542 0.227331 -0.000877 0.005156 0.477825 -0.325695 -0.638029 0.118332 -0.065513 0.302666 0.047512 0.128762 -0.092328 -0.251860 -0.051867 -0.373009 -0.445923 -0.020333 -0.259618 0.328326 0.151457 0.303767 -0.407104 0.114920 0.251283 0.059169 -0.026681 0.125710 0.012904 -0.366269 -0.187154 -0.277530 -0.034492 0.021384 0.310245 -0.635617 -0.159733 -0.288269 0.033132 0.016942 -0.269381 0.296142 -0.192238 0.135543 0.575825 0.432745 -0.370049 0.519923 0.035152 0.115784 0.266843 0.249403 -0.183747 0.090194 -0.027196 -0.244212 0.411956 0.296522 0.464880 -0.133732 -0.141493 -0.358975 0.355750 0.304585 0.010815 -0.166079 0.220856 0.110992 0.384707 0.244500 -0.443395 -0.308852 0.069681 -0.086205 -0.141862
bagwera -0.141250 0.148153 0.174983 -0.432905 0.027454 1.095344 -0.156483 0.339069 0.375591 -0.291017 -0.982323 0.537615 -0.499915 0.240428 0.530045 0.075830 -0.231783 0.044876 0.002915 0.093156 -0.469671 0.231958 0.053404 -0.182756 0.376013 0.179958 0.398017 -0.045146 0.471684 -0.129852 -0.609231 -0.324190 -0.060274 0.234895 0.303156 0.367806 0.125195 0.158171 0.092831 -0.051706 -0.212917 0.125158 0.066063 -0.108614 0.046244 -0.074904 0.416259 -0.024103 -0.618452 0.208693 -0.007148 -0.717205 0.013006 0.011385 -0.300256 -0.068890 0.014790 0.008477 -0.023565 0.266662 -0.131624 -0.469055 -0.164526 -0.009997 0.123108 -0.113001 0.024968 -0.391769 -0.292770 0.338813 0.354697 0.100822 0.192500 -0.024413 -0.267468 -0.099163 0.415397 -0.438060 -0.345489 -0.077590 -0.446405 -0.589153 0.708533 0.393802 -0.301072 0.080208 -0.498684 0.113381 0.093917 -0.085379 0.083767 0.240903 -0.624181 0.111911 0.073615 -0.191024 -0.468897 0.515128 -0.495628 -0.432798
bahlabani 0.082579 0.270065 0.391625 0.243190 -0.001277 0.910573 -0.571160 0.170404 0.584540 0.140655 -1.023198 0.554967 -0.010949 -0.534208 0.532282 0.272711 -0.326408 0.119991 0.812249 -0.028588 0.038339 0.232842 0.361030 -0.595969 -0.000635 -0.237210 -0.033222 0.592066 0.276344 0.033345 -0.275130 -0.429353 -0.227791 -0.041730 -0.301845 -0.156807 0.340876 -0.308312 -0.241699 -0.169428 0.091764 0.298065 -0.057228 -0.320914 0.276336 0.349429 0.359800 0.054996 -0.361304 0.398699 -0.213768 -0.537176 -0.169913 -0.570161 -0.501844 -0.180036 0.632202 0.010853 0.617042 -0.315355 -0.144807 -0.081048 -0.439429 0.096453 -0.389575 -0.257035 0.363094 0.183394 -0.163065 0.528611 0.230547 -0.146601 0.293599 -0.066037 0.324529 0.269509 0.124370 0.142745 0.335135 0.063772 0.491836 0.817118 0.197175 0.325764 0.001681 0.078172 -0.284240 0.235577 -0.048707 -0.217714 -0.048310 0.351029 -0.293144 0.257606 0.334820 -0.398527 -0.701417 0.917232 -0.476411 0.069147
bahlahlobi -0.068941 0.400345 0.037117 -0.565421 0.222454 0.972856 -0.427840 0.174185 0.327617 -0.061206 -1.050868 0.508379 -0.850669 0.098830 0.602373 -0.324914 0.071081 -0.045094 -0.049506 0.106459 0.732155 0.832722 0.212433 -0.413953 0.225427 -0.126575 -0.052569 -0.060046 -0.162843 0.168588 -0.192589 0.122417 -0.430427 0.036613 -0.180525 0.227360 -0.165579 -0.261431 -0.510625 -0.432084 0.183445 0.386006 -0.157725 -0.358181 0.281602 0.743044 0.254770 -0.268649 -0.594830 -0.043216 0.019959 -0.128909 0.169241 -0.260632 -0.757091 -0.353376 -0.061050 -0.128581 -0.219035 -0.319873 0.578297 0.041402 0.261972 0.024251 -0.494364 0.589541 0.782065 0.386938 -0.489216 0.628219 -0.262591 -0.109891 -0.162578 0.125455 0.239713 0.104210 0.033865 0.147241 0.348735 0.232822 -0.047313 0.298372 0.709593 -0.148625 -0.344742 -0.112253 -0.186781 0.095795 -0.949186 -0.112396 0.588774 0.149806 -0.051406 -0.190084 0.275650 0.383710 -0.746805 0.026859 0.394063 -0.328256
bahlakodi -0.146854 0.065985 0.601990 -0.068308 0.045505 0.568747 -0.247384 0.428591 0.789665 0.043529 -1.091810 0.283740 -0.630455 -0.243803 0.316591 -0.329506 0.272848 -0.266107 0.327003 0.232005 0.185814 0.354198 0.424400 -0.354477 0.058829 -0.394869 -0.418386 0.333689 0.545911 0.053498 -0.500709 -0.087233 0.103695 0.412709 -0.042171 -0.098494 -0.019262 -0.259551 -0.477430 -0.135840 -0.060508 0.034765 -0.361721 -0.395916 0.344676 0.698496 0.435413 -0.095516 -0.427581 0.075411 0.210982 -0.587261 0.008065 -0.098846 -0.842618 -0.383125 0.388194 0.121637 0.447973 -0.176468 -0.050566 -0.174153 0.048366 -0.278828 -0.891973 -0.221923 0.682265 0.266702 -0.422221 0.367994 0.306148 -0.129029 -0.233677 0.036856 1.015520 0.192378 -0.251009 0.166325 0.456949 0.173152 0.046362 0.386669 0.440486 -0.132753 -0.023384 0.094811 -0.551774 0.174383 0.372461 -0.226280 0.301331 0.090867 0.073720 0.078635 0.027709 -0.117637 -0.720395 0.569097 -0.289258 -0.101471
bahlanka -0.200853 0.366923 0.584755 -0.014162 -0.218411 1.090286 -0.358667 0.104492 0.170465 0.118650 -1.184923 0.699247 -0.330876 -0.465274 0.857547 -0.334813 0.078144 0.023481 0.558218 0.066569 -0.279091 0.288072 0.257661 -0.600810 0.224920 -0.265485 -0.122253 0.030675 0.520239 0.187574 -0.218723 -0.259747 -0.078881 -0.072873 0.026891 0.189753 -0.088816 -0.154787 -0.640007 -0.048038 -0.170545 -0.042165 -0.012632 -0.534642 0.262517 0.520661 0.376627 -0.144819 -0.389750 -0.093607 0.392430 -0.340238 0.213135 -0.101978 -0.790804 -0.315471 0.364780 0.027368 0.371385 -0.162969 -0.092062 0.046454 -0.043209 0.092910 -0.755001 -0.474242 0.552216 0.206324 -0.517458 0.486914 0.259613 -0.006114 0.223684 -0.044855 0.725274 0.199358 0.071773 -0.163113 0.161363 -0.065862 -0.005001 0.326380 0.537583 -0.569129 0.083459 0.169261 -0.624239 0.109930 0.002062 0.186366 0.451685 0.685439 -0.059416 0.533410 0.356242 -0.544847 -0.251177 0.638838 -0.357318 -0.060983
bahlankedi 0.152714 0.195037 0.256294 0.422383 0.067674 1.173369 -0.027033 0.254162 0.643585 0.169946 -1.360308 0.471343 -0.688113 -0.310265 0.836678 -0.108268 -0.231370 -0.374729 0.095505 0.130618 0.285783 0.731697 0.286361 -0.470788 0.294706 -0.223506 -0.274209 0.249847 -0.076429 -0.018191 0.009511 0.248715 -0.324668 -0.121672 -0.158656 0.125600 -0.439843 0.046896 -0.322653 -0.294358 0.540026 -0.006649 -0.578276 -0.349062 0.013765 0.432067 -0.140597 -0.302404 -0.301545 -0.005297 0.275614 -0.123153 0.270272 0.112489 -1.059670 0.152084 0.024700 -0.082852 -0.165384 -0.184194 0.179678 0.172181 0.253393 0.089758 -1.030514 0.219678 0.678821 0.166596 -0.610050 0.413079 0.109521 -0.135415 -0.205368 -0.274433 0.562035 0.575551 -0.337053 -0.371943 0.015224 -0.133590 -0.095134 -0.056019 0.328317 0.004300 -0.585480 0.189392 -0.010169 0.118772 0.020735 0.165797 0.479937 0.266723 0.561227 0.189504 0.260803 0.170405 -0.243460 0.164168 -0.076974 -0.159941
bahlapetsi -0.005740 0.404439 0.282779 0.148206 0.497624 0.691456 -0.589332 0.504408 0.500927 0.048108 -1.437260 0.314352 -0.621153 -0.120680 0.548951 -0.514407 -0.078642 0.026437 -0.044158 0.192832 0.558291 0.094627 0.085863 -0.203824 0.078476 -0.092725 -0.024630 -0.026686 0.288466 -0.150386 -0.162782 -0.097618 -0.106186 -0.075372 -0.197806 0.038947 -0.364212 0.010320 -0.711367 0.304143 0.084492 -0.082984 -0.000027 -0.277850 0.414021 0.581390 0.241791 -0.234356 -0.591446 0.292886 0.218202 -0.378367 0.156282 -0.040634 -0.686888 -0.336013 0.291777 -0.038043 0.137517 -0.006699 0.315766 -0.372495 -0.071242 -0.347695 -0.670793 -0.080151 0.692932 -0.100090 -0.706690 0.208737 0.106762 0.026662 0.038612 0.112439 0.375478 -0.029746 -0.424836 -0.123179 0.403577 0.411879 0.026217 0.172863 0.296006 -0.088622 -0.041344 -0.098103 -0.396821 0.529864 -0.160688 -0.119898 0.179226 -0.000267 -0.095433 0.357554 -0.148651 -0.156206 -0.654713 0.257777 0.246314 -0.363414
bahloki -0.495100 0.677243 0.335349 -0.195669 -0.042258 1.000253 0.086926 0.443409 -0.241021 0.130233 -0.678390 0.228280 -0.049248 0.466855 0.447093 -0.303788 0.417819 -0.124671 0.258902 0.247091 0.372175 1.043912 0.522891 -0.624753 0.041894 -0.590565 0.052138 0.159696 0.457689 0.722883 -0.752328 -0.361609 0.003307 -0.071132 0.395663 0.018931 0.151643 0.479630 -0.227189 -0.563623 0.025654 -0.678972 -0.703306 -0.484543 0.164661 0.122840 -0.062654 -0.168566 -0.066611 0.229403 0.487462 -0.110026 -0.164926 0.073907 -0.993057 -0.591522 -0.330190 0.134527 -0.088595 -0.087111 -0.330542 0.121002 -0.302547 -0.278780 -0.110298 -0.057781 0.382109 -0.070895 0.207476 0.694017 0.039320 -0.379973 -0.383925 0.078447 0.192006 0.060140 -0.043828 -0.001561 0.112884 0.482210 -0.368232 0.157055 0.816906 0.163285 -0.187050 -0.089144 -0.100315 -0.058905 -0.250622 -0.329027 0.014993 -0.317825 0.069395 0.534036 0.443553 0.149200 -0.433093 0.603182 0.061854 -0.033803
bahu -0.554178 0.252156 0.406364 -0.480306 0.248632 0.851526 -0.219279 -0.013219 0.265659 0.049682 -0.690263 0.463899 0.085075 -0.422136 0.543208 -0.719269 0.336412 0.047550 0.126593 -0.517596 -0.281390 0.547785 0.336456 -0.490855 0.376234 -0.112065 -0.216833 0.577986 0.281369 0.128168 -0.383820 -0.025593 -0.247954 -0.247555 0.174272 -0.397720 -0.023430 -0.037117 -0.184215 -0.078436 -0.307028 -0.156835 -0.046339 -0.497715 0.415779 -0.078080 0.091848 0.360334 0.031026 -0.004938 0.059798 -0.229578 0.118589 -0.333788 -0.494403 -0.396990 -0.129710 -0.174066 0.278317 -0.095039 0.200295 0.495974 -0.303131 0.071645 -0.137795 -0.392293 0.150645 0.140902 -0.233444 0.237490 0.281262 0.040800 -0.114990 0.323977 0.723056 0.334613 -0.070338 -0.093597 0.180420 0.640664 0.036081 0.204411 0.909795 -0.005175 0.277200 -0.059022 -0.380186 0.228172 -0.409313 -0.114562 -0.317743 0.076234 -0.414159 0.121911 1.027652 -0.853493 -0.559402 0.113259 0.516977 0.036528
bahumi -0.573202 0.140187 0.491425 -0.157775 -0.049196 0.839640 -0.359192 0.414899 0.248133 0.273921 -0.561481 0.255033 0.381654 -0.106950 0.584189 -0.158678 0.018091 -0.128062 0.405568 -0.088626 -0.293253 0.684110 0.270944 -0.574674 -0.066181 -0.355485 0.276437 0.155854 0.309387 0.253367 -0.336739 -0.280158 -0.432041 -0.402411 0.425054 0.148497 0.378595 0.068771 -0.185847 -0.174518 -0.056019 -0.276967 -0.068014 -0.282919 0.245585 0.188145 0.014441 0.089660 -0.121992 0.715961 0.017399 -0.383255 -0.090132 -0.249737 -0.744900 -0.416377 -0.055301 0.092234 -0.063499 -0.058373 -0.360417 0.366628 -0.462219 0.043784 0.076777 -0.354176 0.327884 0.049511 -0.070439 0.384888 0.476369 0.040425 -0.003335 0.413981 0.490141 0.389434 0.035356 -0.061853 -0.003053 0.506303 -0.031752 0.158763 0.518426 0.218125 -0.244830 -0.021190 -0.123567 -0.073313 -0.049110 0.033220 -0.306622 -0.019088 -0.073526 0.335372 0.395528 -0.217136 -0.543685 0.404880 -0.071904 -0.215508
bahung -0.344928 0.214018 0.603491 -0.689110 -0.273692 1.055524 -0.480891 -0.259295 0.390823 -0.310165 -0.488528 0.213423 -0.078087 -0.318339 0.177682 -0.352904 0.533661 -0.040229 0.233932 -0.262429 0.146628 0.488367 0.345722 -0.537461 0.669722 -0.027845 -0.250373 0.136636 0.507278 0.271686 -0.313180 0.030383 -0.087314 0.016429 0.239222 -0.305577 0.140928 0.047102 -0.006905 -0.075680 -0.400294 -0.273301 0.044172 -0.307128 0.638521 0.240758 -0.005229 0.370639 -0.127961 -0.022597 -0.019890 -0.604479 -0.309488 -0.463865 -0.556466 -0.385648 0.093831 0.182352 0.276278 -0.302234 -0.158101 0.039449 -0.357045 -0.009200 -0.101671 -0.432544 0.173146 0.137027 -0.256417 0.179500 0.071384 0.114726 -0.273988 0.226725 0.744473 0.526352 -0.187912 -0.211371 0.091604 0.234706 -0.191544 0.257871 0.723508 -0.128879 0.130066 -0.015181 -0.538516 0.085320 -0.395662 -0.155055 -0.539569 0.636698 -0.430789 0.154351 0.354001 -0.697669 -0.466875 0.696232 0.010631 0.050064
baisa -0.570995 -0.088151 0.590020 -0.219935 -0.213444 0.771093 -0.271612 0.211712 0.040856 0.145846 -1.208209 0.364231 -0.192518 0.253091 0.680431 -0.159192 -0.233615 -0.028820 0.373836 0.241208 -0.191781 0.200208 0.171369 -0.210575 0.647663 -0.308355 0.297386 -0.302208 0.334777 0.051436 -0.572882 -0.212882 -0.182974 0.202209 0.056536 -0.030017 -0.012847 -0.530023 -0.399043 0.018563 -0.442600 0.129484 0.056139 -0.407929 0.161773 0.027527 0.398890 0.098923 -0.371421 0.247593 -0.034084 -0.270479 -0.054866 -0.283554 -0.839136 -0.285317 -0.148116 -0.290139 0.087638 -0.371476 -0.115148 -0.247037 0.051571 0.227570 0.121398 -0.103464 0.125518 0.376260 -0.544058 0.856519 0.465873 -0.356694 -0.009329 -0.165675 0.406367 0.032168 0.411038 0.019716 0.148949 0.044876 -0.057851 -0.104391 0.539457 0.279575 0.154653 0.289733 -0.652820 0.247523 0.285526 0.104338 0.172768 -0.355266 -0.287044 -0.002778 -0.048881 -0.333506 -0.472717 0.373435 -0.084941 0.041033
baithuti 0.327785 0.354946 0.611004 -0.322812 0.618517 0.899323 -0.232641 0.498344 -0.145797 0.197472 -0.731060 0.057325 -0.003110 0.305289 -0.033152 -0.316017 -0.429326 0.153993 -0.363902 0.499416 0.151341 0.567900 0.360899 -0.410860 0.397718 -0.452039 0.071923 -0.334998 -0.096363 0.209622 -0.256173 0.550975 0.259083 0.198106 -0.418375 0.682590 0.165698 0.072177 0.421125 0.030891 -0.108520 -0.020694 -0.764027 0.422399 0.149069 -0.217614 0.515979 -0.137709 0.452648 -0.142941 0.164172 -0.205287 0.175742 -0.315790 -0.319666 -0.137758 -0.187353 -0.024310 -0.113543 -0.240937 0.050062 -0.157780 0.054185 0.378281 0.190479 0.468956 0.452747 0.455083 -0.462332 0.496211 -0.118009 -0.932980 -0.257731 0.091109 0.377542 -0.050809 0.327977 -0.039320 0.190087 -0.169497 -0.340285 0.107054 0.376820 0.409534 -0.117878 0.488897 -0.064671 1.104622 -0.829583 -0.270928 -0.010738 -0.594190 0.207389 0.308914 0.842270 -0.238500 -0.630217 -0.041222 -0.749909 0.019705
bajuda -0.519579 0.130868 0.321883 -0.438730 -0.235289 0.870181 -0.130645 -0.657734 0.085614 0.039308 -0.971782 0.334104 -0.289453 -0.262748 0.367097 -0.355632 -0.500181 0.110210 0.308459 -0.269401 -0.368515 0.111321 0.153995 -0.386128 0.294587 -0.033508 -0.445790 0.033234 0.146509 0.191817 -0.411447 0.029063 -0.050468 -0.146987 0.241932 0.199235 0.367993 -0.469449 -0.229771 0.360153 -0.363868 0.017674 0.315458 -0.394327 0.699536 -0.061130 0.306387 -0.129382 -0.038353 0.259433 -0.134071 -0.466838 0.167189 0.047583 -0.291151 -0.368804 -0.095207 0.059143 0.154943 -0.156859 -0.316635 -0.133030 0.087674 -0.190317 -0.057684 -0.374448 -0.066621 0.194752 -0.672798 0.506933 0.046515 0.360160 0.127574 0.136826 0.236361 0.365338 0.293686 0.162143 -0.132843 -0.046166 0.174959 0.703360 0.865213 0.266139 -0.024217 -0.172496 -0.197468 0.098757 0.047571 -0.139924 -0.030164 0.361420 -0.353319 0.478068 0.615335 -0.457750 -0.385388 0.403244 -0.346210 0.066070
bakeng -0.420169 -0.113733 0.625807 -0.058084 -0.448826 0.740751 -0.353533 0.182209 0.454070 -0.032210 -0.191729 -0.066376 -0.470055 -0.315937 0.658678 0.189480 -0.203873 -0.451249 -0.174063 0.002708 0.324029 0.307236 0.139689 -0.110945 0.702055 -0.269294 0.406580 -0.448459 0.669982 0.115799 -0.482229 -0.179450 -0.563497 -0.003022 0.118462 -0.654850 -0.137343 0.087648 0.114832 0.066628 0.092096 -0.142012 -0.232541 -0.440843 0.047952 -0.355162 0.085137 0.505091 -0.389787 0.663732 0.097934 -0.082413 -0.318231 -0.184178 -0.300343 -0.107784 -0.858269 -0.117554 -0.158569 0.089017 -0.267368 -0.068944 0.128513 -0.108076 -0.210080 0.008579 -0.221431 0.366183 -0.493510 -0.128129 0.013831 0.069851 -0.050628 -0.082026 -0.065933 0.741885 -0.111234 -0.235582 0.535374 -0.141052 -0.683852 0.109087 0.146729 0.356623 -0.173947 0.066636 0.170669 -0.130536 -0.254294 -0.203789 -0.485577 -0.367436 -0.055501 -0.329891 0.353862 -0.290237 0.167275 -0.043170 0.231505 0.165150
bakgalabje 0.016056 -0.324023 0.398196 -0.148347 -0.042993 0.971087 -0.170590 0.169516 -0.004782 -0.468672 -0.529558 -0.335775 -0.404532 -0.185886 -0.083031 0.025538 -0.464831 0.193701 -0.017335 0.068391 -0.325695 0.102465 0.256956 -0.427643 0.078419 0.046477 0.347814 -0.083840 0.632545 0.085225 -0.584985 -0.595415 -0.018453 -0.165352 0.160799 0.016485 0.183792 0.269509 -0.262407 0.078543 -0.316462 0.037882 0.079563 -0.385636 0.567241 0.222191 0.661001 -0.155828 -0.323142 -0.018762 0.177942 -0.000564 -0.277718 0.045367 -0.244515 -0.161434 0.036214 0.139397 -0.065147 -0.130444 0.033867 -0.101002 0.398053 0.525812 -0.361977 -0.383645 0.452488 0.176678 -0.836931 0.188985 -0.381121 -0.443305 0.592870 0.576633 0.718274 0.625240 0.385220 -0.131797 0.088487 -0.236510 0.145687 0.310765 0.548783 0.552939 -0.103470 -0.079409 -0.538176 -0.344417 0.163642 0.229322 0.475175 0.235827 -0.156368 0.187906 0.079853 -0.674244 -1.012890 0.214318 -0.175124 0.214263
bakgathatema 0.096687 0.305781 0.207535 -0.037629 0.196705 1.125110 -0.443711 0.383434 0.469621 0.258962 -0.603479 -0.354447 -0.592320 0.357760 0.258868 0.040213 -0.529127 0.187777 -0.503910 -0.604129 0.154221 0.454178 0.011013 -0.471105 0.378207 -0.403895 0.465880 -0.108510 0.356644 0.109340 -0.342252 -0.200490 -0.082749 0.204158 0.157141 0.358486 0.031921 0.160147 0.779571 -0.427468 0.249950 -0.334064 -0.081959 -0.731682 0.446183 0.462726 0.066616 -0.048782 -0.150238 0.480874 0.229256 0.028934 0.221852 0.391872 -0.321600 -0.176962 0.174981 -0.140690 0.071599 -0.001066 0.096153 -0.453330 0.288507 0.232506 -0.201782 0.262163 0.039274 0.117061 -0.132996 0.156646 -0.012194 -0.514120 0.089072 0.479534 0.540801 -0.083521 0.184763 -0.113098 0.318921 0.081903 -0.464936 0.003360 0.355127 0.536885 -0.968279 -0.235277 0.094796 0.058697 -0.095281 0.013037 0.129007 -0.521329 0.357087 0.091756 0.269469 0.074383 -0.507949 -0.112548 0.129980 -0.015024
bakgekolo -0.135599 -0.065206 0.316393 -0.419699 0.361277 0.634444 -0.210058 -0.152612 0.249137 -0.014106 -0.546543 -0.061974 -0.048133 0.185400 0.320452 -0.438712 0.028737 -0.014684 0.127693 0.135839 -0.118555 -0.002971 0.413483 -0.362223 0.206911 -0.279623 0.199514 -0.321410 0.434183 0.123476 -0.723021 -0.364364 -0.174035 -0.262547 -0.038321 0.264495 0.338618 0.259350 -0.273444 0.247675 -0.375619 0.065320 -0.190607 -0.210446 0.473204 0.067506 0.518110 -0.124393 0.080882 -0.149302 0.107719 -0.037664 -0.048380 -0.047349 -0.449452 -0.122038 0.026146 -0.053984 -0.265303 0.381885 -0.278520 -0.141247 0.039393 0.350222 -0.371437 -0.238247 0.194719 0.277591 -0.488515 0.362562 0.027094 -0.477014 0.109777 0.417585 0.547526 0.388695 0.329437 -0.066795 0.229343 -0.212595 -0.093051 0.121886 0.526715 0.173321 -0.079027 0.262982 -0.691538 0.103099 0.105756 -0.041409 0.312867 0.197450 -0.207444 0.409960 0.243111 -0.642338 -0.849218 0.229325 -0.196003 0.087366
bakgethwa -0.172340 -0.010832 0.261617 -0.490932 0.150713 1.044163 0.509056 -0.195247 0.147773 -0.010827 -0.268272 -0.039812 -0.435759 0.244543 0.204734 -0.340443 -0.613963 -0.071327 -0.229562 -0.140079 -0.194499 0.249472 0.377982 -0.078372 0.558011 -0.366493 0.240155 -0.365368 0.535090 0.449137 -0.749266 0.089949 -0.353768 -0.512088 0.067220 0.361254 0.010788 0.327675 -0.448519 0.065568 -0.023610 -0.031839 -0.378123 -0.820271 0.549283 0.055577 0.275660 -0.594759 -0.038590 0.072021 0.133102 -0.201613 -0.146923 -0.200910 -0.105620 -0.091351 0.088774 -0.388003 -0.275899 0.180722 -0.455532 0.273216 -0.163566 -0.148582 -0.930915 -0.108284 0.207791 0.445994 -0.493175 0.469625 0.335162 -0.295791 -0.232524 0.107873 0.114863 0.267321 0.139955 -0.238994 -0.248502 -0.225753 -0.243141 0.345358 0.521317 -0.133033 -0.145021 0.161399 -0.319671 0.125504 0.102392 -0.204372 -0.150070 0.123275 -0.219027 0.192480 0.533153 0.005749 -0.338317 0.148420 0.180974 0.232973
bakgoma -0.471581 -0.367554 0.125482 -0.472114 -0.071546 0.817024 -0.190421 -0.284248 0.135142 0.180703 -0.753621 0.137759 0.168217 -0.172916 0.267230 0.110888 -0.200506 -0.018900 -0.168079 -0.380626 0.015041 0.323479 0.201479 -0.659879 0.219365 -0.005613 0.468272 -0.373269 0.572744 0.371245 -0.797902 -0.533902 -0.357179 0.009668 0.032906 0.188940 0.071745 -0.418486 -0.596476 0.454153 -0.099081 0.467702 -0.170459 -0.641035 0.471641 -0.041104 0.272343 0.028614 -0.067084 0.015839 0.208220 -0.323801 -0.114361 -0.469226 -0.399350 0.047696 -0.228086 -0.079809 -0.478202 -0.114980 -0.543714 -0.297933 0.189835 0.465722 -0.327810 -0.135898 -0.186436 0.504234 -0.693417 0.705907 -0.092069 -0.467435 0.045222 0.191287 0.781888 0.298683 0.200445 -0.214283 0.302021 -0.530924 -0.097830 0.351938 0.628339 0.768359 0.036613 0.082452 -0.325849 0.067933 0.280433 0.271480 0.158727 0.486615 -0.205477 0.166211 0.065658 -0.526281 -0.453897 0.792919 -0.269410 0.439379
bakgomana -0.410500 -0.480858 0.115117 -0.470707 -0.133267 1.004166 -0.205694 -0.019889 0.095466 0.001870 -0.816455 0.084127 -0.073819 -0.232549 0.154033 -0.113392 -0.226606 -0.204039 0.009173 -0.407980 0.084689 0.484395 0.262058 -0.508756 0.313202 0.080276 0.227244 -0.075634 0.467616 0.289179 -0.716450 -0.344442 -0.292781 0.058916 0.065056 0.027153 0.122918 -0.217934 -0.490366 0.358579 -0.031057 0.595435 -0.140958 -0.346966 0.472758 -0.034336 0.278953 -0.105176 -0.180784 0.222872 0.083991 -0.135258 -0.153313 -0.388718 -0.476707 -0.075127 -0.132328 -0.137670 -0.265581 -0.017182 -0.434704 -0.132742 0.022713 0.511785 -0.173898 -0.191126 -0.218559 0.321310 -0.675465 0.403232 -0.352046 -0.512164 -0.068302 0.113066 0.544198 0.334133 0.161117 -0.215416 0.391213 -0.489269 -0.000919 0.326350 0.655122 0.704425 0.132419 0.063212 -0.373535 0.015318 0.327530 0.503685 0.162925 0.691729 -0.019157 0.086696 0.125385 -0.276179 -0.275225 0.536660 -0.326586 0.209083
bakgonyana -0.263618 -0.215460 0.408730 -0.511725 0.034972 0.743359 -0.272287 -0.030647 -0.004691 0.020843 -0.750866 -0.305037 -0.069190 0.044617 0.208146 -0.307150 0.092247 -0.274822 -0.155095 -0.102166 0.089807 0.493906 0.300968 -0.465684 0.397588 -0.280295 0.422783 -0.102144 0.219243 0.408116 -0.442363 0.033998 -0.178812 -0.114437 -0.111624 0.438068 0.276560 0.174645 -0.374384 0.154125 -0.032816 0.355523 -0.134618 -0.483609 0.272000 0.033213 0.523728 0.018794 -0.193305 0.049025 0.165023 -0.143994 -0.063345 -0.006062 -0.409140 -0.231065 0.291505 -0.259854 0.039126 -0.187601 -0.296933 -0.207658 0.327171 0.146695 -0.215759 -0.015072 0.216547 0.559596 -0.376327 0.543520 0.166545 -0.028519 0.077888 0.065277 0.083172 0.492630 0.125732 -0.004320 -0.001416 -0.198827 -0.137805 0.412102 0.328437 0.609078 0.110323 0.057272 -0.204880 -0.063335 0.449948 -0.033120 -0.011859 -0.035417 0.018508 0.223771 0.062283 -0.223348 -0.447166 0.356400 -0.006152 0.017342
bakgotse -0.000165 -0.197646 0.453493 -0.231598 -0.128319 1.073152 -0.219608 -0.096690 0.258659 0.058192 -1.019309 -0.068661 0.088069 -0.089471 0.600079 -0.195624 0.018563 0.049261 -0.013989 -0.067168 0.044957 0.458948 0.293493 -0.519200 0.066896 -0.338054 0.315847 -0.120721 -0.013094 0.488252 -0.342663 -0.313189 0.007171 0.190569 0.015282 0.320512 0.175729 -0.162439 -0.520878 0.356949 -0.076574 -0.204475 -0.187820 -0.781309 0.230119 0.061315 0.204329 -0.527675 -0.297135 0.071451 -0.148306 -0.194087 -0.055660 0.052695 -0.526210 0.032786 -0.005729 0.258573 -0.111576 -0.220823 -0.504962 -0.221722 0.344842 0.250978 0.013049 -0.077360 0.174665 0.436379 -0.543800 0.439522 -0.175503 -0.035973 -0.116584 0.342413 0.289532 0.140323 0.295305 -0.240047 -0.014369 -0.367030 -0.094710 0.109849 0.165844 0.310251 -0.292528 0.184207 -0.299293 0.037854 0.519862 0.222964 0.264547 0.042524 -0.366009 0.303804 -0.125649 -0.639497 -0.862367 0.403114 -0.023838 0.044482
bakriste -0.446032 0.383744 0.738680 -0.631800 -0.276306 0.913176 0.026440 -0.433750 0.748835 -0.025985 -0.523594 0.018839 -0.039887 -0.289958 0.348540 -0.264603 -0.585546 0.230322 -0.014385 -0.034602 -0.489157 0.063799 0.268794 -0.320539 0.309393 0.193328 -0.259574 -0.131873 0.935333 0.218542 -0.534215 -0.004022 -0.440363 -0.380015 0.174883 -0.169815 0.427403 -0.296450 0.260431 0.112904 -0.239320 -0.005422 0.114867 -0.634376 0.410833 -0.030323 0.176966 0.162577 -0.168241 0.112643 -0.232337 -0.117496 0.097639 -0.342779 -0.681389 -0.144486 -0.097166 0.290644 0.007029 -0.111780 -0.390887 -0.107142 -0.211370 -0.026053 -0.127071 -0.094101 -0.108015 0.400546 -0.575493 0.240659 0.046940 0.408655 -0.229425 -0.045186 0.625421 0.494114 0.458513 -0.061954 0.071706 -0.278147 -0.179142 0.330808 0.879218 -0.248775 -0.368268 -0.034694 -0.255778 0.196388 -0.364193 0.003077 -0.009299 0.363570 -0.118457 0.476817 0.999916 -0.046564 -0.096892 -0.026840 -0.251151 0.003862
balaodi 0.343714 0.398943 0.301362 0.362839 0.250765 0.761291 0.006971 0.365873 0.490916 0.064193 -1.185502 0.512325 -0.528968 -0.031050 0.486711 -0.206794 -0.165773 -0.025321 -0.073388 -0.621751 0.632347 0.136237 -0.054996 -0.786724 0.058837 -0.469313 -0.352744 -0.036003 0.071119 0.076688 -0.436919 -0.361748 -0.261370 -0.313086 0.456740 0.349318 -0.840719 0.274576 -0.272818 -0.031526 0.106309 0.040396 -0.391288 -0.953637 -0.044374 -0.232282 -0.053703 -0.558962 -0.151844 0.698503 0.168593 0.123829 -0.220923 -0.063773 -0.511564 0.177436 -0.194389 0.407984 -0.228794 0.144834 0.581403 -0.381753 0.250588 -0.208146 -0.202260 0.129511 0.580214 0.351504 -0.643213 0.721757 0.272023 -0.416230 -0.248830 -0.016235 0.100422 0.367602 -0.220700 -0.580316 -0.320209 -0.164540 0.209314 -0.280515 0.229238 0.813285 -0.561684 -0.104775 -0.394340 0.401631 0.238292 -0.134736 0.324257 0.027635 0.379739 -0.255281 0.139505 0.024771 -0.461951 0.381989 -0.162284 -0.709901
balata -0.687989 0.086932 0.109954 -0.253864 -0.148388 0.619623 0.158798 0.354323 0.096633 -0.153271 -0.744944 0.413600 -0.287269 -0.278884 0.220659 -0.395191 -0.109098 -0.153255 -0.182418 -0.338657 -0.218125 -0.008560 0.193716 -0.535370 0.288772 -0.014448 -0.222613 0.150274 0.142522 -0.171249 -0.555166 -0.248311 -0.123052 0.095843 0.548326 -0.008824 -0.530227 -0.176870 -0.343698 0.223934 -0.558729 0.090136 0.140707 -0.427926 0.221302 0.012438 0.849907 -0.248338 -0.565093 0.278655 -0.023448 0.054270 0.057037 0.027637 -0.382891 -0.253422 -0.084476 0.604258 0.036602 0.041714 -0.222889 0.087647 0.172051 0.190144 -0.167613 -0.532821 0.247812 0.275540 -0.722175 0.812484 0.086415 -0.193867 0.457865 -0.245307 0.273173 -0.098885 0.402132 -0.005078 -0.129436 -0.323472 0.085366 -0.182555 0.820746 0.449367 -0.001104 0.264154 -0.606611 0.201576 0.196214 0.171530 0.001919 0.308658 -0.140128 0.311507 0.026503 -0.234745 -0.415902 0.329727 -0.120322 0.063010
balatedi -0.676889 0.596116 0.150879 -0.012937 0.009873 1.025715 -0.141768 0.402782 0.186964 0.181130 -0.900530 0.305916 -0.598099 -0.403826 0.286475 -0.502306 -0.273011 -0.067212 -0.276780 -0.492574 0.162214 -0.005283 -0.086610 -0.176601 0.076398 0.232241 -0.162984 0.479325 0.032048 -0.211893 -0.599968 -0.134173 0.013938 0.101057 0.703782 0.129230 -0.361192 0.226425 -0.291635 0.308225 -0.095052 0.311859 -0.064213 -0.922046 0.222165 0.441263 0.153249 -0.488350 -0.353979 0.304494 -0.019771 -0.243014 0.016482 -0.034555 -0.269060 -0.233721 -0.280474 0.568819 0.078391 0.237186 -0.557474 -0.009179 -0.041845 -0.196783 -0.172271 -0.517446 0.359516 0.054924 -0.426668 0.270257 0.311477 0.123539 0.589706 0.042186 -0.082027 0.042359 0.395833 -0.080507 -0.095412 0.088151 0.280791 -0.217606 0.544512 0.096406 -0.269759 0.265858 -0.268811 0.502310 0.330907 -0.043218 0.188992 0.215223 -0.295761 0.323260 0.356079 -0.324086 -0.498663 0.495504 -0.138171 -0.091084
balefi -0.561358 -0.109025 0.647808 0.210216 -0.113384 1.006086 0.255054 -0.070293 0.264207 0.354129 -1.147726 0.369888 -0.201593 0.245309 0.590738 0.008931 -0.425510 -0.549641 0.014992 0.259749 -0.052818 0.883298 0.329277 -0.265968 0.127851 -0.203139 0.194811 -0.023266 0.277706 0.405530 -0.438728 -0.201813 -0.614057 -0.051234 0.569611 -0.113990 -0.092872 0.557419 -0.105265 -0.127521 0.160222 0.131539 -0.188447 -0.406388 0.181160 -0.188300 0.674835 -0.086397 0.081690 -0.313897 0.426279 -0.107945 -0.016930 -0.376920 -0.503394 -0.215680 -0.201102 -0.009053 0.228157 0.300584 0.276561 -0.060262 0.319976 -0.054575 0.484445 -0.154155 -0.245254 0.602342 -0.593722 0.642946 -0.028530 -0.690720 -0.027060 -0.156457 -0.248696 0.287281 0.007143 -0.374595 -0.411455 0.214444 -0.775247 0.219972 0.664354 0.285374 -0.238942 0.371070 -0.205170 0.094773 0.300406 0.160310 -0.091177 -0.155068 -0.220839 -0.060882 0.212860 0.106143 -0.772490 -0.049718 -0.006444 -0.167296
balemi -0.238519 0.376934 0.322051 0.421428 0.374362 0.225430 -0.149551 -0.309319 0.411690 0.092730 -1.205413 0.413381 -0.475805 -0.046077 0.422411 -0.007763 -1.080986 -0.574703 -0.177177 0.245912 0.583334 0.273083 0.000087 -0.570189 -0.285920 -0.125325 0.472614 0.174982 0.184074 -0.015159 -0.048472 -0.591286 -0.184912 -0.074839 -0.205581 0.447608 -0.305586 -0.085137 -0.175395 0.111504 -0.010242 0.079773 -0.319675 0.237063 0.288906 0.536116 0.036970 0.132482 -0.011291 0.550481 0.375634 0.177245 -0.468398 -0.240706 -0.780494 -0.196991 -0.132411 0.254952 0.085021 -0.448305 -0.260716 0.002146 0.275485 0.255296 0.375447 0.592534 -0.244760 0.343249 0.127464 0.800868 0.175183 -0.606550 -0.196333 0.029606 0.002581 -0.017680 -0.313917 0.158638 0.118883 0.082742 -0.319597 -0.067393 0.624245 0.644803 -0.838779 0.419356 -0.151143 0.579755 0.027355 -0.390567 0.572901 -0.148688 -0.176426 -0.185722 0.031871 -0.005105 -0.628848 -0.176511 -0.053776 0.140268
baloi -0.234113 0.122561 0.277271 0.095658 0.316946 0.655118 0.079083 0.023648 0.630666 0.181367 -0.476242 0.750949 -0.136921 -0.133709 0.612724 -0.029528 -0.325015 0.056183 0.278637 0.179468 0.083722 0.486288 0.299390 -0.222118 -0.057805 0.014865 -0.026795 0.428497 0.368927 -0.022945 -0.289923 -0.417585 -0.266390 0.133414 0.368202 -0.297636 0.103487 0.162950 -0.340443 0.160077 -0.170748 0.313845 -0.225449 -0.298475 0.732840 0.189609 0.378039 0.223606 -0.727949 0.408108 0.043774 -0.444071 0.125719 -0.438427 -0.332676 -0.322192 -0.296802 -0.141709 0.009762 -0.115558 0.268779 0.062413 0.067178 0.053559 0.341355 -0.113224 0.167766 0.207864 -0.601876 0.680646 -0.411020 -0.420222 0.285519 -0.101246 0.182907 0.351031 0.553577 -0.172879 0.257734 0.289165 0.052116 0.600452 0.912395 0.358090 0.100628 0.345061 -0.668038 0.271391 0.220647 -0.095182 -0.098060 0.127387 -0.189490 0.180712 0.039359 -0.323317 -0.364806 0.116037 -0.301564 -0.286386
baloki -0.166986 0.467737 0.114310 -0.095587 -0.061020 0.979226 -0.107368 0.467408 0.014155 0.000581 -0.687940 0.518844 -0.061271 0.222652 0.367254 0.119012 -0.330413 0.188236 0.238681 0.193048 -0.085604 0.472676 -0.065809 -0.212370 -0.140788 0.086419 -0.127074 -0.022976 0.351577 0.297066 -0.358120 -0.422521 0.061151 -0.078764 0.605937 -0.032422 0.049871 0.554128 -0.119837 -0.012532 0.015395 0.034261 -0.294459 -0.364173 0.209665 -0.058068 0.119415 -0.075688 -0.676967 0.452959 0.306681 -0.076698 0.106353 0.057434 -0.474732 -0.470333 -0.493684 0.148894 -0.127082 -0.206931 -0.088724 -0.084009 -0.042769 -0.125537 0.458271 -0.206331 -0.019731 0.170149 -0.395814 0.655610 -0.385528 -0.474734 0.415107 0.019105 -0.007560 0.204236 0.460565 0.227230 0.103792 0.425376 -0.217665 0.256996 0.659340 -0.052148 0.085265 0.117915 -0.112779 0.653811 0.069014 -0.149838 0.065086 -0.057191 -0.058756 0.409582 0.315615 -0.318494 -0.505185 0.555290 -0.005690 -0.308840
balwetsi -0.333603 -0.181614 0.001595 -0.031420 0.210519 1.104041 -0.057769 0.227757 0.418855 -0.749482 -0.492919 0.029862 0.021101 0.275159 0.739331 -0.052003 -0.295124 -0.100836 -0.216418 0.347879 0.474739 0.271302 -0.090531 -0.380581 -0.080573 0.507458 0.134644 -0.111541 0.290338 0.114959 -0.566230 0.008765 -0.056572 0.067640 0.629275 -0.030363 -0.302872 0.192489 0.077306 0.227110 -0.120989 0.117293 0.060893 -0.448193 0.084990 -0.353442 0.629699 -0.008916 0.012324 0.167921 0.325301 0.165625 0.080789 -0.519396 -1.048104 -0.167475 -0.086272 0.168536 -0.294600 -0.192139 0.602738 -0.415286 -0.754941 0.164290 0.470028 0.285775 0.068501 0.090647 -0.551754 0.693065 0.300772 -0.730576 0.089843 0.294263 -0.348713 0.247412 -0.047775 0.387802 0.246158 0.467801 -0.314462 -0.135544 0.402291 0.912070 -0.425705 0.424646 -0.344714 0.510037 -0.423473 0.165230 -0.001944 0.181770 -0.732602 0.465579 0.421345 -0.264464 -0.004511 -0.077896 0.442186 -0.286420
bana -0.256589 -0.093137 0.075642 -0.361315 -0.345907 0.551231 0.125625 0.011262 -0.210177 -0.235647 -1.220366 0.697576 0.202644 -0.053549 0.777869 -0.285954 0.005633 -0.094321 0.071878 0.247476 -0.382507 0.384358 0.636683 -0.401128 0.723806 -0.150572 0.517833 -0.107088 0.069388 0.262397 -0.118351 -0.497711 -0.210550 0.175361 0.206585 0.299635 -0.069569 0.152905 -0.100916 0.349849 -0.206737 0.028393 -0.613521 -0.562483 0.549945 -0.126760 0.475640 0.119794 -0.553688 -0.288478 -0.254084 -0.070709 0.374519 -0.079478 -0.701710 -0.460850 -0.261955 -0.206540 0.223585 -0.087952 -0.286777 -0.106703 -0.329096 0.170864 0.458606 0.208948 0.245306 0.059123 -0.155989 0.470523 0.000312 -0.742076 0.032753 -0.037006 0.324482 -0.015283 -0.003860 -0.117131 0.780307 -0.030054 -0.469357 -0.171375 1.089654 1.076643 0.086309 0.132347 -0.341663 0.199373 0.140609 0.470791 0.037894 0.072799 -0.291717 0.490644 0.404026 -0.239430 0.125407 0.522665 0.033562 0.093705
banamedi -0.087743 0.128935 0.007416 0.329083 0.104758 0.488821 -0.033006 0.643869 0.253626 -0.153273 -1.376383 0.658608 -0.704685 0.386161 0.709310 -0.300511 0.359165 0.023615 0.438567 -0.067661 0.258406 -0.199109 0.475300 -0.380568 0.250787 0.061777 0.698168 -0.232141 0.244059 -0.123043 -0.118876 -0.241621 -0.007401 0.415519 0.439800 0.094668 0.156470 0.714374 -0.079257 0.117643 -0.530604 0.384994 -0.426418 -0.471408 0.186794 0.502886 0.316571 -0.064207 -0.112826 -0.075834 -0.364146 -1.071529 0.017494 -0.057437 -1.085998 0.151639 -0.293146 -0.283884 0.184088 -0.135735 0.259178 -0.009108 -0.313939 0.118841 -0.056683 -0.225701 0.587744 -0.321393 -0.424213 0.595892 -0.005921 -0.146627 -0.181480 0.112558 0.213737 0.081539 0.196188 -0.076913 0.318707 0.453187 -0.128528 0.209027 0.639271 0.114515 0.068494 -0.379234 -0.464587 0.559098 0.297858 -0.068618 0.155671 -0.292554 -0.395908 0.218466 0.130651 -0.286543 -0.146290 -0.062459 -0.277075 -0.153559
baneng -0.006981 0.128547 0.385940 -0.541581 -0.186509 0.721260 -0.145043 -0.034120 0.255078 -0.446623 -0.886693 0.336674 -0.566368 -0.597572 0.152230 -0.089237 0.131288 -0.455205 0.132114 0.229872 0.184688 0.541209 0.375330 -0.235083 0.328941 -0.176413 0.376726 -0.338158 0.121486 0.067564 0.046016 0.089154 -0.182719 0.072679 0.177371 -0.163972 -0.084212 0.291684 0.085944 -0.554260 -0.547818 -0.237078 -0.253507 -0.323277 0.318977 0.128056 0.242843 -0.110214 -0.316545 0.121426 -0.176858 -0.294938 -0.417541 -0.314438 -0.773157 -0.419552 0.098733 0.210888 0.391184 -0.094741 -0.074235 0.260574 -0.047902 -0.025648 -0.093859 -0.115066 0.362524 -0.174441 -0.240455 0.072520 0.046929 -0.554802 -0.029650 0.010563 1.122416 0.832251 0.271067 -0.452005 0.380027 0.076604 -0.473314 0.300171 0.663121 0.387684 0.262335 -0.054827 -0.022378 0.008731 0.086077 0.005388 -0.389695 0.223273 0.194674 -0.459848 0.095184 -0.083478 -0.083514 0.816574 -0.123052 0.480377
banenyana -0.299449 0.141978 0.359707 -0.338602 0.022758 0.310330 -0.000025 0.069175 -0.154236 -0.117617 -0.920882 -0.085397 -0.396163 0.000160 0.125571 -0.329157 0.099544 -0.523504 0.437820 0.343590 -0.225493 0.694233 0.462085 -0.499730 0.482168 -0.383688 0.176930 0.056993 0.135994 0.329602 -0.151954 -0.405829 -0.093439 -0.092454 0.020902 0.256822 0.264095 0.366387 -0.337773 -0.285718 -0.068243 0.078865 -0.047348 -0.195743 0.401164 0.001845 0.597896 -0.044297 -0.262863 0.213037 -0.142329 -0.252113 0.244985 -0.214626 -0.433216 -0.267732 0.153634 -0.103515 0.600517 -0.347947 0.056253 0.022730 -0.058254 0.300428 0.187018 -0.366918 0.547034 0.320421 -0.364710 0.305035 0.167083 -0.120910 0.191809 0.295591 0.370683 0.518526 0.274675 -0.068575 0.293336 -0.146453 -0.082473 0.130328 0.444768 0.457343 0.331500 0.020046 -0.171450 -0.169952 0.372099 0.405513 -0.021286 0.002622 -0.084291 -0.085715 0.017939 -0.224024 -0.229506 0.560385 -0.140882 0.124791
bangwadi 0.257907 0.330075 0.194837 -0.294467 0.454490 0.999504 -0.022094 0.366427 0.638398 0.409538 -0.364307 0.399336 -0.545869 -0.195959 -0.011319 0.331203 -0.171635 0.176787 0.153153 0.071711 -0.228481 0.157849 0.410570 -0.914030 0.725464 -0.056909 0.022493 0.343041 0.469668 0.469638 -0.125517 -0.256638 -0.442978 -0.378418 0.784595 0.414146 0.294589 0.417322 0.256723 -0.187890 -0.095491 0.269047 -0.272167 -0.265070 0.489920 -0.254561 0.307439 -0.287055 -0.370718 0.434909 -0.127785 0.133870 0.037238 0.064908 -0.566470 0.101531 0.252414 0.006842 -0.115000 0.051359 -0.248173 -0.275338 0.407604 -0.044188 0.461472 0.196382 0.312125 0.391773 -0.445522 0.448436 0.175160 -0.831771 -0.578742 0.110529 0.559687 0.353197 0.278839 -0.575347 -0.046348 -0.555879 -0.208734 -0.228027 0.252068 0.655046 -0.100151 0.120292 0.216860 0.157033 0.024220 -0.002528 0.135680 -0.012878 -0.077438 0.471471 0.444668 0.050672 -0.446401 -0.365781 -0.535690 -0.137346
banna 0.261077 0.030448 0.335170 -0.200151 -0.594489 0.734502 0.000015 0.019254 0.113784 -0.292361 -0.639159 0.463112 -0.332607 -0.069771 0.319057 -0.074814 -0.139108 0.106284 0.391538 0.310215 -0.230071 0.842782 0.408070 -0.445222 0.375236 0.019107 0.052203 -0.019301 0.091618 0.182444 -0.597237 -0.257144 -0.176370 0.291950 -0.082141 0.092681 0.129672 0.119356 -0.574374 0.036700 -0.163340 -0.102787 -0.820468 -0.265932 0.489668 -0.095198 0.098445 -0.149313 -0.440316 0.264145 -0.016457 -0.201727 0.030308 -0.400964 -0.642525 -0.312109 0.293073 -0.038008 0.611811 -0.485202 0.006035 -0.009824 -0.270344 0.112566 -0.065784 -0.442392 0.804169 0.046969 -0.434036 0.446534 0.406856 -0.434319 0.302598 0.063606 0.721913 0.098788 0.072633 -0.278623 0.315056 0.155267 -0.178293 0.676800 0.894545 0.440853 -0.085901 0.120630 -0.296042 -0.011011 0.710661 0.407602 0.393446 0.385668 -0.106532 0.333297 0.370957 0.082505 -0.258581 1.092151 0.479275 0.097268
banneng 0.215735 -0.024520 0.449441 -0.486319 -0.110955 0.768961 -0.063636 -0.026143 0.126537 -0.321943 -0.840058 0.171112 -0.446969 -0.405699 0.161431 -0.010576 0.003512 -0.346761 0.100108 0.309317 0.169117 0.594217 0.369034 -0.230758 0.200757 -0.026683 0.448299 -0.184164 0.178694 -0.083779 -0.252001 -0.125175 -0.091536 0.126553 0.205578 -0.131110 -0.087283 0.255035 -0.178196 -0.173155 -0.275998 -0.160213 -0.111149 -0.176723 0.470529 -0.105084 0.245776 0.073149 -0.446777 -0.198807 -0.087676 -0.405471 -0.387498 -0.422934 -0.533266 -0.279463 -0.029505 0.359321 0.445183 -0.130687 0.150534 0.069034 -0.169896 -0.127525 -0.040670 -0.142059 0.358899 0.028901 -0.094498 0.048127 0.048669 -0.237906 -0.011305 0.174210 0.685028 0.654280 0.151459 -0.392561 0.347000 0.020354 -0.348955 0.459139 0.655549 0.288995 0.203515 0.116105 0.030276 -0.043185 0.336042 0.139100 -0.153190 0.318869 0.030558 -0.262501 0.043918 -0.249607 -0.225917 0.839369 0.046945 0.200289
banyakisisi -0.206232 0.358491 0.554731 -0.281911 0.070834 0.677794 -0.477782 1.048367 0.436681 -0.000549 -1.014152 0.262832 -0.084867 0.287385 0.398637 -0.209061 -0.294039 -0.135124 -0.076353 0.105725 0.187941 0.227404 0.374085 -0.465101 0.855426 0.137660 -0.027823 0.288881 0.153872 -0.000957 -0.587665 0.188831 -0.069531 0.268600 -0.174980 0.011485 -0.398020 -0.083318 -0.009976 0.064755 0.266884 0.212664 -0.068885 0.266373 0.043406 -0.110873 0.039789 0.116149 -0.192783 0.274819 0.128793 -0.000223 0.320016 -0.016661 -0.593581 -0.286050 -0.200933 0.612376 -0.540187 -0.365835 0.506995 -0.027169 0.472618 0.109904 -0.296219 0.143586 -0.039287 0.009244 -0.801133 0.499790 -0.095979 -0.202754 0.041216 0.168526 0.275454 0.255925 -0.009359 -0.300986 -0.095239 -0.581927 -0.398607 -0.183707 0.336199 0.232830 -0.609498 0.009789 0.293725 0.408403 -0.278321 -0.074885 0.488354 -0.425688 -0.021986 0.259206 0.016869 0.414877 -0.434579 -0.277754 0.572661 -0.270230
baoki -0.000024 0.191557 0.110649 0.096627 0.123666 1.707927 -0.117156 0.552933 0.697622 -0.248883 -0.785185 0.093411 0.334822 0.559594 0.668731 0.127551 0.152802 0.077244 0.333164 0.563336 0.302875 0.532631 0.125721 -0.446237 0.262195 0.098100 0.030460 0.205930 0.293072 0.347541 -0.569534 -0.198003 -0.025542 0.152114 0.465773 0.065683 0.061716 -0.263527 -0.013039 -0.278308 0.179864 -0.337958 -0.435066 -0.550788 0.091637 -0.222977 0.210308 0.261285 -0.235571 0.607187 0.284139 -0.139414 0.235773 -0.330608 -0.915063 -0.014977 -0.355475 0.441022 -0.423513 -0.084785 0.603576 -0.273535 -0.018626 0.251054 0.106984 0.343740 0.362479 0.137258 -0.384641 0.926260 -0.094540 -0.594083 -0.342404 0.099024 -0.245404 0.420614 0.259555 -0.040498 0.240729 0.224411 -0.778769 0.070893 0.126970 0.284431 0.143047 0.080536 0.362660 0.685158 -0.512442 0.275309 0.749674 -0.147312 0.084600 0.607050 0.100400 0.057790 -0.831962 0.204813 -0.046285 -0.681159
baopedi 0.059454 0.357022 0.238494 -0.154617 0.133559 0.764148 0.321495 -0.005274 0.459484 -0.079992 -0.875221 0.405699 -0.137768 -0.081141 0.563137 -0.104697 -0.033281 0.173407 0.259088 0.226530 -0.170696 0.441989 0.372930 -0.530810 0.014236 -0.051352 -0.098555 0.276733 0.118780 0.045990 -0.309445 0.155675 -0.132926 -0.057633 0.433569 0.284632 -0.177762 0.302122 0.130941 0.156503 -0.127329 -0.113284 -0.540411 -0.421324 0.231463 -0.061828 0.391006 0.184479 -0.165976 0.357668 -0.076803 -0.479684 -0.138585 0.036231 -0.435785 0.145848 -0.250540 0.092414 -0.200094 -0.082770 -0.152507 -0.295657 0.178431 0.365717 -0.342435 -0.048105 0.151631 0.369328 -0.264628 0.783330 -0.180418 -0.293010 -0.150579 0.203618 0.222814 0.393404 0.168307 -0.156624 0.210227 0.261792 -0.215302 0.040112 0.311104 0.674613 -0.310575 0.119611 0.092320 0.195364 -0.035381 0.073627 0.335718 -0.465587 0.001434 0.337591 0.305767 0.039305 -0.343073 0.106328 -0.638506 -0.184018
baporofeta -0.038889 -0.033747 0.314159 -0.428760 -0.514888 0.430068 -0.087353 0.024054 0.150640 -0.446660 -0.758520 0.298079 -0.395565 -0.075294 0.450034 -0.441370 -0.093431 0.264377 0.150167 0.007307 -0.355509 0.297034 0.511613 -0.135675 0.225812 -0.006854 0.121387 -0.046334 0.372555 0.188848 -0.134010 -0.006696 -0.357520 0.054716 0.154253 -0.102854 -0.045092 0.017823 -0.145791 0.322713 0.049660 0.218676 0.277967 -0.014238 0.261457 0.181152 0.077432 -0.306822 -0.321069 0.248069 -0.188939 -0.522899 0.234474 0.187032 -0.702134 -0.439642 -0.211155 0.269111 0.197692 -0.204416 -0.047750 -0.125993 -0.131083 -0.016352 -0.267920 -0.466258 -0.090021 0.176014 -0.396258 0.285965 -0.189580 0.314572 -0.318506 0.199827 0.550141 0.386037 0.297310 0.513071 -0.070205 -0.257398 0.295564 0.162312 0.889008 -0.102563 -0.007935 -0.100312 -0.228242 0.293576 -0.316604 -0.078916 -0.248176 0.257894 -0.196240 0.139854 0.595405 -0.711225 -0.089877 -0.078195 -0.205969 -0.254045
baraloki 0.249172 0.872845 0.108299 0.119009 -0.435484 1.254661 -0.256426 0.523321 0.604939 0.169566 -1.281898 0.094163 -0.320267 0.579147 0.101563 0.144609 -0.430714 0.187669 0.312823 0.014783 -0.305876 0.627703 -0.049307 -0.302589 -0.201341 -0.009679 0.065059 0.133189 0.367836 0.035668 -0.158508 -0.103902 0.165224 0.043118 0.372147 0.419735 0.028880 0.154232 -0.096235 0.015120 0.529450 -0.137803 -0.414845 -0.389376 -0.000202 0.295801 0.088227 -0.209164 -0.890698 0.672547 0.291881 -0.259433 0.118406 0.249878 -0.726650 -0.247605 -0.090264 0.165497 0.346093 -0.179238 -0.041866 0.103769 -0.086358 -0.316843 0.483562 -0.338332 0.306181 0.234000 0.128803 0.506778 -0.117323 -0.315860 0.326995 0.008923 0.043560 0.076344 0.518536 0.708972 0.410330 0.287554 0.331006 0.325546 0.564555 -0.030289 -0.110458 0.062365 0.091348 0.832715 -0.078400 -0.632453 0.334036 -0.194794 0.201173 0.225735 0.125592 -0.265213 -0.468758 0.725649 -0.156276 -0.226120
bararo 0.025783 0.453994 0.370321 -0.204544 -0.390025 0.389721 -0.079693 -0.127367 0.814991 0.079640 -1.755529 0.352951 -0.577325 0.030619 -0.130181 -0.484209 -0.172419 0.016089 0.489637 -0.080588 -0.102768 0.702337 0.491311 -0.636664 0.539911 0.078660 0.170183 0.581291 0.324855 -0.306950 -0.243524 0.365187 0.080309 0.717992 0.225083 0.317775 -0.178946 -0.126855 -0.745864 -0.251122 0.189285 0.242982 -0.375236 -0.255441 0.088865 0.302166 0.268931 -0.008520 -0.124088 -0.289909 0.145015 -0.181670 0.118856 0.147960 -0.694272 -0.171599 -0.300768 0.153147 0.224991 0.275106 0.091125 -0.276368 0.302673 -0.054579 -0.268783 -0.062457 0.341256 0.328539 -0.173985 -0.002087 0.473221 -0.431044 -0.262881 -0.230760 0.543810 0.609987 0.211039 0.419785 0.458768 -0.109210 -0.066436 0.376116 0.747441 0.290719 0.030967 0.164374 -0.441898 0.628091 0.720268 -0.026240 0.133737 -0.254588 -0.185138 -0.144674 -0.104022 -0.345284 -0.249265 0.670028 -0.056410 0.059099
baratani -0.137180 0.252994 0.170726 0.190902 -0.214292 0.698677 -0.215351 0.096704 0.725075 0.094347 -1.070202 -0.034894 -0.359400 0.225436 0.290165 -0.130645 -0.150656 -0.054777 0.321575 0.124579 -0.246678 0.352372 0.418132 -0.690247 -0.070020 -0.285823 -0.009024 0.370984 0.583136 -0.020849 -0.215144 0.063454 -0.082820 0.091400 0.318312 0.241163 0.174808 0.006182 -0.023359 -0.480551 0.103303 0.207578 0.020858 -0.188551 -0.042711 -0.115881 0.377008 0.349295 -0.672694 -0.017096 -0.335742 -0.311922 0.040473 -0.296148 -0.783031 0.007152 0.340613 0.476833 0.438527 -0.037407 0.211319 -0.099313 -0.142380 -0.046837 0.206435 -0.090692 0.217853 0.446396 -0.182704 0.328379 -0.046087 0.228553 -0.072655 0.153161 0.215809 0.377037 0.670489 0.364504 0.318000 -0.086520 -0.215170 0.335953 0.413421 0.324434 -0.156852 0.159841 -0.242896 0.196631 0.182406 -0.005201 0.059036 -0.454442 -0.290545 -0.018146 0.233577 -0.231301 -0.101294 0.495884 -0.726130 0.014098
bareki -0.620359 -0.108746 0.924597 0.317395 0.089189 0.564052 -0.950613 0.216230 0.825407 0.484642 -0.764079 0.376593 -0.669414 0.415352 0.199567 0.192556 0.022603 0.189578 0.379607 -0.076127 0.185551 0.194547 0.609873 -0.474345 0.333240 -0.728540 0.252110 -0.096948 0.414831 0.140797 -0.417821 -0.209781 -0.483834 -0.114585 0.343504 0.249541 0.013733 0.277160 -0.214164 -0.206120 0.416324 0.082932 -0.313201 0.158104 -0.116456 -0.014188 0.390787 0.443524 -0.937112 0.273724 0.169922 0.138162 0.038961 0.190938 -0.867440 -0.491898 0.101933 -0.244503 0.020321 -0.535268 0.261137 0.469217 -0.220420 0.116945 0.348958 0.390690 0.158338 0.142383 -0.391879 0.532744 -0.003098 -0.369058 -0.142942 0.080416 -0.088604 0.497580 0.330676 -0.108496 -0.235337 -0.156357 -0.312004 0.216458 0.364326 0.149937 -0.582090 -0.165812 0.066483 0.161612 0.131711 -0.258506 0.421350 -0.777505 0.303916 -0.401149 0.111245 0.370681 -0.105976 -0.285629 -0.651415 -0.143991
bareti -0.224367 0.405461 0.263013 0.129099 -0.078802 1.155931 -0.274965 0.109944 0.674462 0.195846 -1.079125 0.184562 -0.448215 -0.067168 0.145962 0.079803 -0.355543 0.230649 0.570973 0.189376 -0.106372 0.542502 0.343253 -0.659866 0.264675 -0.036093 -0.036123 0.417841 0.058754 0.273639 -0.163839 0.118994 -0.204225 0.104564 0.230261 0.026374 0.285704 -0.159377 -0.174103 0.091831 -0.031919 0.174187 -0.315731 -0.166636 0.050744 0.326508 0.168867 0.145888 -0.902489 0.222491 -0.235171 -0.227209 -0.000086 -0.095247 -0.876611 -0.005496 -0.009661 -0.025798 0.548534 -0.404970 -0.039299 0.054256 -0.060861 0.366999 0.288828 0.064531 0.314789 0.296790 -0.243420 0.600033 -0.285464 -0.012495 0.232396 -0.053910 0.215686 0.376975 0.171541 0.114612 -0.148322 -0.022833 -0.232432 0.317085 0.492493 0.222467 -0.194534 0.119375 -0.048602 0.070289 0.157702 0.385274 0.046232 -0.180799 0.100656 -0.065808 0.598186 -0.488329 -0.535682 0.162501 -0.738032 -0.208352
baromiwa 0.040802 0.283656 0.358094 -0.266900 -0.014967 0.891526 0.184372 0.176400 0.778007 -0.063970 -1.064687 0.189896 -0.866603 0.103678 0.325970 -0.171579 -0.708323 0.420945 -0.168607 -0.298412 -0.351504 0.369096 0.397187 -0.167534 0.139923 -0.289275 0.325098 0.067049 -0.133833 -0.090621 -0.315369 -0.111601 -0.121216 0.150814 -0.144736 0.274601 -0.074886 -0.218320 -0.297093 0.071564 -0.085351 -0.139174 0.131585 -0.231020 0.368022 0.143767 0.054022 -0.475255 -0.436723 0.571081 0.149507 -0.295018 -0.164888 0.159699 -0.357510 0.196525 0.467897 0.064853 -0.108856 0.302706 -0.252111 -0.106849 -0.188173 -0.009193 -0.419834 0.264546 0.359792 0.064803 -0.507294 0.399899 0.142919 0.004101 0.225079 -0.144584 0.082583 0.319219 0.030066 0.286809 -0.106886 -0.037652 0.188715 -0.179198 0.300980 0.248384 -0.276521 0.037045 0.387057 0.295901 0.060069 0.111563 -0.130121 -0.061226 0.066174 0.019628 0.260092 -0.260466 -0.316897 0.046315 -0.261929 0.243216
barongwa -0.019882 0.335507 0.568464 -0.192555 -0.016781 0.923781 -0.252003 -0.508632 0.501604 0.037611 -0.746071 0.295470 -0.676215 -0.141986 0.022166 -0.098845 -0.094889 0.136504 0.075131 -0.344082 -0.350641 0.009541 0.459221 -0.509899 0.223107 -0.087213 -0.076317 -0.213224 0.355528 0.339038 -0.461809 -0.302711 -0.127164 -0.082048 0.206577 0.030311 0.244969 -0.012476 -0.493594 0.092190 -0.367958 -0.125838 0.331293 -0.146186 0.364477 0.130679 0.111229 -0.127139 -0.437904 0.265347 0.276841 -0.002635 0.072889 0.283496 -0.710728 -0.095710 -0.045241 -0.076555 0.013655 0.042643 -0.362468 -0.239939 -0.158005 0.070685 -0.674720 -0.185750 0.074087 -0.119674 -0.521069 0.419154 0.242595 0.038201 -0.111977 0.172314 0.314493 0.409979 0.278440 0.496243 0.169421 -0.269837 0.336979 0.152257 0.681899 0.015866 0.117890 -0.088680 -0.360454 0.607691 0.224083 0.171581 -0.285626 0.408026 -0.348226 0.145214 0.271539 -0.287416 -0.222133 0.384283 -0.159983 0.106021
baruti -0.263968 0.793903 0.366522 -0.557089 0.752642 1.226307 -0.178327 -0.185184 -0.069858 0.368154 -1.278851 0.249349 -0.220384 0.071153 0.049098 -0.106571 -0.355443 0.428900 0.346662 0.363025 -0.576423 0.242870 0.442293 -0.503038 0.513733 -0.336880 -0.563789 0.385527 0.163980 0.144616 -0.222284 0.251172 -0.085582 0.374719 -0.185814 0.029961 0.429418 -0.627433 -0.157252 0.244184 0.263164 -0.180278 -0.266620 -0.302897 0.387432 0.321384 0.029800 0.301510 -0.307647 -0.056521 0.194308 -0.074366 0.275987 0.136059 -0.566845 -0.016087 -0.052184 0.039494 0.095147 0.156662 0.124338 -0.223565 0.127202 0.595697 0.015282 -0.143026 0.485269 0.666643 -0.378381 0.304545 -0.676194 -0.135165 -0.002710 0.316375 0.565501 0.537764 0.130162 0.181469 0.399422 0.126251 0.306946 0.158666 0.689804 0.200207 -0.350586 0.390144 -0.173863 0.486233 -0.626435 0.114157 0.113875 0.102686 -0.141323 0.316756 1.150519 -0.261693 -0.905470 0.562131 -0.914136 -0.109534
barutisi -0.058887 0.428768 0.403497 -0.064052 0.837577 1.185723 -0.009735 0.285846 -0.401387 0.343530 -1.203421 0.140708 -0.281815 0.248681 0.142844 -0.231626 -0.377575 0.035385 0.025765 0.348969 -0.390851 0.212622 0.675833 -0.425589 0.476138 -0.290066 -0.327355 -0.126747 -0.234381 0.240567 -0.246345 0.257667 0.222653 0.213910 -0.302161 0.431152 0.059347 -0.026170 -0.107821 0.031842 0.379098 -0.200235 -0.595432 -0.252938 0.044061 0.105663 0.243290 0.388687 -0.096226 -0.413321 0.092028 -0.158590 0.345453 0.306046 -0.773244 -0.034029 -0.552226 0.312017 -0.241612 0.107645 0.582073 -0.201222 0.069064 0.610379 0.477449 0.166244 0.951452 0.954247 -0.729838 0.430418 -0.330859 -0.630814 -0.496816 0.388167 0.531154 0.532268 -0.220749 -0.110978 0.467656 -0.384514 0.235884 -0.168931 0.431082 0.206027 -0.489584 0.214278 0.029977 0.709691 -0.995292 -0.057003 0.321265 -0.424254 -0.088233 0.212311 0.943155 0.110442 -0.569207 0.009150 -0.648145 -0.034522
barutiwa -0.237682 0.182042 0.310127 -0.463133 0.243395 0.991540 -0.325896 -0.362745 -0.035180 0.055018 -1.037142 0.254780 -0.429017 0.040281 0.261841 -0.375775 -0.235320 0.286677 0.117287 0.096239 -0.598163 0.118517 0.379478 -0.321574 0.417707 -0.032823 -0.416895 -0.024902 0.328411 0.310970 -0.372693 0.047247 0.184279 0.185521 -0.017073 0.128897 0.172376 -0.240783 -0.519669 0.279694 -0.204044 -0.128998 0.400862 -0.018590 0.716999 0.264785 0.245074 0.187089 -0.455569 -0.293720 0.231098 -0.211810 0.262892 0.160251 -0.434365 -0.139350 0.047876 -0.188889 0.303338 0.161894 -0.049149 -0.301542 0.099752 0.375027 -0.426448 -0.130357 0.251928 0.624502 -0.630512 0.513209 -0.265780 0.011677 0.046673 0.498809 0.615279 0.467553 0.076164 0.303940 0.420166 -0.192978 0.039085 -0.020283 0.713566 -0.112846 0.002052 0.295573 -0.519462 0.394782 -0.211676 0.185105 -0.091055 0.364861 -0.425756 0.272533 0.859845 -0.653992 -0.540818 0.488318 -0.587001 -0.081347
barutwana -0.012415 0.209165 0.167255 -0.440281 0.705060 1.096256 -0.146855 -0.106096 -0.191249 0.144247 -0.836064 0.295171 -0.240786 0.336614 0.246282 -0.328116 -0.107432 0.019016 0.154965 0.027206 -0.171343 0.062013 0.482116 -0.441590 0.600123 0.210946 -0.094573 -0.086816 0.097030 0.133005 -0.181671 0.170444 -0.078486 0.485579 -0.253726 0.860143 0.186067 0.094659 -0.132050 -0.122454 -0.060789 -0.443433 -0.429448 -0.051165 0.314142 -0.060672 0.449525 -0.101111 -0.159389 -0.017342 -0.095962 0.245206 0.411470 0.150877 -0.667697 0.098871 0.088082 0.071033 0.129735 -0.154748 0.032685 -0.233074 0.094787 0.573234 0.460977 0.254979 0.531161 0.338703 -0.429564 0.383009 -0.321349 -0.456810 -0.497758 0.117081 0.757474 0.355475 -0.164324 -0.012831 0.494451 -0.307574 -0.146310 0.141940 0.678145 0.524498 -0.128177 0.105579 -0.025781 0.541169 -0.381262 0.045105 0.331388 -0.218013 -0.003246 0.441538 0.686067 -0.152356 -0.369204 0.033949 -0.446745 0.357377
barwa -0.462830 0.165774 0.271572 -0.512178 -0.323267 0.735898 -0.025975 -0.409416 0.795818 0.237956 -0.986097 0.695619 -0.511732 0.042927 0.226841 -0.266234 -0.440188 0.130441 0.126687 -0.207683 -0.498482 0.263572 0.329628 -0.580122 0.390410 0.091368 0.145537 0.319623 -0.026892 0.434624 -0.424218 -0.357597 -0.028623 0.278869 0.511783 0.041545 0.305789 -0.047598 -0.359986 0.213974 -0.089771 0.235425 0.164882 -0.078036 0.529011 0.196575 0.332647 0.022806 -0.807834 0.034179 0.145783 -0.235429 0.477699 0.069756 -0.668576 -0.189985 -0.068363 -0.144420 0.351625 0.277246 -0.370094 0.007353 0.145770 0.118258 -0.258599 -0.234021 0.345973 0.217072 -0.633413 0.522515 -0.101448 -0.265525 0.328153 0.343712 0.585250 0.140327 -0.089953 0.088455 0.158202 -0.277069 0.022148 0.391079 0.807245 0.548557 0.116279 -0.031931 -0.550209 0.228173 0.628969 0.220343 0.256551 -0.208293 -0.358969 -0.341059 0.274508 -0.472941 -0.318803 0.940466 -0.213834 -0.056261
barwedi -0.177701 0.143369 0.491592 -0.196440 -0.025499 0.698900 0.249229 -0.188149 0.657859 0.093411 -1.121068 0.195023 -0.818811 -0.211209 0.318535 -0.110657 -0.245779 -0.114625 0.248594 -0.022660 -0.159202 0.571160 0.487156 -0.551592 0.065882 0.149830 -0.061951 0.685720 0.179812 -0.161299 -0.443379 0.128296 0.063686 0.155434 0.359699 0.025525 0.366624 0.219605 -0.259880 0.170881 0.115666 0.325126 -0.149996 -0.151999 0.157485 0.044884 0.186189 -0.077468 -0.488911 -0.121505 0.209821 -0.633845 0.144478 0.135466 -0.700204 -0.215304 -0.276759 0.358322 0.203058 0.041923 -0.315147 0.124458 0.016512 0.007985 0.021174 -0.389000 0.394455 0.198798 -0.751355 0.237130 -0.037113 -0.517327 0.199062 0.139841 0.373135 0.371239 0.104471 0.098732 0.272398 -0.297517 -0.113945 0.164331 0.744669 0.512754 -0.114462 0.295880 -0.489795 0.283347 0.894037 0.380593 0.506353 0.117213 -0.541849 0.021809 0.258521 -0.539731 -0.235232 0.710379 -0.204660 -0.452562
basadi 0.263769 -0.133250 -0.051267 -0.064333 -0.402004 0.835769 0.064724 0.045487 0.320918 0.197177 -0.723971 0.156581 0.157723 0.029030 0.073380 0.147676 -0.266564 0.189378 0.523238 0.104334 -0.001676 0.326564 0.697137 -0.042956 0.421899 -0.139933 0.012657 0.130248 0.122181 0.523279 -0.222019 -0.737374 -0.104269 -0.153773 0.089443 -0.373376 0.302254 -0.088215 -0.085476 0.034242 0.286998 0.033212 -0.797000 -0.481218 0.768452 -0.509744 0.150081 -0.247704 -0.352743 0.228306 -0.056376 -0.201926 -0.249549 0.413418 -0.384469 -0.562115 -0.175560 -0.095582 0.178597 0.026763 -0.271072 -0.132905 -0.478955 0.414648 0.233919 0.195028 0.644408 -0.332563 -0.006377 0.056665 0.710715 -0.460133 0.375532 0.480990 0.219218 0.283565 0.137283 -0.247803 0.318440 0.038946 -0.569284 0.103488 1.124787 0.814182 -0.437429 0.438637 -0.134801 0.271740 0.319236 0.293805 0.393127 0.062806 -0.242727 0.454402 0.226625 0.431852 -0.343931 1.189911 0.230799 0.133754
basemane 0.171107 0.035310 0.308406 -0.319506 -0.053994 0.437231 0.060713 0.151639 -0.014092 -0.180705 -1.140256 0.167472 -0.304547 -0.321334 0.127299 -0.172153 -0.274740 -0.100853 0.449535 0.233240 -0.156104 0.005215 0.616256 -0.350846 0.245152 0.472500 -0.161700 0.186102 -0.302009 0.177846 0.034492 -0.397897 0.374937 0.185438 0.372081 0.113729 -0.051222 0.017842 -0.102663 -0.183052 0.001979 0.193900 -0.182524 -0.063933 0.423068 0.130085 0.549679 0.230349 -0.089284 0.247867 0.195871 -0.445658 -0.019037 0.123182 -0.633972 -0.130714 0.386999 0.247507 0.459559 0.040693 -0.187616 -0.013063 0.110193 0.765874 0.214532 0.315596 0.365847 0.461937 -0.421347 0.297011 -0.045484 -0.357453 -0.087517 0.498345 0.884979 0.602493 0.619170 -0.136007 0.608671 -0.273642 -0.343037 0.234150 1.016698 0.441629 -0.030256 0.237781 -0.634249 0.216881 0.031596 0.274289 0.454215 -0.139825 -0.144652 0.229337 0.139133 -0.441969 -0.592740 0.248182 -0.516123 0.455036
basemanyana 0.140782 -0.176982 -0.010454 -0.347407 0.003231 0.189610 -0.181379 -0.031859 -0.258229 -0.160317 -0.721011 -0.142904 -0.304746 -0.134010 0.120458 -0.284219 -0.161302 -0.474360 0.321996 0.164663 -0.251388 0.501340 0.516313 -0.365422 0.563054 0.316956 0.071295 0.272877 -0.161099 0.323145 -0.033151 -0.238391 0.216545 0.184517 0.209371 0.391616 0.141343 0.169346 -0.308272 0.053664 0.036407 0.186248 -0.287770 0.052757 0.503245 -0.003758 0.695122 -0.005097 0.016383 0.207433 -0.065954 -0.446164 0.127961 -0.227460 -0.564816 -0.297832 0.508695 0.019296 0.599938 -0.171608 -0.127616 -0.233413 0.051320 0.324423 0.077771 -0.059496 0.281783 0.657582 -0.183958 0.447488 -0.037423 -0.121542 -0.097883 0.403265 0.419571 0.665081 0.250205 -0.209299 0.374482 -0.067802 -0.160696 0.179121 0.813949 0.306545 0.245724 0.481670 -0.450675 -0.008730 0.021797 0.236803 0.251590 -0.070232 -0.227244 0.042113 0.170276 -0.399499 -0.544722 0.326380 -0.216324 0.182005
basenyi -0.293582 0.048104 0.657018 0.220024 -0.175771 0.967705 0.016043 0.198070 0.576289 0.164914 -1.017608 0.190942 -0.187394 -0.137855 0.570903 -0.453951 -0.036601 -0.686937 0.319708 -0.128814 0.573818 0.238227 0.546917 -0.317614 0.159697 -0.006966 -0.208295 0.582583 0.213718 -0.120871 0.019333 -0.514716 0.501121 0.765782 -0.400047 -0.130390 0.051629 -0.354215 -0.465654 0.119090 -0.033982 0.209325 -0.776928 0.269688 0.484901 -0.011884 0.202467 0.014795 -0.238560 -0.432643 -0.167562 -0.289724 0.338693 0.027014 -0.769086 -0.517414 0.142512 0.030361 -0.051739 -0.252129 0.087331 -0.346485 -0.254312 -0.080673 -0.615784 0.300549 0.287064 -0.283672 -0.421539 0.713782 -0.129890 -0.136049 -0.171955 0.206473 0.690396 0.306196 0.425380 -0.617015 0.384369 -0.187240 -0.789550 -0.338858 0.815858 0.606228 -0.027275 0.549933 -0.146774 0.377667 0.042793 -0.260156 -0.065896 0.266739 0.084018 0.035854 0.018263 -0.068747 -0.241588 0.435412 0.234837 0.374822
basetsana 0.108997 -0.037315 0.163159 -0.086690 -0.093991 0.245872 0.156226 -0.173321 -0.287933 -0.377129 -0.642587 0.317239 -0.630461 -0.011736 0.063859 -0.414848 -0.021934 -0.230770 0.392480 0.140482 -0.017952 0.591671 0.532829 -0.457364 0.405666 0.348000 0.158681 -0.110976 -0.423984 0.056060 -0.085234 -0.534414 0.069891 0.121958 0.120793 0.493018 0.087936 -0.048617 -0.493573 0.192978 -0.204676 0.224169 -0.296155 -0.182672 0.851073 0.082836 0.446788 -0.284971 -0.110689 0.265638 -0.106618 -0.259142 0.221800 -0.066846 -0.754137 -0.724292 0.415138 -0.106973 0.251769 -0.032111 -0.317644 -0.384236 -0.216927 0.295382 0.446642 0.088042 0.582662 0.474786 -0.352415 0.476381 -0.014705 -0.747101 -0.001566 0.452097 0.607358 0.260673 0.117156 -0.026348 0.668604 -0.066418 -0.388722 0.256472 0.774458 0.670975 -0.199457 0.124686 -0.469207 0.151706 0.180010 0.419098 0.239057 -0.000954 -0.236460 0.240240 0.462330 -0.319587 -0.286259 0.536032 0.010176 0.389182
basomedi 0.036409 -0.220679 0.151705 -0.022463 0.181816 0.883269 -0.106246 0.545843 0.512933 0.357600 -0.541017 0.522620 -0.465038 0.302142 0.676081 0.232718 0.133896 0.087767 -0.284587 -0.256398 0.073293 0.480776 -0.233540 -0.046223 -0.024307 0.038709 0.395625 -0.319552 0.226877 0.130836 -0.619871 0.024875 0.231829 -0.161364 -0.015726 0.228044 -0.180647 0.202748 -0.398283 0.195266 0.178283 0.423712 0.021745 -0.969118 0.376799 0.257412 0.287297 -0.463968 0.255722 -0.108270 0.351635 -0.048598 -0.490089 -0.012101 -0.604853 0.172413 -0.415309 0.343879 -0.341081 -0.077581 0.574624 -0.214959 -0.015230 0.023879 -0.156985 0.058918 0.181652 0.638891 -0.220485 0.334880 0.192282 -0.571419 -0.384272 0.156643 -0.011968 0.238975 -0.094019 -0.378288 -0.045826 0.014195 0.076485 0.479118 0.633757 0.603789 -0.479268 -0.275605 -0.463535 0.398852 -0.364203 0.298449 0.268109 0.228075 -0.070849 -0.055445 0.484713 0.516488 -0.222709 0.160908 0.072074 0.006024
basomi -0.056312 -0.439434 -0.042871 -0.229450 0.101990 0.764377 0.014433 0.614123 0.384851 0.578244 -0.817862 -0.025121 -0.563059 0.331382 0.442291 -0.074423 -0.309697 -0.370675 -0.337136 -0.089989 0.237954 0.755961 0.132278 -0.095907 -0.121092 -0.168706 0.237501 -0.269178 -0.166652 0.147519 -0.398945 -0.047214 -0.260878 0.012374 0.221161 0.473510 -0.212305 -0.027109 0.053283 0.484843 0.263172 -0.034595 -0.524631 -0.683729 -0.009491 0.291088 0.521360 -0.019936 0.353735 0.183235 0.693014 0.135183 -0.503107 -0.539554 -1.001556 -0.349099 -0.696058 0.341798 -0.492717 -0.227473 0.303123 -0.282287 -0.299250 -0.294414 -0.292290 0.140470 0.042328 0.366361 -0.398592 0.217972 0.014342 -0.708848 -0.009452 0.001919 0.095725 0.151572 0.219269 -0.621182 -0.214253 -0.096770 0.040326 0.472422 0.227764 0.290580 -0.892937 -0.152348 -0.223600 0.588953 -0.332773 0.673801 -0.006591 0.089074 0.354553 -0.109971 0.243918 0.117171 -0.454817 0.152900 0.182337 0.226803
basotho 0.082591 0.147695 0.277469 -0.118850 0.199645 1.104530 0.227514 -0.270863 0.198571 0.175031 -0.162679 0.253298 0.017997 -0.316315 0.319564 0.379588 -0.277067 0.106432 0.392114 0.140514 0.024551 0.083211 0.129093 -0.174925 0.154871 0.503115 0.023958 -0.064912 -0.020405 0.353437 -0.629185 -0.554479 -0.281344 -0.344519 0.360379 0.277778 -0.205980 -0.471262 -0.006785 0.601892 -0.161206 -0.059676 -0.188370 -0.277272 0.456521 -0.003504 0.443997 -0.207149 0.056806 1.034100 -0.507406 -0.147855 -0.607705 0.437776 -0.322073 -0.208647 -0.056421 0.550036 -0.221440 0.175775 -0.064616 0.044734 -0.465832 0.555482 -0.213572 0.128996 0.264311 0.555083 -0.177187 0.530866 0.132495 -0.191683 0.375065 0.136165 0.048405 0.305151 0.279550 -0.265753 0.208496 -0.253089 0.247573 0.326130 0.780427 0.422083 -0.213186 -0.032063 -0.487745 0.398920 0.275932 0.390795 0.120139 0.096650 0.029355 0.382121 0.588821 -0.446224 -0.067227 0.096027 -0.613481 0.440383
baswana 0.230357 0.122079 0.130704 -0.101535 -0.033180 0.534491 0.153791 0.143752 0.332329 0.251475 -0.739880 0.562102 -0.046909 -0.016892 0.474479 0.158718 -0.110948 -0.013970 0.262231 0.017859 0.230879 0.554820 0.299059 -0.402973 0.234454 -0.036805 0.443736 -0.020876 0.342556 0.134530 -0.276252 -0.244754 -0.340092 -0.181877 0.193946 0.248968 0.003234 -0.160602 0.205228 0.081504 -0.222457 -0.268880 -0.801578 -0.577398 0.581550 -0.132006 0.594620 -0.268072 -0.113810 0.785860 -0.161580 0.003419 -0.277730 0.101286 -0.411482 -0.114542 -0.133493 0.092345 0.045222 -0.026336 0.252045 -0.257024 -0.120660 0.331127 0.092123 0.225148 0.344622 0.111839 -0.086406 0.816909 0.107811 -0.333230 -0.195501 0.265007 0.194303 -0.157953 0.301138 -0.111875 0.160155 -0.039751 0.087225 0.467044 0.697787 0.335235 -0.203908 -0.042715 -0.141266 0.093047 0.024496 0.492240 -0.153350 -0.374082 0.014829 0.778007 0.129592 0.084500 -0.055979 0.021531 -0.093831 0.341156
batheeletsi 0.442445 0.375592 0.184651 0.096760 0.143881 0.732248 -0.063990 0.359062 0.407071 0.053731 -1.017443 0.347581 -0.568231 0.202136 0.024271 0.279815 -0.609998 0.259628 -0.222661 0.542927 0.301711 -0.218470 -0.174392 -0.175866 0.339238 -0.184403 -0.062237 0.197143 0.524696 -0.021361 -0.202979 0.099308 -0.355683 -0.246022 0.767346 0.664430 -0.553724 0.478411 -0.268842 -0.218769 0.224436 -0.185848 0.105402 -0.023970 0.666418 -0.250301 0.423218 -0.155584 -0.426175 1.106348 0.316920 0.302220 0.110280 0.811731 -0.280989 0.099315 -0.145697 0.056248 0.178268 -0.127489 0.074333 -0.474586 0.128740 -0.180685 -0.027371 0.195615 -0.075666 0.027257 -1.013063 1.200262 0.175395 -0.110830 0.035026 -0.015855 0.115183 0.125039 0.445042 -0.529091 -0.128062 -0.709970 -0.280427 0.094698 0.658015 0.088609 -0.140334 0.091407 0.008119 0.283666 0.313663 0.148691 -0.484157 -0.729752 0.459316 0.267255 0.334165 0.264181 -0.339049 -0.256091 -0.292924 -0.560539
